3640 50
</s> 0.008005 0.008839 -0.007661 -0.006556 0.002733 0.006042 0.001882 0.000423 -0.007207 0.004437 -0.008713 0.002499 -0.001503 -0.001914 -0.006631 -0.003764 0.005159 0.006051 0.005938 0.003195 0.003090 -0.007605 -0.008192 0.009939 0.007603 0.006180 -0.001208 0.008031 -0.000990 0.001469 -0.000298 -0.005966 0.002625 -0.002675 -0.007651 0.009508 0.008759 -0.002190 -0.000452 0.001018 -0.007275 -0.008014 0.009109 0.000126 -0.005165 -0.006084 -0.006153 0.003394 0.000403 0.002662 
the -0.037123 -0.188522 0.151079 -0.104164 0.003042 -0.151156 0.127946 -0.030088 -0.093357 -0.019764 0.512990 0.034886 -0.368042 -0.165429 0.138783 0.322347 -0.046702 -0.147097 -0.055821 0.045207 -0.164603 0.271636 0.314826 -0.224147 -0.022278 -0.141312 -0.324324 0.182479 -0.073170 0.152243 -0.142379 0.018240 -0.049573 -0.145954 0.085231 0.139823 0.232718 0.119252 0.370116 -0.169288 -0.386549 0.211019 0.076306 0.065475 0.288354 0.302283 -0.037972 0.318248 -0.191286 -0.113083 
, -0.023049 -0.180553 0.140927 -0.116150 -0.002174 -0.134608 0.107406 -0.031883 -0.090828 -0.016114 0.495088 0.029580 -0.352738 -0.163416 0.149686 0.313276 -0.067057 -0.143617 -0.050065 0.036605 -0.174387 0.263606 0.303243 -0.221638 -0.000391 -0.133712 -0.289275 0.183987 -0.083973 0.138150 -0.129513 0.020938 -0.054706 -0.164686 0.073367 0.097625 0.202579 0.096354 0.333142 -0.161301 -0.378313 0.193881 0.096508 0.074731 0.265443 0.301382 -0.018055 0.281695 -0.190467 -0.096668 
. -0.035623 -0.188296 0.137746 -0.125297 0.003195 -0.133296 0.111646 -0.032801 -0.095604 -0.019261 0.528780 0.030244 -0.383571 -0.188349 0.173636 0.341455 -0.068603 -0.138782 -0.056178 0.043063 -0.192444 0.285945 0.323071 -0.246999 0.004097 -0.141228 -0.327556 0.193558 -0.077945 0.143298 -0.140502 0.032207 -0.060494 -0.176613 0.084939 0.114418 0.230169 0.118316 0.384919 -0.168845 -0.413452 0.218762 0.105557 0.084818 0.296361 0.322843 -0.016474 0.310301 -0.206069 -0.120512 
of -0.036831 -0.162848 0.132992 -0.097329 -0.004075 -0.125441 0.107145 -0.032115 -0.087057 -0.004589 0.449753 0.026032 -0.316848 -0.152956 0.127013 0.283977 -0.039687 -0.116168 -0.037453 0.041652 -0.149636 0.242870 0.280501 -0.185542 -0.017113 -0.112663 -0.261334 0.155369 -0.077711 0.142445 -0.118222 0.019675 -0.049502 -0.134880 0.066916 0.102911 0.190138 0.090512 0.309686 -0.140842 -0.335879 0.183372 0.079358 0.053537 0.252138 0.264105 -0.025119 0.273153 -0.173932 -0.099517 
to -0.026233 -0.171102 0.115573 -0.118463 0.011837 -0.123936 0.101868 -0.031150 -0.066473 -0.010089 0.472069 0.025338 -0.338597 -0.162763 0.157130 0.289720 -0.056689 -0.130165 -0.050862 0.033322 -0.166292 0.265267 0.286541 -0.221765 0.008201 -0.121252 -0.284148 0.185715 -0.082184 0.123234 -0.113818 0.030951 -0.042092 -0.143055 0.076500 0.092789 0.193645 0.088234 0.334801 -0.148144 -0.354265 0.185660 0.102158 0.072352 0.260772 0.269266 -0.011437 0.262532 -0.177472 -0.094161 
and -0.037128 -0.165155 0.136910 -0.107776 0.009267 -0.130414 0.111342 -0.034279 -0.086164 -0.008671 0.477409 0.044316 -0.351064 -0.172017 0.140655 0.312832 -0.049501 -0.137007 -0.041136 0.031137 -0.175892 0.264784 0.299126 -0.222683 -0.010830 -0.135736 -0.290026 0.182870 -0.067128 0.132283 -0.132779 0.023629 -0.052389 -0.141034 0.082188 0.121805 0.200348 0.107017 0.354126 -0.153220 -0.361588 0.195442 0.081850 0.077999 0.279469 0.281623 -0.021463 0.281839 -0.181044 -0.115342 
in -0.023773 -0.176370 0.138399 -0.111833 -0.010092 -0.145504 0.112711 -0.018133 -0.094696 -0.027521 0.488741 0.040954 -0.349778 -0.164080 0.146902 0.314875 -0.053452 -0.135347 -0.047409 0.042353 -0.160034 0.268525 0.302196 -0.221879 -0.022809 -0.143733 -0.304057 0.165473 -0.081215 0.138075 -0.128532 0.029055 -0.056422 -0.156155 0.088448 0.126788 0.206817 0.106415 0.347769 -0.155996 -0.375798 0.201511 0.077465 0.070508 0.281044 0.298900 -0.030750 0.300088 -0.188732 -0.115039 
is -0.036328 -0.175614 0.126811 -0.113062 0.006082 -0.126895 0.101967 -0.018798 -0.084484 -0.003566 0.490556 0.040516 -0.347261 -0.165930 0.148107 0.313856 -0.071885 -0.128182 -0.045626 0.045233 -0.167286 0.268991 0.309791 -0.228713 0.005263 -0.133619 -0.292525 0.183811 -0.068629 0.130551 -0.131107 0.022043 -0.046780 -0.144761 0.070677 0.086951 0.199222 0.113533 0.348120 -0.143599 -0.375093 0.192022 0.102338 0.069298 0.277091 0.282692 -0.010196 0.278940 -0.179707 -0.100037 
that -0.024005 -0.160816 0.110769 -0.124126 0.001425 -0.115168 0.102446 -0.011058 -0.058955 -0.002323 0.477678 0.025078 -0.335237 -0.163465 0.159659 0.290274 -0.071817 -0.130438 -0.052845 0.041783 -0.156588 0.260285 0.289762 -0.225145 0.009927 -0.095308 -0.276454 0.188584 -0.068800 0.128662 -0.120510 0.031669 -0.044643 -0.169961 0.065234 0.069839 0.191301 0.099990 0.333567 -0.125866 -0.356001 0.177701 0.116179 0.091417 0.255113 0.284294 0.008759 0.254507 -0.181574 -0.101502 
a -0.023220 -0.172194 0.132473 -0.114824 0.006838 -0.130505 0.108214 -0.021526 -0.094187 -0.019955 0.508559 0.041287 -0.374005 -0.177916 0.153907 0.319157 -0.051336 -0.134074 -0.059853 0.037209 -0.173528 0.265559 0.322629 -0.232530 -0.002689 -0.134364 -0.318872 0.184236 -0.080614 0.150273 -0.127759 0.024304 -0.051359 -0.157287 0.075416 0.113254 0.221255 0.116617 0.362905 -0.169317 -0.383539 0.200223 0.104014 0.080720 0.287978 0.306074 -0.020182 0.298538 -0.199363 -0.115864 
this -0.035404 -0.165837 0.134300 -0.102696 0.002815 -0.140826 0.115378 -0.028395 -0.092789 -0.009148 0.461798 0.034887 -0.348125 -0.149983 0.133977 0.285485 -0.044110 -0.124767 -0.042174 0.039423 -0.154041 0.250413 0.302191 -0.198933 -0.013506 -0.131722 -0.289573 0.176161 -0.079205 0.137631 -0.124284 0.026101 -0.048239 -0.136158 0.080062 0.120381 0.194575 0.098916 0.339842 -0.139984 -0.353081 0.195384 0.074466 0.055302 0.270306 0.283410 -0.029470 0.280598 -0.190351 -0.113416 
we -0.012591 -0.177989 0.118193 -0.132257 -0.000001 -0.121104 0.091598 -0.027027 -0.069281 0.003820 0.480958 0.034413 -0.357052 -0.161721 0.165729 0.301437 -0.070803 -0.127397 -0.068419 0.038756 -0.160893 0.267154 0.298147 -0.228555 0.020534 -0.110367 -0.279925 0.198026 -0.084192 0.130405 -0.113477 0.037385 -0.051637 -0.157008 0.073600 0.074952 0.195973 0.104132 0.347598 -0.141865 -0.365155 0.189237 0.107866 0.087310 0.262113 0.299339 -0.008817 0.265476 -0.169954 -0.100301 
for -0.025844 -0.160683 0.144962 -0.089768 -0.003001 -0.133183 0.121667 -0.021596 -0.096816 -0.030070 0.451916 0.038041 -0.341102 -0.157605 0.117516 0.299457 -0.032584 -0.133028 -0.044534 0.045305 -0.160952 0.243445 0.294420 -0.197043 -0.035459 -0.138307 -0.306715 0.157957 -0.074863 0.149554 -0.134543 0.014138 -0.044961 -0.127821 0.089173 0.139804 0.213899 0.103568 0.341616 -0.147637 -0.346288 0.207051 0.060525 0.044294 0.256607 0.273983 -0.035514 0.301423 -0.189695 -0.100868 
i -0.022098 -0.145474 0.135112 -0.082135 -0.004595 -0.121940 0.098709 -0.034888 -0.084568 -0.025180 0.438518 0.036734 -0.315253 -0.135458 0.115063 0.269337 -0.026949 -0.116160 -0.034898 0.034664 -0.141755 0.227285 0.288411 -0.174601 -0.032512 -0.130957 -0.278303 0.138361 -0.055959 0.141200 -0.126397 0.025315 -0.048637 -0.121624 0.073629 0.134377 0.197422 0.093957 0.312628 -0.141636 -0.333223 0.193750 0.053867 0.041613 0.254368 0.266101 -0.027312 0.287149 -0.182234 -0.107691 
be -0.036550 -0.182311 0.126203 -0.129533 0.005622 -0.140006 0.116473 -0.033585 -0.077215 -0.015372 0.515520 0.032380 -0.371516 -0.182948 0.161619 0.319562 -0.076613 -0.151038 -0.057817 0.034011 -0.179625 0.288237 0.311364 -0.246433 -0.009038 -0.128728 -0.312592 0.188157 -0.078484 0.135619 -0.138648 0.030175 -0.039326 -0.173607 0.072438 0.108758 0.218022 0.117785 0.374943 -0.159953 -0.396094 0.209545 0.116229 0.091244 0.291595 0.299973 -0.020709 0.298102 -0.205377 -0.108243 
it -0.023880 -0.185878 0.161322 -0.117840 0.006579 -0.156989 0.123502 -0.038569 -0.093242 -0.017202 0.508364 0.042198 -0.376669 -0.164447 0.142966 0.319786 -0.047637 -0.143297 -0.048595 0.050314 -0.186693 0.268649 0.330363 -0.229305 -0.030960 -0.160861 -0.332063 0.170835 -0.072748 0.165292 -0.145466 0.029670 -0.063589 -0.164330 0.101182 0.145774 0.235751 0.110894 0.373814 -0.161502 -0.399767 0.222505 0.071914 0.054363 0.302379 0.300971 -0.032520 0.318450 -0.196538 -0.121584 
on -0.015227 -0.192856 0.135487 -0.142822 -0.001639 -0.138590 0.121122 -0.029986 -0.077726 -0.009365 0.530430 0.037509 -0.384346 -0.191134 0.172652 0.328685 -0.074815 -0.142552 -0.059020 0.044269 -0.170283 0.279309 0.329900 -0.253663 0.004433 -0.133919 -0.310776 0.210749 -0.088698 0.147897 -0.140191 0.025289 -0.042951 -0.163935 0.065709 0.097021 0.211935 0.113451 0.369947 -0.162462 -0.393931 0.196140 0.122858 0.087834 0.289179 0.318482 0.001806 0.306345 -0.191054 -0.110597 
which -0.026616 -0.177593 0.152068 -0.106142 0.001329 -0.145788 0.121455 -0.029600 -0.084119 -0.016277 0.490337 0.038120 -0.354664 -0.168460 0.133672 0.315407 -0.048455 -0.143963 -0.052541 0.035397 -0.174049 0.267925 0.321451 -0.226143 -0.015443 -0.146869 -0.306906 0.177864 -0.075570 0.142279 -0.134202 0.018675 -0.048750 -0.142005 0.086329 0.124816 0.216437 0.109897 0.349645 -0.168726 -0.375724 0.200323 0.076329 0.062844 0.271878 0.299302 -0.035765 0.311972 -0.200028 -0.117194 
are -0.019688 -0.188196 0.119886 -0.135679 0.012222 -0.133953 0.118630 -0.020825 -0.083611 0.001539 0.507632 0.023618 -0.367796 -0.187089 0.178459 0.330340 -0.073279 -0.144478 -0.069871 0.035240 -0.176984 0.277765 0.307083 -0.242143 0.006585 -0.114009 -0.297524 0.196139 -0.074833 0.138229 -0.127677 0.024999 -0.042960 -0.167397 0.079246 0.093224 0.204304 0.116659 0.355439 -0.142736 -0.392683 0.201939 0.121103 0.097115 0.284337 0.305874 -0.015784 0.296176 -0.191919 -0.108814 
as -0.036506 -0.190424 0.138288 -0.124521 0.007161 -0.139493 0.118077 -0.023409 -0.092058 -0.018054 0.513496 0.032409 -0.378785 -0.182422 0.151152 0.319496 -0.054431 -0.134327 -0.059145 0.045872 -0.183542 0.271290 0.316197 -0.234039 -0.017565 -0.140710 -0.327610 0.196737 -0.086190 0.154961 -0.132004 0.024351 -0.061786 -0.156519 0.084389 0.125393 0.223124 0.117567 0.379870 -0.157515 -0.402663 0.208640 0.104926 0.071007 0.285923 0.319365 -0.023780 0.321078 -0.195558 -0.109245 
have -0.020728 -0.191847 0.145409 -0.112340 -0.003922 -0.141685 0.111770 -0.019161 -0.099632 -0.013633 0.523852 0.033086 -0.374304 -0.176396 0.145065 0.321877 -0.063044 -0.138721 -0.057947 0.040808 -0.169218 0.273564 0.333562 -0.242336 -0.022672 -0.134624 -0.325252 0.188036 -0.090537 0.147751 -0.134594 0.028263 -0.061601 -0.159600 0.092391 0.121035 0.213814 0.107299 0.377876 -0.168809 -0.392624 0.217700 0.107201 0.073315 0.282857 0.317486 -0.032806 0.311364 -0.191815 -0.109094 
not -0.035479 -0.170591 0.146527 -0.082363 -0.000247 -0.136790 0.124863 -0.027408 -0.106839 -0.019104 0.453664 0.043612 -0.331315 -0.154894 0.123365 0.294486 -0.037029 -0.133065 -0.041080 0.049354 -0.156774 0.230431 0.306665 -0.200091 -0.038360 -0.139021 -0.308358 0.149341 -0.074044 0.146098 -0.121884 0.015433 -0.062405 -0.131781 0.091225 0.148837 0.214085 0.103370 0.330759 -0.154743 -0.345346 0.208166 0.051131 0.045370 0.256769 0.277771 -0.047158 0.304204 -0.179429 -0.110984 
with -0.035027 -0.182238 0.148487 -0.108763 -0.003444 -0.138220 0.127260 -0.021804 -0.091783 -0.025076 0.486370 0.034311 -0.360905 -0.167294 0.126294 0.317843 -0.046618 -0.142589 -0.044014 0.041087 -0.173894 0.248409 0.304588 -0.206377 -0.032674 -0.145739 -0.319239 0.174825 -0.083371 0.146124 -0.138495 0.020905 -0.048876 -0.143367 0.088936 0.144564 0.225443 0.100686 0.351614 -0.160521 -0.367066 0.214361 0.077839 0.063755 0.282773 0.289537 -0.039181 0.317186 -0.191300 -0.111037 
will -0.025502 -0.173731 0.143717 -0.110347 -0.008792 -0.135145 0.108226 -0.035442 -0.084636 -0.006196 0.495000 0.044613 -0.351330 -0.167839 0.158120 0.308897 -0.056931 -0.140333 -0.051296 0.035527 -0.180111 0.265257 0.312347 -0.227048 -0.001526 -0.137633 -0.307313 0.187344 -0.079605 0.147664 -0.131330 0.026035 -0.048280 -0.153809 0.088122 0.116611 0.203536 0.100352 0.358933 -0.149811 -0.369921 0.205921 0.094933 0.061852 0.278819 0.292697 -0.020061 0.293794 -0.188314 -0.109241 
european -0.023017 -0.182321 0.153201 -0.090784 0.004386 -0.151545 0.115853 -0.029613 -0.098320 -0.022260 0.486790 0.037302 -0.346360 -0.152356 0.134759 0.305137 -0.039962 -0.139150 -0.044824 0.038963 -0.162866 0.257988 0.309450 -0.209590 -0.021946 -0.148570 -0.316449 0.171307 -0.072000 0.158656 -0.128741 0.020858 -0.050119 -0.150468 0.087537 0.132264 0.223299 0.111932 0.355494 -0.161222 -0.371987 0.211847 0.078590 0.060098 0.285034 0.286709 -0.027213 0.316017 -0.187080 -0.108023 
commission -0.025034 -0.171326 0.134518 -0.118681 0.004861 -0.128770 0.105533 -0.033585 -0.094485 -0.020355 0.489818 0.035995 -0.365460 -0.164379 0.145079 0.307607 -0.063266 -0.142241 -0.061820 0.046973 -0.174434 0.261820 0.315759 -0.231741 -0.020234 -0.141924 -0.306190 0.173585 -0.081215 0.135807 -0.128810 0.027585 -0.061728 -0.148795 0.080804 0.121103 0.205847 0.101071 0.356312 -0.161068 -0.364078 0.199545 0.098037 0.070303 0.273190 0.288478 -0.023253 0.302847 -0.197128 -0.120382 
by -0.037259 -0.170062 0.142560 -0.122038 0.006773 -0.134447 0.115826 -0.031999 -0.088410 -0.018413 0.501298 0.031448 -0.354818 -0.179302 0.149301 0.315759 -0.062788 -0.129131 -0.045859 0.033459 -0.162951 0.269766 0.321135 -0.227149 -0.010533 -0.128268 -0.300642 0.190790 -0.086428 0.154960 -0.143142 0.030957 -0.051883 -0.143948 0.079024 0.117364 0.209931 0.112341 0.366047 -0.165413 -0.387873 0.211638 0.104800 0.064480 0.285337 0.300118 -0.014263 0.290827 -0.191527 -0.119089 
has -0.024988 -0.189958 0.136645 -0.138948 0.011423 -0.137642 0.101642 -0.022665 -0.085788 -0.013717 0.513218 0.025051 -0.381450 -0.183136 0.172494 0.321572 -0.083824 -0.133517 -0.065159 0.025988 -0.175553 0.291437 0.311625 -0.237607 0.002336 -0.115197 -0.307017 0.200435 -0.085049 0.142426 -0.135004 0.033127 -0.054268 -0.158842 0.065679 0.083475 0.217076 0.115708 0.354753 -0.154188 -0.386064 0.198909 0.106030 0.089509 0.272386 0.311449 -0.012614 0.286428 -0.187405 -0.119797 
' -0.037913 -0.178685 0.134432 -0.122789 -0.006568 -0.137512 0.127087 -0.025625 -0.093327 -0.012587 0.527613 0.042483 -0.368562 -0.170988 0.144695 0.324467 -0.069799 -0.140503 -0.044971 0.035739 -0.176547 0.282242 0.319474 -0.234973 -0.016042 -0.138985 -0.325300 0.195661 -0.083566 0.147581 -0.135700 0.014393 -0.059041 -0.157249 0.086068 0.122621 0.220833 0.107820 0.368607 -0.153329 -0.384055 0.206456 0.100097 0.080220 0.293958 0.317463 -0.015191 0.314904 -0.198387 -0.125213 
mr -0.033119 -0.172583 0.138190 -0.120152 0.006611 -0.140905 0.105807 -0.021231 -0.086852 -0.009270 0.484730 0.039947 -0.358305 -0.161983 0.140669 0.316652 -0.063102 -0.126162 -0.056672 0.046064 -0.176520 0.256836 0.298734 -0.231594 -0.012841 -0.128310 -0.302150 0.181922 -0.072255 0.151542 -0.129509 0.032604 -0.053246 -0.149489 0.075665 0.102421 0.207910 0.112872 0.353325 -0.158171 -0.371036 0.199754 0.096330 0.071678 0.271699 0.289546 -0.022155 0.289548 -0.196450 -0.102401 
would -0.024755 -0.184608 0.157969 -0.133992 0.006527 -0.158143 0.118101 -0.031523 -0.096422 -0.019021 0.551953 0.047539 -0.405994 -0.192110 0.168390 0.347730 -0.063578 -0.151899 -0.064893 0.037146 -0.187620 0.285968 0.352285 -0.254866 -0.015816 -0.148766 -0.337827 0.205056 -0.092902 0.155454 -0.137713 0.029092 -0.049668 -0.173449 0.089354 0.112942 0.225507 0.122678 0.399801 -0.163742 -0.423112 0.225730 0.110529 0.083322 0.303353 0.331243 -0.033083 0.322251 -0.213356 -0.116883 
an -0.043174 -0.201823 0.157644 -0.133499 -0.006280 -0.162724 0.140600 -0.025443 -0.104042 -0.013215 0.572481 0.043715 -0.409698 -0.196213 0.163332 0.350559 -0.062969 -0.151240 -0.049176 0.043371 -0.191693 0.294983 0.358621 -0.260004 -0.015151 -0.164942 -0.365468 0.205026 -0.090600 0.176404 -0.149654 0.029071 -0.054963 -0.172920 0.091506 0.144083 0.251779 0.132127 0.415420 -0.183367 -0.431038 0.245634 0.103367 0.065930 0.324729 0.343852 -0.030092 0.339199 -0.226198 -0.138876 
at -0.038138 -0.172709 0.164157 -0.095250 -0.013444 -0.146630 0.135808 -0.026008 -0.107525 -0.025021 0.495207 0.036497 -0.357728 -0.150833 0.125516 0.312649 -0.042850 -0.135095 -0.046467 0.047442 -0.175222 0.248828 0.329472 -0.200192 -0.047865 -0.152830 -0.321173 0.166604 -0.077591 0.156516 -0.144962 0.015303 -0.063337 -0.129240 0.101451 0.154694 0.230628 0.105867 0.352060 -0.161382 -0.382970 0.211912 0.058267 0.042847 0.278035 0.287953 -0.042063 0.314874 -0.204122 -0.120244 
but -0.030666 -0.180470 0.163377 -0.094343 -0.015337 -0.163953 0.128476 -0.021936 -0.101528 -0.019886 0.513514 0.054325 -0.385377 -0.168875 0.137097 0.332316 -0.030934 -0.130109 -0.044172 0.042875 -0.182266 0.274469 0.340257 -0.228525 -0.050405 -0.169700 -0.342691 0.160380 -0.071262 0.167614 -0.153973 0.024318 -0.065814 -0.151833 0.091872 0.157368 0.235458 0.125788 0.367801 -0.178771 -0.388040 0.232097 0.066605 0.059253 0.294572 0.304050 -0.035501 0.338947 -0.216609 -0.122391 
should -0.018522 -0.187266 0.141513 -0.121205 0.007108 -0.143983 0.116849 -0.015572 -0.073831 -0.018654 0.521885 0.042050 -0.374109 -0.179674 0.153186 0.324878 -0.069254 -0.146242 -0.052573 0.027613 -0.178848 0.273888 0.310616 -0.236139 0.003923 -0.138980 -0.308474 0.184759 -0.080006 0.154289 -0.139931 0.034696 -0.040932 -0.167487 0.071240 0.101575 0.206332 0.109401 0.362168 -0.154564 -0.397063 0.204451 0.100458 0.090131 0.279781 0.304716 -0.008786 0.286126 -0.198910 -0.115383 
also -0.038709 -0.180189 0.146019 -0.101635 -0.006854 -0.140181 0.127511 -0.026164 -0.095803 -0.024943 0.491962 0.045145 -0.358249 -0.167208 0.126954 0.316249 -0.033819 -0.122051 -0.045445 0.036312 -0.177272 0.259650 0.324651 -0.214161 -0.039785 -0.145024 -0.310181 0.165534 -0.074086 0.147589 -0.132565 0.028438 -0.053244 -0.130787 0.091822 0.150101 0.228508 0.108043 0.350066 -0.165280 -0.365680 0.220030 0.068640 0.053251 0.287306 0.282106 -0.036262 0.310692 -0.201188 -0.118886 
you -0.035084 -0.195072 0.124433 -0.147447 -0.003217 -0.143140 0.117539 -0.022599 -0.070593 -0.012781 0.536341 0.043457 -0.387106 -0.181554 0.172616 0.338864 -0.077442 -0.151498 -0.072283 0.034789 -0.186177 0.301309 0.324064 -0.261133 0.013489 -0.122964 -0.321038 0.215862 -0.086478 0.144906 -0.131910 0.025497 -0.054165 -0.171778 0.085198 0.085788 0.226666 0.112335 0.388270 -0.164780 -0.403864 0.203008 0.120036 0.094956 0.285995 0.330046 -0.000141 0.295324 -0.209909 -0.121807 
all -0.029259 -0.202877 0.144696 -0.134986 0.003477 -0.146268 0.135303 -0.030451 -0.094683 -0.019424 0.560397 0.044634 -0.407032 -0.192391 0.156598 0.346322 -0.055046 -0.142916 -0.060508 0.036217 -0.194573 0.298821 0.355365 -0.250447 -0.019990 -0.157188 -0.350157 0.198643 -0.084958 0.164204 -0.154902 0.027869 -0.067574 -0.181477 0.084645 0.137958 0.230351 0.125823 0.393832 -0.178819 -0.427584 0.237482 0.106714 0.073452 0.303921 0.340796 -0.028182 0.329508 -0.206787 -0.125023 
must -0.032547 -0.201407 0.159515 -0.121980 0.000986 -0.163596 0.123987 -0.027909 -0.090154 -0.024301 0.543729 0.042277 -0.394517 -0.190103 0.165729 0.347276 -0.073816 -0.159314 -0.055917 0.038354 -0.192193 0.296314 0.350711 -0.253041 -0.025697 -0.156017 -0.329814 0.197995 -0.089171 0.163304 -0.155993 0.015013 -0.048185 -0.170744 0.085710 0.131654 0.241429 0.127250 0.391792 -0.168862 -0.424956 0.220494 0.094589 0.078383 0.295101 0.320819 -0.029669 0.337939 -0.215125 -0.126593 
there -0.032575 -0.155570 0.139187 -0.105913 -0.002027 -0.135959 0.116354 -0.026024 -0.079107 -0.010760 0.456134 0.027607 -0.335570 -0.155515 0.119616 0.275187 -0.056497 -0.123489 -0.039512 0.026692 -0.153425 0.241215 0.292530 -0.194600 -0.010362 -0.133158 -0.277946 0.157907 -0.060360 0.127448 -0.129422 0.012967 -0.042037 -0.127448 0.068283 0.124237 0.190789 0.092976 0.323817 -0.155808 -0.339305 0.197744 0.084289 0.049135 0.251669 0.265317 -0.020262 0.286209 -0.172998 -0.111948 
s -0.033997 -0.188666 0.147943 -0.131943 -0.004254 -0.144060 0.125845 -0.018631 -0.095280 -0.020803 0.537023 0.025548 -0.384073 -0.190033 0.169747 0.343321 -0.065337 -0.155248 -0.052282 0.043297 -0.180187 0.299792 0.332977 -0.235978 -0.003249 -0.139486 -0.315226 0.195388 -0.094228 0.142664 -0.141840 0.026665 -0.059372 -0.171767 0.074315 0.094899 0.210575 0.111764 0.386203 -0.166622 -0.393322 0.219398 0.114550 0.091111 0.298121 0.320201 -0.017573 0.313748 -0.210626 -0.118268 
our -0.029322 -0.210188 0.165485 -0.135428 0.001525 -0.163595 0.141727 -0.025744 -0.117519 -0.015133 0.587727 0.047380 -0.432751 -0.190426 0.170432 0.369899 -0.060936 -0.159722 -0.060596 0.050725 -0.193323 0.307412 0.370639 -0.265996 -0.027901 -0.168577 -0.371363 0.200324 -0.097832 0.175777 -0.150552 0.021287 -0.061272 -0.174883 0.098708 0.150033 0.262211 0.127419 0.415687 -0.185562 -0.445529 0.243001 0.094265 0.075543 0.319428 0.353896 -0.027740 0.368309 -0.239303 -0.131928 
president -0.027378 -0.164847 0.122059 -0.104284 -0.003473 -0.129541 0.105313 -0.016488 -0.084578 -0.023505 0.451888 0.043370 -0.339481 -0.157821 0.137040 0.297455 -0.053500 -0.128600 -0.038740 0.041007 -0.156512 0.252970 0.302224 -0.200692 -0.024982 -0.128798 -0.279524 0.168941 -0.070813 0.141675 -0.125208 0.024943 -0.058955 -0.141401 0.071932 0.109286 0.191946 0.100722 0.328830 -0.155157 -0.359984 0.191185 0.092055 0.055433 0.255614 0.282188 -0.021178 0.284636 -0.178202 -0.104522 
parliament -0.035322 -0.178794 0.141688 -0.131718 0.000650 -0.136376 0.121252 -0.035104 -0.076687 -0.017865 0.533302 0.040956 -0.392527 -0.178896 0.157169 0.335545 -0.066658 -0.137384 -0.066111 0.040213 -0.183514 0.279113 0.326766 -0.249141 0.002152 -0.143772 -0.311433 0.196107 -0.078763 0.148146 -0.137879 0.035686 -0.054645 -0.175804 0.089752 0.102953 0.212280 0.119417 0.378103 -0.154796 -0.410213 0.218604 0.107879 0.071528 0.295783 0.307604 -0.010369 0.304249 -0.196011 -0.120223 
- -0.024345 -0.193655 0.153284 -0.101394 -0.007062 -0.159530 0.115694 -0.036980 -0.088709 -0.020037 0.524972 0.049041 -0.386906 -0.169257 0.150792 0.334555 -0.042852 -0.146847 -0.044672 0.042454 -0.183906 0.280704 0.321637 -0.234766 -0.015010 -0.144858 -0.331489 0.184158 -0.089381 0.151682 -0.147306 0.024078 -0.065193 -0.150941 0.094632 0.139916 0.232392 0.111206 0.366292 -0.162368 -0.392078 0.224374 0.076870 0.060391 0.284345 0.314249 -0.038256 0.321772 -0.203855 -0.118087 
from -0.028415 -0.172106 0.136237 -0.105035 -0.006125 -0.141085 0.119897 -0.020541 -0.096268 -0.011402 0.474857 0.036372 -0.340220 -0.152821 0.141169 0.301990 -0.037567 -0.133017 -0.042889 0.043477 -0.164355 0.243687 0.304748 -0.205763 -0.025541 -0.135493 -0.292429 0.155926 -0.069018 0.151703 -0.125932 0.017669 -0.056721 -0.139621 0.073715 0.132036 0.205660 0.097729 0.334683 -0.160328 -0.348880 0.185853 0.073399 0.067636 0.256276 0.279763 -0.030639 0.283814 -0.188400 -0.109041 
been -0.035317 -0.175175 0.142979 -0.113000 0.002117 -0.141858 0.118638 -0.026873 -0.082126 -0.010462 0.495948 0.031484 -0.372361 -0.173056 0.142413 0.321903 -0.059448 -0.126603 -0.047455 0.046319 -0.174968 0.274230 0.320332 -0.218102 -0.016973 -0.130887 -0.306321 0.176448 -0.082456 0.155717 -0.131748 0.024558 -0.058463 -0.147944 0.090786 0.121407 0.223816 0.114119 0.350415 -0.162453 -0.381254 0.211687 0.100247 0.069497 0.280776 0.304976 -0.030666 0.307024 -0.197069 -0.117392 
union -0.035310 -0.170615 0.127287 -0.103434 0.001839 -0.133390 0.117611 -0.017090 -0.089927 -0.012482 0.479874 0.045121 -0.354064 -0.158841 0.144139 0.296334 -0.052648 -0.123320 -0.039658 0.033751 -0.162198 0.261092 0.307664 -0.216842 -0.019031 -0.137498 -0.300315 0.166515 -0.062808 0.143081 -0.121220 0.030269 -0.049163 -0.138257 0.075179 0.125276 0.209054 0.096118 0.346464 -0.153752 -0.371129 0.185470 0.092007 0.058825 0.270280 0.277025 -0.034180 0.282258 -0.178674 -0.106475 
these -0.035218 -0.200397 0.146908 -0.124792 0.002304 -0.151716 0.120827 -0.019780 -0.096011 -0.023534 0.537071 0.036697 -0.395407 -0.174806 0.149918 0.355901 -0.069303 -0.151129 -0.051777 0.041806 -0.190099 0.285007 0.351688 -0.250039 -0.019252 -0.147212 -0.347368 0.197587 -0.077383 0.158780 -0.152254 0.016903 -0.061352 -0.168043 0.093257 0.136945 0.229705 0.123777 0.399059 -0.174957 -0.415312 0.228629 0.090827 0.077188 0.303529 0.318911 -0.026302 0.342660 -0.216804 -0.129674 
can -0.019824 -0.174487 0.136738 -0.125723 0.003377 -0.143004 0.117631 -0.018592 -0.077470 -0.021554 0.494867 0.037500 -0.355872 -0.170758 0.164040 0.322203 -0.068962 -0.133815 -0.064337 0.045204 -0.167413 0.279687 0.301784 -0.233456 -0.010376 -0.121985 -0.302629 0.191605 -0.084577 0.149237 -0.138110 0.023435 -0.039313 -0.154899 0.075044 0.107676 0.206544 0.113820 0.354727 -0.161126 -0.379129 0.195605 0.095118 0.073162 0.276436 0.302368 -0.024595 0.298420 -0.181119 -0.111580 
like -0.022918 -0.172567 0.134910 -0.124836 -0.006432 -0.141049 0.110893 -0.033489 -0.089447 -0.012305 0.494779 0.031993 -0.353211 -0.158034 0.144493 0.304391 -0.055233 -0.134559 -0.056617 0.033724 -0.160550 0.267224 0.299882 -0.227802 -0.006973 -0.130132 -0.302601 0.186232 -0.070162 0.148702 -0.124291 0.016598 -0.044618 -0.155136 0.078050 0.095111 0.209948 0.102679 0.352852 -0.142939 -0.372783 0.203512 0.099558 0.079677 0.273892 0.295608 -0.017019 0.297563 -0.185126 -0.111245 
00 -0.034353 -0.166156 0.152498 -0.097675 -0.012812 -0.156813 0.121585 -0.021811 -0.089576 -0.023839 0.474555 0.038396 -0.355335 -0.152896 0.125215 0.310146 -0.038258 -0.125779 -0.035426 0.049158 -0.176734 0.252445 0.307578 -0.211735 -0.034921 -0.157970 -0.319393 0.168536 -0.064455 0.151058 -0.144195 0.025250 -0.058475 -0.131006 0.081796 0.145670 0.229342 0.113081 0.343768 -0.163702 -0.364230 0.201941 0.079505 0.047214 0.276463 0.297669 -0.034608 0.300939 -0.189387 -0.115314 
more -0.022450 -0.164795 0.129566 -0.123481 0.002973 -0.138152 0.103452 -0.031447 -0.084234 -0.017492 0.477931 0.034061 -0.358465 -0.166737 0.150155 0.311990 -0.067908 -0.137371 -0.047184 0.025827 -0.168729 0.260884 0.303517 -0.217473 -0.009254 -0.131518 -0.293248 0.173011 -0.077044 0.146424 -0.121046 0.030028 -0.040558 -0.141484 0.063998 0.098281 0.201822 0.100940 0.335227 -0.138278 -0.374650 0.183555 0.104246 0.074944 0.268739 0.283786 -0.011190 0.288609 -0.179132 -0.118120 
or -0.023311 -0.213259 0.155534 -0.128402 0.002995 -0.156382 0.133327 -0.028677 -0.105492 -0.028598 0.592980 0.053640 -0.435872 -0.209312 0.180139 0.370076 -0.067386 -0.159756 -0.053226 0.049756 -0.210805 0.317680 0.366051 -0.273725 -0.020495 -0.162743 -0.358559 0.216766 -0.082156 0.173167 -0.149871 0.019785 -0.053209 -0.186102 0.091691 0.133815 0.254668 0.119886 0.426816 -0.189290 -0.446674 0.247284 0.113146 0.080479 0.324643 0.341957 -0.032391 0.349292 -0.234204 -0.133207 
do -0.036768 -0.185414 0.135554 -0.132010 -0.006923 -0.144744 0.127884 -0.034934 -0.089647 -0.020181 0.518613 0.043469 -0.378747 -0.176575 0.151609 0.323271 -0.072050 -0.148204 -0.053596 0.047643 -0.170907 0.280122 0.330746 -0.241425 -0.016441 -0.145065 -0.314566 0.201518 -0.087935 0.148922 -0.133019 0.020573 -0.050362 -0.161729 0.078232 0.111979 0.220198 0.105304 0.375770 -0.161056 -0.391882 0.205013 0.107489 0.069666 0.298098 0.309925 -0.023598 0.316304 -0.199559 -0.117705 
its -0.022710 -0.181113 0.146847 -0.112186 0.007181 -0.141745 0.114014 -0.033034 -0.100827 -0.016743 0.518817 0.043650 -0.375985 -0.166201 0.157629 0.333932 -0.058635 -0.138958 -0.054410 0.031060 -0.179732 0.283050 0.326099 -0.232447 -0.026296 -0.148475 -0.316687 0.184284 -0.077628 0.148679 -0.137438 0.013186 -0.063138 -0.164245 0.091814 0.121592 0.214628 0.120491 0.375355 -0.161468 -0.389740 0.202602 0.100990 0.070123 0.285602 0.301219 -0.022564 0.316035 -0.196171 -0.119202 
what -0.021228 -0.189216 0.142006 -0.113735 0.009839 -0.140476 0.123777 -0.036072 -0.101534 -0.011939 0.536838 0.041042 -0.395624 -0.170332 0.155553 0.333640 -0.059980 -0.149376 -0.056029 0.048294 -0.173457 0.280487 0.325565 -0.242591 -0.015574 -0.145191 -0.334012 0.190252 -0.074554 0.159103 -0.131588 0.017924 -0.045883 -0.173371 0.077178 0.130219 0.235395 0.120337 0.371642 -0.161334 -0.410922 0.217877 0.094343 0.078535 0.287744 0.307714 -0.021814 0.320491 -0.195368 -0.118511 
if -0.024182 -0.180412 0.157943 -0.115852 0.001225 -0.153908 0.129343 -0.021861 -0.107427 -0.022039 0.524049 0.033125 -0.383919 -0.167892 0.146735 0.338454 -0.041136 -0.140324 -0.051115 0.049823 -0.175396 0.268734 0.334095 -0.226970 -0.020770 -0.148045 -0.324643 0.182258 -0.088874 0.161228 -0.135406 0.015773 -0.060307 -0.159081 0.079134 0.140221 0.225978 0.112317 0.374779 -0.169113 -0.405091 0.213446 0.079643 0.067977 0.299032 0.301953 -0.026529 0.317811 -0.195685 -0.129283 
one -0.029066 -0.173657 0.138246 -0.103547 0.001473 -0.133385 0.108578 -0.029750 -0.080466 -0.023098 0.479717 0.034703 -0.356861 -0.169126 0.143729 0.310453 -0.041957 -0.135903 -0.056291 0.029056 -0.159412 0.254502 0.299392 -0.204548 -0.028554 -0.136361 -0.309748 0.164121 -0.073263 0.151518 -0.140854 0.018633 -0.060431 -0.151548 0.075798 0.129342 0.208073 0.105593 0.351414 -0.148485 -0.362340 0.201184 0.072055 0.069993 0.269638 0.282345 -0.029610 0.307352 -0.194508 -0.117648 
was -0.025353 -0.188031 0.160815 -0.112435 -0.007693 -0.157316 0.130933 -0.021226 -0.093284 -0.026952 0.540017 0.043984 -0.398730 -0.178027 0.149508 0.333665 -0.066587 -0.142555 -0.053548 0.040045 -0.188263 0.278837 0.332568 -0.229775 -0.021349 -0.156535 -0.327948 0.194041 -0.090662 0.153616 -0.150371 0.021461 -0.055125 -0.153318 0.087097 0.132650 0.231361 0.120043 0.390511 -0.173077 -0.410867 0.214096 0.097787 0.076177 0.297163 0.319243 -0.039437 0.332606 -0.202399 -0.126348 
europe -0.037357 -0.185524 0.148676 -0.115771 -0.012525 -0.153165 0.121882 -0.029189 -0.108948 -0.020622 0.536390 0.050556 -0.384919 -0.166906 0.150489 0.329661 -0.056287 -0.147592 -0.050327 0.046067 -0.184195 0.277277 0.331595 -0.229393 -0.032589 -0.159986 -0.335819 0.181323 -0.084381 0.160960 -0.139821 0.033053 -0.056500 -0.164075 0.098599 0.138717 0.234406 0.123124 0.391209 -0.171782 -0.399118 0.228856 0.089494 0.068843 0.307679 0.324564 -0.032340 0.321424 -0.199653 -0.122957 
0000 -0.029385 -0.211464 0.183893 -0.124136 0.002950 -0.185639 0.137401 -0.042431 -0.108115 -0.019613 0.591466 0.046500 -0.432751 -0.201008 0.164471 0.372442 -0.053888 -0.168823 -0.057304 0.038002 -0.205389 0.311098 0.376470 -0.266879 -0.034492 -0.185746 -0.380427 0.196164 -0.089683 0.191532 -0.171853 0.015401 -0.073460 -0.181317 0.106131 0.154855 0.268028 0.131109 0.435030 -0.203276 -0.462023 0.249111 0.099426 0.078254 0.346437 0.356278 -0.030883 0.370742 -0.235630 -0.133152 
so -0.036496 -0.177745 0.142416 -0.129993 0.009898 -0.151848 0.113006 -0.027912 -0.083468 -0.015240 0.516543 0.036666 -0.366836 -0.166267 0.159021 0.328335 -0.054016 -0.131217 -0.056939 0.036362 -0.170443 0.279212 0.325226 -0.232187 -0.006881 -0.140546 -0.307433 0.187919 -0.071112 0.155707 -0.138911 0.018040 -0.059318 -0.156035 0.079905 0.114687 0.215044 0.103172 0.361710 -0.160160 -0.388520 0.206354 0.105835 0.080676 0.279776 0.296747 -0.028766 0.297874 -0.192151 -0.125897 
they -0.037644 -0.187345 0.159654 -0.105025 -0.011568 -0.158144 0.123993 -0.032578 -0.111129 -0.033203 0.514466 0.048169 -0.381026 -0.168963 0.142598 0.337723 -0.044147 -0.134287 -0.048927 0.042800 -0.185170 0.265872 0.343791 -0.221009 -0.045885 -0.170194 -0.344756 0.172154 -0.073973 0.158177 -0.146576 0.020172 -0.063130 -0.141909 0.101202 0.154477 0.238679 0.115233 0.373038 -0.170125 -0.397778 0.230965 0.075813 0.061797 0.296566 0.305707 -0.048762 0.332260 -0.208911 -0.115200 
member -0.026082 -0.190576 0.156614 -0.109876 0.001345 -0.150453 0.125009 -0.038830 -0.105419 -0.029352 0.512949 0.037284 -0.383064 -0.175522 0.135018 0.330374 -0.041612 -0.135280 -0.050565 0.032338 -0.188742 0.265945 0.341162 -0.225440 -0.036859 -0.164695 -0.331929 0.172244 -0.088351 0.164855 -0.146591 0.024998 -0.050596 -0.157654 0.095078 0.157504 0.230980 0.121804 0.378915 -0.165888 -0.400351 0.222249 0.083906 0.067822 0.288253 0.306129 -0.039122 0.337867 -0.198218 -0.123230 
report -0.026527 -0.183207 0.162007 -0.104851 -0.013974 -0.159750 0.133882 -0.021726 -0.102185 -0.020561 0.512252 0.052084 -0.380560 -0.169010 0.131241 0.332707 -0.031926 -0.146320 -0.044533 0.048586 -0.190925 0.266648 0.329513 -0.212445 -0.039495 -0.165982 -0.347422 0.171601 -0.074158 0.173425 -0.138779 0.018111 -0.058569 -0.141813 0.093005 0.162971 0.240947 0.125244 0.375981 -0.187502 -0.404566 0.226169 0.064489 0.048176 0.304134 0.315859 -0.039906 0.332125 -0.199280 -0.126229 
their -0.024402 -0.198063 0.159941 -0.121514 -0.010599 -0.158624 0.129179 -0.021984 -0.095075 -0.026547 0.543821 0.048541 -0.396462 -0.171977 0.147510 0.348601 -0.050135 -0.138258 -0.060308 0.045133 -0.179168 0.279546 0.343883 -0.229544 -0.020455 -0.166084 -0.351587 0.180762 -0.078524 0.159472 -0.151810 0.020098 -0.068676 -0.154169 0.085733 0.144084 0.245234 0.122867 0.383018 -0.184351 -0.415886 0.225608 0.080847 0.065826 0.304387 0.316377 -0.039100 0.341441 -0.212005 -0.120224 
my -0.032470 -0.175461 0.161879 -0.097545 -0.001400 -0.145519 0.113624 -0.033879 -0.105961 -0.031824 0.491832 0.043843 -0.355027 -0.164087 0.126689 0.317900 -0.029247 -0.130963 -0.048866 0.050538 -0.179373 0.240353 0.313125 -0.198401 -0.041664 -0.166996 -0.331766 0.151696 -0.076487 0.157522 -0.145803 0.025205 -0.065385 -0.132123 0.090774 0.152313 0.220559 0.117988 0.357844 -0.162987 -0.369782 0.211381 0.066063 0.037651 0.275058 0.293957 -0.051969 0.312809 -0.202147 -0.118386 
very -0.027785 -0.170308 0.149901 -0.081658 -0.005751 -0.156745 0.135035 -0.032023 -0.109905 -0.030914 0.481247 0.055971 -0.369724 -0.159522 0.126930 0.306380 -0.033383 -0.133139 -0.034834 0.043285 -0.165222 0.249917 0.315638 -0.213160 -0.047316 -0.152893 -0.323068 0.149928 -0.062627 0.164449 -0.148963 0.009368 -0.068423 -0.135984 0.088990 0.163194 0.230576 0.111938 0.356168 -0.168172 -0.385535 0.209443 0.055775 0.042196 0.288318 0.283263 -0.045679 0.318237 -0.208109 -0.126113 
states -0.032366 -0.206147 0.154564 -0.128516 0.004423 -0.148975 0.124472 -0.035810 -0.100967 -0.017010 0.555695 0.041266 -0.399455 -0.188793 0.161803 0.357847 -0.073967 -0.162198 -0.069274 0.043353 -0.180855 0.302435 0.343725 -0.243265 -0.011732 -0.148213 -0.330772 0.201330 -0.090577 0.155291 -0.152944 0.017826 -0.048004 -0.175258 0.096343 0.113647 0.231389 0.112447 0.405360 -0.169454 -0.415093 0.225795 0.108226 0.090820 0.310822 0.341963 -0.019261 0.330172 -0.215234 -0.130053 
no -0.033565 -0.179842 0.134810 -0.118421 -0.004072 -0.141504 0.114721 -0.027532 -0.080293 -0.011295 0.484480 0.042627 -0.365551 -0.171120 0.151226 0.308339 -0.052322 -0.127692 -0.044533 0.032145 -0.175504 0.263467 0.307838 -0.225326 -0.001678 -0.131073 -0.297242 0.172067 -0.073744 0.140091 -0.126626 0.020196 -0.041455 -0.160573 0.070767 0.117166 0.210358 0.108463 0.354810 -0.158184 -0.379788 0.194651 0.090315 0.071058 0.268872 0.297625 -0.020783 0.291485 -0.191170 -0.102633 
council -0.020339 -0.177934 0.131579 -0.121965 0.001537 -0.136703 0.096401 -0.026628 -0.076665 -0.017059 0.482589 0.032549 -0.345847 -0.174149 0.152458 0.300903 -0.059910 -0.137016 -0.053663 0.032777 -0.172698 0.274733 0.307482 -0.229714 -0.002701 -0.111108 -0.292984 0.191952 -0.083097 0.132413 -0.129656 0.019324 -0.048995 -0.164657 0.063023 0.079774 0.192909 0.102016 0.348136 -0.146126 -0.367597 0.198022 0.106398 0.073589 0.262920 0.299428 -0.000186 0.283069 -0.178263 -0.104391 
<unk> -0.035923 -0.187863 0.150410 -0.127318 -0.003589 -0.145564 0.119490 -0.037159 -0.090814 -0.009444 0.524050 0.048749 -0.379615 -0.170666 0.151181 0.341164 -0.051511 -0.137710 -0.063212 0.047171 -0.174710 0.274416 0.336931 -0.238506 -0.024369 -0.156665 -0.325169 0.189798 -0.085092 0.159768 -0.139994 0.028066 -0.059553 -0.152880 0.095740 0.124297 0.225237 0.114336 0.378391 -0.176783 -0.399330 0.216727 0.089178 0.071827 0.289324 0.324748 -0.033941 0.315253 -0.208858 -0.112409 
need -0.042957 -0.175233 0.164276 -0.096508 -0.000069 -0.151892 0.128005 -0.037530 -0.113651 -0.024348 0.513617 0.049996 -0.383033 -0.168578 0.127109 0.337039 -0.044050 -0.141467 -0.037384 0.040447 -0.180188 0.276709 0.333874 -0.228641 -0.046997 -0.159064 -0.332494 0.168044 -0.087760 0.166444 -0.149817 0.016647 -0.069949 -0.143501 0.086827 0.164288 0.246248 0.111515 0.373441 -0.173298 -0.395546 0.233135 0.079201 0.051730 0.299104 0.304077 -0.046255 0.340301 -0.218652 -0.127446 
policy -0.036494 -0.176793 0.146319 -0.116518 -0.001242 -0.142583 0.106671 -0.025572 -0.097260 -0.009687 0.493302 0.038459 -0.359893 -0.179359 0.144198 0.319276 -0.050275 -0.139791 -0.058169 0.029662 -0.168934 0.269456 0.311718 -0.219516 -0.007220 -0.126312 -0.307286 0.186929 -0.087071 0.141605 -0.132771 0.030929 -0.047957 -0.160696 0.072638 0.122531 0.207384 0.116363 0.352420 -0.159288 -0.373406 0.210469 0.089140 0.072187 0.289833 0.291263 -0.023758 0.295865 -0.195489 -0.122028 
only -0.028539 -0.163903 0.149308 -0.103795 0.006755 -0.142554 0.116444 -0.035553 -0.090342 -0.011590 0.487715 0.045948 -0.363002 -0.165121 0.126485 0.303792 -0.047606 -0.137935 -0.049739 0.040672 -0.171959 0.250149 0.309865 -0.204799 -0.029068 -0.148402 -0.308695 0.168041 -0.075082 0.150774 -0.135142 0.014952 -0.066108 -0.143636 0.080143 0.139029 0.219090 0.103480 0.354850 -0.160880 -0.366837 0.199142 0.077591 0.066985 0.267402 0.294734 -0.024757 0.302402 -0.184280 -0.117669 
who -0.032941 -0.180856 0.138383 -0.123615 -0.001595 -0.137053 0.113031 -0.021108 -0.076711 -0.021192 0.520494 0.038859 -0.381948 -0.175769 0.162225 0.315591 -0.072246 -0.138750 -0.059637 0.038936 -0.178551 0.273593 0.309448 -0.246058 0.004610 -0.139254 -0.301917 0.197984 -0.086714 0.153462 -0.135887 0.018703 -0.047966 -0.173428 0.067118 0.109505 0.218793 0.106006 0.368827 -0.165206 -0.386124 0.194290 0.100630 0.084585 0.278078 0.302813 -0.004599 0.297070 -0.205011 -0.109637 
? -0.030661 -0.172214 0.139377 -0.123928 -0.001874 -0.132505 0.123128 -0.020368 -0.081783 -0.012379 0.491048 0.039485 -0.372662 -0.162751 0.152990 0.317491 -0.063375 -0.144803 -0.046671 0.037511 -0.179842 0.261845 0.320819 -0.230618 -0.010709 -0.132398 -0.295179 0.177695 -0.076558 0.145390 -0.137728 0.014849 -0.055814 -0.150187 0.078329 0.109421 0.215560 0.103749 0.356646 -0.152535 -0.375235 0.199063 0.101026 0.080151 0.279849 0.293701 -0.027435 0.300826 -0.184975 -0.103711 
new -0.036106 -0.188815 0.164615 -0.101529 0.000101 -0.154888 0.141431 -0.039852 -0.115797 -0.030115 0.505568 0.044670 -0.387381 -0.160118 0.119790 0.330505 -0.023479 -0.145773 -0.047011 0.048368 -0.173446 0.269572 0.339599 -0.204710 -0.040255 -0.170550 -0.343901 0.166347 -0.083359 0.159011 -0.148752 0.022492 -0.058697 -0.138699 0.107753 0.177664 0.236267 0.124632 0.373864 -0.176704 -0.402403 0.219659 0.071081 0.042396 0.295712 0.308606 -0.054661 0.333495 -0.199353 -0.130816 
therefore -0.032484 -0.179739 0.163326 -0.105749 -0.002426 -0.167646 0.129917 -0.038388 -0.116688 -0.023718 0.533006 0.048501 -0.380334 -0.178719 0.138443 0.346081 -0.044302 -0.142508 -0.048633 0.053345 -0.193838 0.280255 0.344756 -0.233788 -0.033492 -0.162341 -0.346941 0.186257 -0.083260 0.172323 -0.147973 0.017628 -0.069024 -0.144997 0.104914 0.154675 0.247596 0.119625 0.385054 -0.183539 -0.398453 0.233300 0.065553 0.060066 0.302933 0.315678 -0.034244 0.337634 -0.202358 -0.117718 
us -0.019848 -0.176249 0.147584 -0.102729 -0.001016 -0.144262 0.118333 -0.015949 -0.084173 -0.018993 0.497569 0.046953 -0.361673 -0.158530 0.149326 0.317105 -0.049273 -0.134894 -0.040512 0.036336 -0.176153 0.267306 0.320982 -0.221705 -0.013891 -0.133448 -0.317514 0.180306 -0.071933 0.141780 -0.132505 0.014222 -0.060333 -0.155069 0.083181 0.128948 0.207527 0.118177 0.357100 -0.165955 -0.371836 0.205180 0.091838 0.056151 0.275737 0.302587 -0.028830 0.299353 -0.200376 -0.104458 
about -0.034251 -0.194886 0.144566 -0.130239 0.005336 -0.152710 0.110638 -0.027612 -0.078418 -0.009762 0.521728 0.028529 -0.386076 -0.186296 0.170818 0.329553 -0.073420 -0.145845 -0.066541 0.043810 -0.183153 0.277872 0.328310 -0.235046 -0.017086 -0.130411 -0.319350 0.184728 -0.090141 0.154883 -0.146372 0.031617 -0.053573 -0.161377 0.081841 0.107793 0.224467 0.111376 0.364346 -0.165734 -0.393421 0.211816 0.101960 0.078652 0.283146 0.323232 -0.024784 0.318639 -0.211931 -0.109615 
) -0.019221 -0.170178 0.133524 -0.115954 0.005290 -0.141102 0.110019 -0.022979 -0.085405 -0.011010 0.516071 0.042530 -0.364040 -0.166052 0.166810 0.309741 -0.057683 -0.134503 -0.052346 0.038256 -0.174860 0.276110 0.318244 -0.240873 0.002549 -0.137065 -0.298375 0.191360 -0.070115 0.148784 -0.124951 0.019968 -0.060415 -0.160324 0.077914 0.102608 0.209422 0.100436 0.364550 -0.162151 -0.379648 0.199289 0.112605 0.087914 0.286873 0.298473 -0.018203 0.291433 -0.183887 -0.115764 
other -0.024757 -0.201075 0.158841 -0.139936 0.002183 -0.160273 0.141761 -0.037206 -0.095957 -0.027396 0.568385 0.047500 -0.409495 -0.195628 0.175762 0.356130 -0.062682 -0.147810 -0.054961 0.038131 -0.203326 0.303770 0.362560 -0.256712 -0.012426 -0.149501 -0.351497 0.197596 -0.083099 0.166040 -0.152430 0.022895 -0.069350 -0.176880 0.083282 0.139736 0.248206 0.130846 0.411165 -0.182315 -0.429981 0.230594 0.104709 0.074117 0.327495 0.336303 -0.032560 0.342860 -0.213263 -0.137864 
important -0.022765 -0.172714 0.133988 -0.125826 -0.004284 -0.122597 0.113082 -0.023695 -0.071736 -0.017733 0.495666 0.025831 -0.359111 -0.171090 0.156517 0.303012 -0.075263 -0.128239 -0.054370 0.041293 -0.161330 0.264853 0.312297 -0.234542 0.008175 -0.115893 -0.306610 0.181301 -0.086472 0.146974 -0.135785 0.018959 -0.038427 -0.159624 0.069318 0.093573 0.198058 0.108699 0.357665 -0.139040 -0.374596 0.196028 0.118429 0.087158 0.270636 0.291815 -0.007854 0.284423 -0.180159 -0.112275 
( -0.020184 -0.164139 0.139712 -0.098355 0.006746 -0.137658 0.118921 -0.016566 -0.092619 -0.014510 0.473459 0.037633 -0.344320 -0.169014 0.148382 0.301218 -0.063401 -0.133144 -0.042957 0.041854 -0.155533 0.248332 0.308525 -0.218570 -0.012903 -0.135152 -0.291219 0.161791 -0.064045 0.145297 -0.135439 0.015113 -0.061206 -0.148176 0.071118 0.106559 0.212916 0.113317 0.340802 -0.155498 -0.362655 0.203611 0.088797 0.069287 0.273546 0.284672 -0.021914 0.276271 -0.178934 -0.101538 
time -0.019846 -0.183780 0.132153 -0.112832 0.008263 -0.148923 0.113239 -0.025353 -0.091897 -0.022384 0.496072 0.043555 -0.373912 -0.172259 0.139768 0.321806 -0.061649 -0.131539 -0.057542 0.038525 -0.165410 0.273057 0.318060 -0.229918 -0.023658 -0.148810 -0.311948 0.171747 -0.073784 0.154935 -0.134667 0.016822 -0.049751 -0.143175 0.078227 0.117526 0.214375 0.110059 0.349476 -0.155339 -0.371982 0.213196 0.097889 0.069494 0.276674 0.299897 -0.024630 0.295599 -0.190535 -0.112398 
because -0.036810 -0.171369 0.163306 -0.086861 0.002872 -0.165716 0.125774 -0.026994 -0.099304 -0.031552 0.495551 0.051736 -0.373282 -0.164173 0.116197 0.330177 -0.033313 -0.144533 -0.040700 0.034287 -0.187198 0.258208 0.335197 -0.207897 -0.042299 -0.163718 -0.335549 0.158835 -0.066825 0.156756 -0.136931 0.023567 -0.056706 -0.132640 0.106971 0.153335 0.230964 0.126046 0.358011 -0.168954 -0.386261 0.221838 0.065192 0.043051 0.285968 0.296907 -0.038053 0.324022 -0.195008 -0.117779 
: -0.036906 -0.182789 0.148981 -0.111609 -0.005462 -0.134087 0.106996 -0.019518 -0.083967 -0.021875 0.483591 0.030502 -0.356810 -0.168390 0.131610 0.316678 -0.043451 -0.127802 -0.042382 0.039435 -0.170171 0.249320 0.302823 -0.216093 -0.022973 -0.131840 -0.309835 0.166586 -0.078602 0.154524 -0.135435 0.030401 -0.056930 -0.152093 0.089896 0.129682 0.209547 0.104589 0.353662 -0.162247 -0.361878 0.205632 0.091441 0.071125 0.276755 0.280222 -0.024871 0.302661 -0.193382 -0.109572 
when -0.033932 -0.181611 0.144568 -0.121025 0.007959 -0.157061 0.127312 -0.023916 -0.098567 -0.009559 0.535126 0.044923 -0.386163 -0.190100 0.151695 0.345372 -0.054182 -0.154838 -0.066713 0.032525 -0.185246 0.285542 0.339860 -0.247313 -0.014652 -0.148870 -0.333836 0.188599 -0.092148 0.154520 -0.147576 0.032036 -0.048709 -0.171417 0.089873 0.125889 0.233394 0.121467 0.386590 -0.178588 -0.411270 0.216025 0.109681 0.069187 0.297776 0.313584 -0.026803 0.326167 -0.216520 -0.126735 
make -0.034245 -0.179446 0.136936 -0.111866 0.004541 -0.146868 0.108028 -0.021528 -0.084931 -0.018084 0.489867 0.041311 -0.347612 -0.166111 0.141585 0.304479 -0.049251 -0.126539 -0.048825 0.029111 -0.176350 0.262313 0.310703 -0.214399 -0.029812 -0.134890 -0.295693 0.180495 -0.079842 0.154053 -0.137243 0.016387 -0.043953 -0.146443 0.076084 0.112427 0.212801 0.106882 0.355446 -0.148561 -0.368715 0.198584 0.080815 0.072204 0.266070 0.283680 -0.032372 0.292282 -0.197561 -0.113625 
up -0.028097 -0.199617 0.135736 -0.131804 0.008931 -0.140672 0.123308 -0.026007 -0.083571 -0.011098 0.547744 0.031672 -0.393756 -0.196629 0.167895 0.336959 -0.082645 -0.147997 -0.055739 0.029575 -0.186369 0.303815 0.328240 -0.252719 -0.012605 -0.130608 -0.318124 0.201679 -0.095748 0.159969 -0.147534 0.023418 -0.055187 -0.180081 0.086547 0.112421 0.215288 0.116119 0.392935 -0.159724 -0.413721 0.224695 0.120221 0.078701 0.304741 0.326790 -0.021253 0.311473 -0.214893 -0.111839 
take -0.023624 -0.177880 0.143682 -0.118098 -0.007320 -0.143324 0.126713 -0.022171 -0.100377 -0.012276 0.533565 0.034962 -0.375768 -0.179098 0.155564 0.340790 -0.053577 -0.146240 -0.056996 0.034249 -0.176586 0.278053 0.324500 -0.242104 -0.019418 -0.148358 -0.330595 0.180566 -0.079922 0.158543 -0.147645 0.017576 -0.060669 -0.170214 0.080104 0.116575 0.229702 0.111897 0.377297 -0.168430 -0.390411 0.216312 0.105587 0.078166 0.286801 0.322923 -0.023763 0.316575 -0.201008 -0.126611 
people -0.027018 -0.195556 0.154580 -0.133746 -0.011374 -0.168665 0.131521 -0.027985 -0.103368 -0.026837 0.568596 0.039943 -0.419320 -0.197399 0.157515 0.361526 -0.065981 -0.151142 -0.049572 0.041605 -0.196593 0.307509 0.358931 -0.249283 -0.018654 -0.156531 -0.345959 0.206341 -0.085078 0.180215 -0.146547 0.021542 -0.065866 -0.179830 0.085760 0.137142 0.257158 0.118310 0.398087 -0.184362 -0.440754 0.230293 0.093219 0.070216 0.319283 0.346181 -0.025054 0.347871 -0.228547 -0.122891 
0 -0.032561 -0.174460 0.155229 -0.105548 -0.009032 -0.165114 0.131671 -0.026508 -0.108180 -0.019110 0.506694 0.037961 -0.364370 -0.155640 0.134468 0.314682 -0.037867 -0.130622 -0.034270 0.048386 -0.180216 0.257222 0.330635 -0.222578 -0.041858 -0.157616 -0.324160 0.166431 -0.065468 0.161599 -0.145959 0.028175 -0.052245 -0.148182 0.092670 0.148617 0.237993 0.121196 0.369593 -0.171536 -0.390689 0.214337 0.060716 0.046974 0.282863 0.300087 -0.043476 0.317821 -0.200177 -0.120516 
am -0.017762 -0.187769 0.132713 -0.116470 -0.003455 -0.137348 0.107091 -0.032552 -0.096965 -0.024573 0.519776 0.026279 -0.379006 -0.169600 0.162127 0.318473 -0.064392 -0.148655 -0.047652 0.044407 -0.168580 0.269381 0.326687 -0.243087 -0.009312 -0.145394 -0.321274 0.195483 -0.089951 0.158251 -0.143726 0.025304 -0.061945 -0.160153 0.080779 0.112059 0.227602 0.105434 0.363269 -0.169120 -0.393353 0.204868 0.111442 0.082134 0.287971 0.308249 -0.026977 0.304451 -0.195936 -0.110670 
now -0.026445 -0.210331 0.143432 -0.142315 0.007734 -0.158985 0.134268 -0.023471 -0.086560 -0.020402 0.575166 0.037491 -0.415536 -0.187894 0.173909 0.359315 -0.077723 -0.155384 -0.062303 0.041300 -0.203376 0.305720 0.359126 -0.265619 0.000729 -0.138930 -0.334004 0.222776 -0.098595 0.171548 -0.143657 0.024720 -0.047625 -0.175093 0.084287 0.113523 0.232588 0.121893 0.400372 -0.179607 -0.422213 0.233037 0.122547 0.096450 0.304964 0.341221 -0.016272 0.331672 -0.207907 -0.120916 
into -0.027426 -0.177835 0.137307 -0.114383 -0.001622 -0.145664 0.107353 -0.030653 -0.094491 -0.019393 0.510015 0.042309 -0.377406 -0.170614 0.158394 0.324551 -0.058833 -0.138575 -0.056159 0.033019 -0.166946 0.273761 0.318053 -0.223132 -0.009690 -0.142283 -0.310504 0.190118 -0.074435 0.145820 -0.146592 0.023685 -0.055808 -0.159382 0.076876 0.113531 0.222522 0.118557 0.352975 -0.148497 -0.384658 0.201991 0.103760 0.084837 0.279738 0.308630 -0.009390 0.309661 -0.202095 -0.117438 
community -0.031872 -0.187141 0.136291 -0.120727 0.008263 -0.143327 0.112732 -0.032956 -0.089888 -0.005205 0.503592 0.043673 -0.368936 -0.177390 0.153436 0.315114 -0.057756 -0.133482 -0.056725 0.035642 -0.173785 0.285798 0.328330 -0.237918 -0.011438 -0.134389 -0.303169 0.193920 -0.071983 0.148560 -0.132730 0.034046 -0.049992 -0.159523 0.072179 0.106568 0.215652 0.117635 0.360239 -0.149018 -0.382873 0.206092 0.105389 0.072238 0.288716 0.306548 -0.022577 0.305301 -0.206174 -0.118520 
out -0.036668 -0.190660 0.158999 -0.130702 -0.000731 -0.165739 0.128362 -0.033236 -0.103907 -0.019729 0.547911 0.040607 -0.409756 -0.188090 0.160749 0.340972 -0.055078 -0.156027 -0.047909 0.049786 -0.193458 0.296267 0.352851 -0.246034 -0.027556 -0.154378 -0.340839 0.190466 -0.089629 0.155055 -0.146199 0.016445 -0.048814 -0.161759 0.087115 0.138363 0.228719 0.122236 0.390778 -0.177412 -0.414380 0.217970 0.099351 0.079816 0.312466 0.331175 -0.020875 0.325661 -0.212725 -0.121639 
however -0.020994 -0.173229 0.136652 -0.090320 -0.006925 -0.131858 0.113115 -0.027326 -0.081287 -0.030099 0.463658 0.032684 -0.337361 -0.161664 0.136632 0.302751 -0.044828 -0.119672 -0.041778 0.045062 -0.159952 0.252831 0.295538 -0.205147 -0.013303 -0.142365 -0.299379 0.165625 -0.066607 0.140190 -0.128664 0.011121 -0.054249 -0.133850 0.082277 0.119099 0.204379 0.101254 0.328947 -0.157028 -0.352017 0.189930 0.078923 0.052386 0.266128 0.279100 -0.025660 0.291207 -0.188516 -0.116601 
some -0.034281 -0.175806 0.145398 -0.095407 -0.013927 -0.141368 0.110275 -0.037682 -0.104802 -0.022310 0.467716 0.047092 -0.351357 -0.161338 0.123163 0.305450 -0.033125 -0.131123 -0.051400 0.033870 -0.158816 0.252788 0.299804 -0.200041 -0.024376 -0.136817 -0.298018 0.155253 -0.071478 0.141530 -0.129214 0.022087 -0.061613 -0.147171 0.095817 0.138953 0.219710 0.112557 0.349418 -0.165043 -0.355348 0.198865 0.067669 0.059062 0.266865 0.275728 -0.045821 0.311731 -0.195941 -0.117118 
any -0.032341 -0.179234 0.144587 -0.118011 -0.006783 -0.143914 0.109810 -0.025695 -0.084968 -0.021899 0.504679 0.037940 -0.368158 -0.168587 0.156605 0.324998 -0.065954 -0.128493 -0.053135 0.039303 -0.181503 0.271338 0.321496 -0.220005 -0.025387 -0.131101 -0.315463 0.189395 -0.085096 0.150428 -0.136272 0.030630 -0.060828 -0.144696 0.080765 0.121031 0.222424 0.113250 0.360743 -0.152051 -0.389022 0.211144 0.093256 0.072518 0.292187 0.305128 -0.018516 0.305280 -0.194454 -0.113616 
programme -0.040404 -0.189173 0.153124 -0.100277 -0.005003 -0.170083 0.126704 -0.031879 -0.109893 -0.028246 0.521095 0.042803 -0.372257 -0.168791 0.128928 0.335859 -0.041409 -0.138451 -0.035142 0.034710 -0.171660 0.258045 0.332455 -0.221939 -0.036960 -0.160298 -0.349970 0.161764 -0.072064 0.174065 -0.141152 0.020550 -0.069117 -0.144754 0.096128 0.162509 0.239578 0.112695 0.366717 -0.181996 -0.394934 0.235454 0.062379 0.052363 0.294623 0.311688 -0.048538 0.345941 -0.215853 -0.125205 
committee -0.026545 -0.164116 0.134201 -0.112832 0.005852 -0.141167 0.120842 -0.026149 -0.086077 -0.027404 0.481644 0.027546 -0.350181 -0.153281 0.131103 0.309936 -0.054573 -0.122608 -0.047108 0.029019 -0.166455 0.252641 0.308169 -0.219040 -0.026915 -0.125044 -0.289994 0.178224 -0.066076 0.141214 -0.137217 0.013404 -0.045637 -0.137640 0.088196 0.107823 0.216872 0.106818 0.335553 -0.160869 -0.359135 0.191904 0.091810 0.056306 0.272249 0.284376 -0.032654 0.301495 -0.178554 -0.108772 
development -0.028156 -0.186723 0.149898 -0.118501 -0.007802 -0.158637 0.125846 -0.024071 -0.097516 -0.011693 0.553218 0.034441 -0.405207 -0.181950 0.165178 0.337961 -0.060256 -0.145317 -0.053372 0.034728 -0.188195 0.294265 0.342280 -0.242403 -0.007312 -0.139102 -0.337676 0.194284 -0.090301 0.167190 -0.156374 0.027419 -0.051839 -0.169186 0.095653 0.129553 0.232942 0.109974 0.389228 -0.166353 -0.420648 0.224903 0.103568 0.071461 0.301220 0.332053 -0.034845 0.335805 -0.216501 -0.131913 
between -0.027584 -0.198664 0.173364 -0.097563 -0.002369 -0.167681 0.126453 -0.029632 -0.101056 -0.026080 0.527037 0.048204 -0.390562 -0.163691 0.146433 0.346958 -0.034325 -0.141315 -0.039046 0.050158 -0.196463 0.269864 0.354606 -0.233391 -0.035564 -0.164144 -0.350020 0.185902 -0.071541 0.177140 -0.140015 0.017408 -0.058757 -0.158004 0.094884 0.170730 0.244191 0.120816 0.384705 -0.188651 -0.399964 0.225092 0.073572 0.048460 0.313807 0.319225 -0.048451 0.355113 -0.214925 -0.136636 
such -0.036159 -0.182784 0.146930 -0.091222 -0.000609 -0.152405 0.123620 -0.032840 -0.099184 -0.018157 0.501001 0.036537 -0.364734 -0.164407 0.125053 0.327538 -0.036680 -0.130656 -0.036226 0.047939 -0.172028 0.258894 0.325684 -0.224849 -0.028053 -0.157507 -0.324281 0.170702 -0.074123 0.167953 -0.137133 0.024019 -0.052751 -0.146711 0.097963 0.138098 0.229108 0.119628 0.370956 -0.172211 -0.375999 0.219721 0.073109 0.062352 0.291442 0.297811 -0.048409 0.325374 -0.204733 -0.120213 
commissioner -0.023500 -0.181014 0.140118 -0.110890 -0.001719 -0.153771 0.114189 -0.025823 -0.104801 -0.014630 0.518551 0.046328 -0.376584 -0.165931 0.143895 0.324973 -0.061271 -0.141403 -0.051696 0.045248 -0.173419 0.273343 0.321109 -0.231417 -0.030179 -0.142371 -0.319642 0.170918 -0.076928 0.160787 -0.128777 0.031146 -0.058752 -0.152713 0.087484 0.130346 0.216906 0.116261 0.366004 -0.165168 -0.381295 0.210980 0.085546 0.063724 0.291155 0.314036 -0.038601 0.314860 -0.193786 -0.127079 
just -0.040733 -0.183757 0.169008 -0.093557 -0.005640 -0.172297 0.136415 -0.025151 -0.118847 -0.035727 0.525873 0.046551 -0.387905 -0.171460 0.120015 0.346666 -0.036387 -0.147357 -0.040820 0.046573 -0.178377 0.258907 0.349931 -0.219306 -0.047671 -0.174542 -0.359167 0.164078 -0.071748 0.172816 -0.158354 0.026163 -0.069146 -0.150661 0.099370 0.183380 0.246675 0.131019 0.378194 -0.188337 -0.405225 0.249247 0.048577 0.034668 0.307596 0.310895 -0.066371 0.358242 -0.215629 -0.124295 
made -0.038825 -0.205407 0.161986 -0.128330 -0.001461 -0.163869 0.135740 -0.040329 -0.094740 -0.018148 0.586525 0.048021 -0.435340 -0.201735 0.175533 0.372382 -0.066174 -0.159689 -0.056693 0.048929 -0.204830 0.311239 0.373628 -0.271538 -0.017295 -0.167920 -0.365352 0.209189 -0.094606 0.170997 -0.161983 0.018199 -0.060641 -0.189887 0.085235 0.130034 0.240812 0.118778 0.411443 -0.192029 -0.437136 0.245278 0.108986 0.075170 0.328558 0.355694 -0.022626 0.359815 -0.221319 -0.141464 
way -0.029740 -0.157349 0.125959 -0.093022 0.006326 -0.139199 0.101301 -0.024356 -0.093524 -0.027532 0.434808 0.039102 -0.317355 -0.152814 0.122487 0.287777 -0.038946 -0.120573 -0.049442 0.043474 -0.146882 0.243727 0.283541 -0.197281 -0.026634 -0.135409 -0.279550 0.159565 -0.059834 0.147214 -0.122945 0.029026 -0.058586 -0.140356 0.081080 0.109989 0.189828 0.107052 0.320632 -0.150043 -0.349178 0.190462 0.070721 0.049791 0.255680 0.258919 -0.020266 0.283345 -0.177362 -0.103738 
social -0.025123 -0.182861 0.153646 -0.093734 -0.004081 -0.154143 0.117127 -0.034409 -0.104495 -0.034720 0.480115 0.049035 -0.356688 -0.166395 0.132775 0.312292 -0.036565 -0.124116 -0.043683 0.038327 -0.171911 0.249566 0.306856 -0.219161 -0.038707 -0.157574 -0.316947 0.153485 -0.066149 0.147620 -0.143133 0.015321 -0.065069 -0.141201 0.089630 0.138679 0.216371 0.110482 0.350116 -0.174979 -0.375349 0.212010 0.070404 0.055789 0.279495 0.294286 -0.037210 0.318781 -0.200720 -0.105818 
fact -0.020351 -0.165710 0.140280 -0.111356 -0.007746 -0.140459 0.115002 -0.029685 -0.086957 -0.012060 0.485436 0.041112 -0.346159 -0.155638 0.137581 0.301999 -0.061643 -0.132984 -0.054584 0.044966 -0.169678 0.264373 0.297977 -0.221576 -0.000954 -0.138391 -0.290569 0.178889 -0.077853 0.149245 -0.132241 0.021238 -0.054933 -0.159080 0.084289 0.104245 0.199909 0.099667 0.350636 -0.145065 -0.372365 0.187959 0.097292 0.077483 0.277580 0.288110 -0.020334 0.286988 -0.191279 -0.108061 
within -0.034460 -0.183177 0.146243 -0.133213 0.000580 -0.144551 0.120418 -0.028537 -0.085445 -0.013440 0.524886 0.042387 -0.394738 -0.186443 0.164482 0.324249 -0.064313 -0.148819 -0.059113 0.030703 -0.185019 0.288104 0.328100 -0.243558 -0.015878 -0.150584 -0.317760 0.196182 -0.084805 0.159274 -0.142958 0.026080 -0.052251 -0.156755 0.087874 0.113814 0.221644 0.104710 0.386359 -0.163578 -0.405649 0.206419 0.098758 0.073985 0.290611 0.308887 -0.026518 0.322769 -0.202806 -0.118376 
state -0.029440 -0.189750 0.155246 -0.115313 -0.002552 -0.160279 0.130434 -0.024578 -0.092106 -0.014924 0.550426 0.040010 -0.398598 -0.185930 0.156056 0.338484 -0.068872 -0.152542 -0.049915 0.048684 -0.186139 0.287881 0.340054 -0.233069 -0.022480 -0.145498 -0.346691 0.194057 -0.075339 0.164057 -0.152146 0.017181 -0.049563 -0.173660 0.083853 0.128836 0.236448 0.112229 0.388729 -0.171617 -0.405647 0.228376 0.086930 0.072662 0.306776 0.329195 -0.019721 0.321737 -0.215114 -0.131839 
say -0.034227 -0.166643 0.166332 -0.083572 -0.002070 -0.157827 0.134387 -0.040916 -0.118580 -0.044010 0.493556 0.041520 -0.369356 -0.164266 0.103699 0.319544 -0.020887 -0.123859 -0.029149 0.050400 -0.169952 0.253381 0.326905 -0.203062 -0.057670 -0.170156 -0.336889 0.141898 -0.082769 0.163343 -0.140227 0.019374 -0.069434 -0.135453 0.114430 0.194965 0.234996 0.117279 0.368983 -0.186001 -0.386361 0.223547 0.039029 0.032119 0.291312 0.289823 -0.056381 0.344353 -0.211693 -0.132088 
support -0.022225 -0.183614 0.157804 -0.107321 -0.008702 -0.145031 0.130727 -0.029079 -0.108075 -0.025991 0.507170 0.040831 -0.376997 -0.172365 0.135574 0.313944 -0.041766 -0.142692 -0.039144 0.031844 -0.169412 0.258234 0.335720 -0.220476 -0.036443 -0.153327 -0.319857 0.178858 -0.083489 0.152825 -0.136960 0.018786 -0.061379 -0.147803 0.086820 0.136603 0.227223 0.108203 0.369552 -0.169572 -0.389546 0.212327 0.084186 0.053909 0.293579 0.301772 -0.043100 0.311883 -0.199158 -0.119896 
were -0.037337 -0.189736 0.144415 -0.099604 -0.012998 -0.158323 0.132523 -0.032755 -0.094090 -0.021030 0.514615 0.050533 -0.373295 -0.176651 0.144316 0.328397 -0.050547 -0.138949 -0.042634 0.038002 -0.187433 0.271842 0.333325 -0.229368 -0.027219 -0.158045 -0.328110 0.179088 -0.083058 0.156849 -0.139925 0.019731 -0.066369 -0.153210 0.089177 0.138105 0.229400 0.105262 0.375462 -0.177678 -0.395946 0.221810 0.080284 0.062540 0.281922 0.296015 -0.041231 0.321351 -0.210390 -0.110880 
political -0.035480 -0.174358 0.146325 -0.108871 -0.005065 -0.132793 0.118331 -0.027837 -0.099693 -0.017319 0.467111 0.029223 -0.348423 -0.163698 0.134151 0.291206 -0.040574 -0.123077 -0.039384 0.033718 -0.155259 0.253157 0.298514 -0.214835 -0.027474 -0.129837 -0.303339 0.165340 -0.070550 0.141382 -0.135391 0.024449 -0.048200 -0.152242 0.078257 0.115238 0.213568 0.101164 0.344300 -0.160802 -0.357246 0.192283 0.080461 0.052989 0.268250 0.289144 -0.029408 0.302736 -0.187780 -0.119213 
being -0.027949 -0.157480 0.147736 -0.091068 0.006215 -0.147574 0.120749 -0.016783 -0.083131 -0.029859 0.458264 0.046707 -0.349292 -0.146837 0.121876 0.299101 -0.045008 -0.129525 -0.046563 0.037331 -0.170558 0.234513 0.298993 -0.197249 -0.026954 -0.141251 -0.296116 0.156489 -0.080832 0.137928 -0.119407 0.029516 -0.043939 -0.133737 0.073206 0.118283 0.200916 0.096335 0.339570 -0.145296 -0.366289 0.187500 0.080804 0.052207 0.262384 0.272559 -0.026932 0.282356 -0.194776 -0.100360 
first -0.039217 -0.170659 0.129514 -0.110557 -0.003992 -0.147220 0.121509 -0.017038 -0.085219 -0.017715 0.475060 0.044177 -0.353134 -0.154962 0.143359 0.314200 -0.056026 -0.121213 -0.040857 0.038443 -0.167584 0.258725 0.314570 -0.218844 -0.020963 -0.140847 -0.308778 0.178983 -0.076160 0.141293 -0.138775 0.025512 -0.048314 -0.147519 0.083194 0.130721 0.206786 0.103104 0.355530 -0.148203 -0.378224 0.204546 0.089933 0.067703 0.268332 0.285682 -0.033521 0.295763 -0.189344 -0.105971 
work -0.038348 -0.178952 0.150894 -0.104124 -0.011443 -0.142480 0.117995 -0.032445 -0.095848 -0.034695 0.481900 0.037208 -0.354541 -0.153583 0.128659 0.306813 -0.037947 -0.129537 -0.049704 0.035540 -0.172004 0.247573 0.315586 -0.210145 -0.042435 -0.142881 -0.310361 0.172200 -0.080705 0.149629 -0.131789 0.016422 -0.065834 -0.147175 0.089705 0.146998 0.215463 0.116617 0.348168 -0.172784 -0.373259 0.210901 0.078647 0.046479 0.275685 0.289351 -0.042391 0.317844 -0.199784 -0.109061 
debate -0.033845 -0.181156 0.140729 -0.105348 0.002478 -0.143263 0.120219 -0.027476 -0.082538 -0.027926 0.487837 0.032619 -0.361475 -0.156729 0.140608 0.308453 -0.052963 -0.126210 -0.050573 0.045803 -0.157836 0.263146 0.303034 -0.224352 -0.013396 -0.130874 -0.310399 0.164497 -0.080251 0.152840 -0.129498 0.019649 -0.054482 -0.144252 0.077798 0.118193 0.200738 0.111147 0.341606 -0.158628 -0.365374 0.191858 0.094473 0.070189 0.272389 0.296824 -0.024630 0.288517 -0.184816 -0.104844 
those -0.034134 -0.180683 0.165640 -0.105995 -0.005265 -0.164420 0.127843 -0.035835 -0.105102 -0.033618 0.497293 0.033588 -0.375569 -0.170765 0.130397 0.314307 -0.036341 -0.133497 -0.043778 0.034290 -0.182896 0.259590 0.329052 -0.205997 -0.035399 -0.156601 -0.337801 0.177390 -0.085394 0.155395 -0.135053 0.021274 -0.068437 -0.151410 0.101668 0.150958 0.224769 0.112564 0.367416 -0.171678 -0.389637 0.221372 0.064179 0.064674 0.293793 0.297166 -0.037975 0.321950 -0.200967 -0.126764 
areas -0.042349 -0.188842 0.158560 -0.099069 -0.003716 -0.151889 0.133850 -0.028008 -0.100032 -0.018707 0.509254 0.043917 -0.388630 -0.175752 0.134237 0.326796 -0.036399 -0.141076 -0.047819 0.051233 -0.180158 0.270592 0.342422 -0.227989 -0.035796 -0.151742 -0.329842 0.180890 -0.069207 0.157763 -0.152612 0.029738 -0.055363 -0.158499 0.096805 0.149595 0.232977 0.109127 0.375272 -0.163826 -0.401386 0.220489 0.086622 0.052483 0.293446 0.310539 -0.028387 0.333030 -0.213264 -0.124489 
your -0.032693 -0.168979 0.147094 -0.107387 -0.012880 -0.149148 0.118282 -0.032839 -0.101005 -0.021091 0.492275 0.033347 -0.374671 -0.175029 0.136521 0.324798 -0.053596 -0.130596 -0.045828 0.038294 -0.183600 0.264568 0.326564 -0.210503 -0.030725 -0.154510 -0.309554 0.182030 -0.083165 0.153984 -0.139929 0.030216 -0.049802 -0.156416 0.091406 0.123397 0.222794 0.114024 0.360995 -0.159831 -0.388398 0.210778 0.088046 0.069873 0.282767 0.295532 -0.039406 0.308568 -0.196439 -0.124323 
point -0.020799 -0.168185 0.145562 -0.103312 0.000512 -0.143408 0.102406 -0.031943 -0.094344 -0.009547 0.463923 0.039202 -0.347373 -0.159679 0.140214 0.304211 -0.040520 -0.126631 -0.040215 0.033720 -0.156331 0.257621 0.306637 -0.201300 -0.025194 -0.139976 -0.295099 0.160883 -0.066081 0.150675 -0.134440 0.026588 -0.061244 -0.144178 0.078783 0.127090 0.206560 0.101459 0.338018 -0.147694 -0.358238 0.204423 0.081183 0.052375 0.275133 0.287618 -0.032665 0.291539 -0.192017 -0.100025 
economic -0.028165 -0.182385 0.145166 -0.098238 0.004032 -0.146792 0.125846 -0.027167 -0.101494 -0.029712 0.501533 0.032467 -0.365971 -0.158412 0.134041 0.312689 -0.045661 -0.135842 -0.051441 0.034466 -0.177637 0.263564 0.316681 -0.216288 -0.030993 -0.144526 -0.325265 0.178185 -0.079712 0.158748 -0.137222 0.013225 -0.066275 -0.146315 0.090717 0.141104 0.225698 0.115171 0.356070 -0.161603 -0.381076 0.214461 0.079373 0.052059 0.282388 0.290210 -0.030023 0.320849 -0.205695 -0.118804 
regions -0.038284 -0.204749 0.172620 -0.133007 0.007606 -0.176959 0.145655 -0.027846 -0.100809 -0.013699 0.606844 0.036159 -0.429892 -0.211712 0.187180 0.368936 -0.079049 -0.169261 -0.055235 0.053563 -0.198106 0.322978 0.374340 -0.275206 -0.015136 -0.155561 -0.361291 0.223166 -0.100505 0.167987 -0.163996 0.029972 -0.067544 -0.186182 0.103831 0.132410 0.257194 0.127312 0.437433 -0.198202 -0.461266 0.244550 0.106916 0.094611 0.330940 0.364389 -0.027618 0.349217 -0.229345 -0.133671 
countries -0.023973 -0.187107 0.149294 -0.127193 0.005756 -0.153926 0.123621 -0.025635 -0.083996 -0.013226 0.530694 0.034246 -0.394523 -0.184859 0.154328 0.339730 -0.062815 -0.154797 -0.061439 0.039507 -0.179702 0.288653 0.336702 -0.247678 -0.003996 -0.151706 -0.317296 0.191301 -0.084138 0.149334 -0.147374 0.033164 -0.060687 -0.163755 0.083684 0.126696 0.228471 0.112928 0.380382 -0.155361 -0.403207 0.224939 0.094111 0.071748 0.292617 0.306995 -0.025324 0.323858 -0.199091 -0.127030 
than -0.036820 -0.190148 0.151056 -0.123064 -0.001486 -0.149229 0.116214 -0.027372 -0.092708 -0.010417 0.520018 0.042580 -0.381146 -0.170535 0.154327 0.338453 -0.069127 -0.150343 -0.065295 0.030857 -0.176307 0.281645 0.333336 -0.237949 -0.006261 -0.151011 -0.329466 0.189895 -0.081920 0.162835 -0.141254 0.024508 -0.043598 -0.170942 0.084445 0.124603 0.216455 0.114963 0.371095 -0.170284 -0.410766 0.206619 0.097527 0.079860 0.295551 0.321990 -0.016789 0.311241 -0.210586 -0.122754 
aid -0.039375 -0.187260 0.150473 -0.125417 -0.008023 -0.160886 0.129497 -0.026500 -0.097997 -0.017877 0.558985 0.046123 -0.399433 -0.191031 0.167640 0.356137 -0.050943 -0.151643 -0.048754 0.043399 -0.189543 0.289292 0.358082 -0.254739 -0.014594 -0.151807 -0.351739 0.196874 -0.079751 0.161653 -0.157324 0.020644 -0.054466 -0.173241 0.089841 0.132515 0.241457 0.125588 0.390806 -0.186277 -0.417832 0.231700 0.088968 0.069180 0.315590 0.325233 -0.021600 0.331531 -0.211041 -0.131549 
issue -0.030328 -0.172007 0.157843 -0.084694 -0.005368 -0.143827 0.117311 -0.036351 -0.111573 -0.018479 0.474561 0.040763 -0.359015 -0.159836 0.124071 0.311433 -0.026685 -0.120249 -0.041393 0.034115 -0.158046 0.238750 0.310567 -0.196133 -0.043883 -0.151699 -0.324853 0.153936 -0.060980 0.152204 -0.141545 0.017208 -0.058239 -0.125210 0.087564 0.153140 0.221146 0.112862 0.338210 -0.156560 -0.375542 0.207467 0.062077 0.052889 0.271856 0.287648 -0.042410 0.317825 -0.200661 -0.115663 
question -0.026044 -0.166566 0.146291 -0.114238 -0.002900 -0.149870 0.123679 -0.017989 -0.096105 -0.023044 0.487899 0.033260 -0.368458 -0.176296 0.145341 0.311388 -0.058194 -0.139809 -0.056201 0.047953 -0.173026 0.255331 0.303861 -0.223840 -0.017125 -0.134276 -0.310441 0.169676 -0.067160 0.153305 -0.132802 0.027643 -0.052026 -0.159594 0.085915 0.114957 0.206474 0.115191 0.352783 -0.149885 -0.373800 0.198717 0.086612 0.060284 0.284964 0.302375 -0.025714 0.302414 -0.200816 -0.112230 
them -0.035238 -0.184449 0.142067 -0.114859 -0.009734 -0.148089 0.125559 -0.021378 -0.088829 -0.022645 0.514113 0.033602 -0.379751 -0.162775 0.139270 0.322650 -0.052525 -0.129276 -0.055255 0.046760 -0.167304 0.276242 0.327917 -0.226458 -0.017655 -0.137813 -0.307379 0.190843 -0.077783 0.154016 -0.139463 0.016972 -0.059951 -0.158156 0.092249 0.116731 0.211964 0.102867 0.369299 -0.167950 -0.378444 0.207461 0.086773 0.058877 0.289027 0.309416 -0.034575 0.305934 -0.193174 -0.117868 
group -0.035925 -0.173357 0.139531 -0.103433 -0.001586 -0.147080 0.119739 -0.033155 -0.086641 -0.022120 0.475116 0.036629 -0.353035 -0.165254 0.128986 0.294526 -0.057292 -0.135527 -0.051186 0.040967 -0.169338 0.258961 0.297610 -0.213613 -0.028004 -0.144908 -0.302329 0.166793 -0.068178 0.142927 -0.122176 0.024058 -0.052155 -0.133056 0.075591 0.131790 0.215234 0.115212 0.334439 -0.155221 -0.351596 0.192453 0.086462 0.052690 0.270314 0.277776 -0.031102 0.302691 -0.182370 -0.110231 
competition -0.033038 -0.174672 0.143961 -0.096631 -0.003150 -0.139233 0.124564 -0.027890 -0.106348 -0.034705 0.472395 0.048548 -0.353945 -0.144118 0.116367 0.307849 -0.024132 -0.131593 -0.036305 0.033938 -0.160922 0.238485 0.311984 -0.202536 -0.046705 -0.147510 -0.306531 0.158425 -0.067476 0.150736 -0.123878 0.010767 -0.052186 -0.137252 0.096054 0.146363 0.209181 0.105845 0.347588 -0.165294 -0.350820 0.205388 0.063107 0.047402 0.264623 0.282931 -0.031944 0.299830 -0.183066 -0.116868 
where -0.041230 -0.174069 0.142262 -0.107573 -0.008540 -0.146592 0.120608 -0.019844 -0.106457 -0.018413 0.510491 0.045968 -0.366963 -0.174519 0.129252 0.314804 -0.056867 -0.144071 -0.043991 0.042379 -0.174411 0.261602 0.328726 -0.215464 -0.019121 -0.149065 -0.321396 0.173510 -0.086875 0.162813 -0.136254 0.014295 -0.047285 -0.147788 0.091893 0.129610 0.217145 0.110136 0.370331 -0.175459 -0.390630 0.221842 0.074731 0.069914 0.277207 0.297941 -0.034952 0.306455 -0.194163 -0.124626 
believe -0.030396 -0.156696 0.132684 -0.100361 0.003054 -0.122314 0.111348 -0.016803 -0.071545 -0.025112 0.455304 0.038818 -0.330313 -0.146286 0.133967 0.290773 -0.056141 -0.122695 -0.044741 0.031824 -0.161991 0.251091 0.292546 -0.206443 -0.010564 -0.117958 -0.271581 0.172532 -0.062996 0.136355 -0.131044 0.019806 -0.040541 -0.137555 0.075760 0.101942 0.197249 0.100062 0.319975 -0.143168 -0.348045 0.183693 0.092168 0.053459 0.254301 0.267701 -0.021201 0.266882 -0.185956 -0.095265 
does -0.022069 -0.150419 0.132694 -0.088915 -0.011006 -0.134139 0.095718 -0.021527 -0.085027 -0.012292 0.431781 0.025619 -0.309923 -0.153203 0.122790 0.272626 -0.033463 -0.121477 -0.039043 0.028809 -0.156057 0.226858 0.283902 -0.188770 -0.020731 -0.125959 -0.272860 0.155538 -0.073299 0.143228 -0.114253 0.008378 -0.051050 -0.133582 0.071456 0.110710 0.199049 0.092831 0.313471 -0.147285 -0.332158 0.174284 0.061536 0.050187 0.242146 0.268756 -0.028583 0.278404 -0.162745 -0.099311 
how -0.019956 -0.173066 0.137348 -0.117771 -0.000820 -0.131095 0.117807 -0.026130 -0.076622 -0.004612 0.492943 0.024736 -0.358937 -0.162171 0.156921 0.303853 -0.056497 -0.134055 -0.063180 0.039946 -0.177700 0.272337 0.297167 -0.225932 -0.001051 -0.130300 -0.301945 0.180883 -0.083404 0.135408 -0.133122 0.018562 -0.039888 -0.148352 0.082743 0.095606 0.214880 0.103124 0.356800 -0.149242 -0.367432 0.203061 0.096025 0.076255 0.271593 0.299464 -0.017579 0.287815 -0.186387 -0.105645 
many -0.031689 -0.184099 0.133738 -0.127580 -0.000285 -0.131664 0.106321 -0.028981 -0.069919 -0.000237 0.508964 0.028981 -0.373527 -0.187695 0.165866 0.329524 -0.076281 -0.148365 -0.061668 0.044941 -0.181725 0.277162 0.305585 -0.240641 0.007390 -0.128525 -0.303133 0.196922 -0.078959 0.130655 -0.134615 0.032518 -0.047646 -0.168977 0.071326 0.091101 0.214153 0.107988 0.355751 -0.142841 -0.378666 0.201716 0.112262 0.084389 0.270701 0.304309 -0.007014 0.294833 -0.186425 -0.115686 
financial -0.035163 -0.174734 0.149470 -0.087463 -0.006983 -0.156466 0.118916 -0.034389 -0.103699 -0.025775 0.489110 0.052521 -0.366321 -0.158937 0.127895 0.319070 -0.043378 -0.127390 -0.047857 0.031671 -0.163405 0.249671 0.322388 -0.200651 -0.044034 -0.161298 -0.328050 0.168087 -0.068063 0.158178 -0.134787 0.026903 -0.066526 -0.139022 0.096679 0.140824 0.229711 0.114631 0.361364 -0.166126 -0.379242 0.219770 0.057674 0.044771 0.273643 0.283890 -0.048902 0.316738 -0.207453 -0.119954 
" -0.040580 -0.167829 0.152664 -0.099133 0.003697 -0.148036 0.113001 -0.023778 -0.087238 -0.016217 0.482820 0.030537 -0.369664 -0.159054 0.125079 0.315616 -0.038095 -0.134854 -0.052207 0.045570 -0.164170 0.252444 0.315314 -0.206848 -0.035265 -0.141530 -0.320982 0.169425 -0.079327 0.151269 -0.125696 0.025909 -0.057224 -0.137022 0.091583 0.139346 0.220842 0.103856 0.350252 -0.168027 -0.379672 0.214628 0.081788 0.057952 0.286442 0.299308 -0.024317 0.308413 -0.191147 -0.120937 
eu -0.020324 -0.172155 0.124078 -0.134302 0.008782 -0.128632 0.110571 -0.024366 -0.085628 -0.005667 0.510895 0.038423 -0.355391 -0.181540 0.161445 0.308990 -0.064093 -0.132148 -0.049957 0.031703 -0.168268 0.273053 0.299702 -0.236071 -0.004168 -0.122567 -0.298663 0.188235 -0.071015 0.133431 -0.123267 0.020507 -0.051392 -0.158701 0.070642 0.090714 0.213547 0.099462 0.358250 -0.145849 -0.385845 0.201131 0.106231 0.080360 0.282614 0.290513 -0.000003 0.273855 -0.180989 -0.109274 
order -0.018832 -0.164932 0.140419 -0.111927 0.001200 -0.140905 0.116161 -0.025168 -0.084851 -0.025040 0.485252 0.038738 -0.345090 -0.159129 0.149441 0.296914 -0.062452 -0.138371 -0.055731 0.039945 -0.165137 0.245900 0.294733 -0.211657 -0.020976 -0.133741 -0.304320 0.163816 -0.083612 0.130958 -0.137534 0.013544 -0.053025 -0.148106 0.070587 0.104931 0.204950 0.098404 0.339710 -0.154941 -0.369676 0.188345 0.081444 0.057970 0.256909 0.279981 -0.020715 0.292041 -0.185394 -0.099315 
here -0.024947 -0.158533 0.140492 -0.098660 -0.002339 -0.139894 0.112339 -0.025303 -0.093769 -0.014375 0.475210 0.034162 -0.350971 -0.158763 0.133532 0.300074 -0.048787 -0.120934 -0.055305 0.039871 -0.170426 0.258097 0.296313 -0.209473 -0.024374 -0.141655 -0.288676 0.162736 -0.077012 0.132980 -0.132509 0.014027 -0.059604 -0.152606 0.079512 0.126865 0.209909 0.109280 0.338476 -0.160562 -0.363740 0.190795 0.090459 0.052530 0.266887 0.284086 -0.036660 0.298351 -0.193880 -0.111273 
today -0.034833 -0.170664 0.146237 -0.110619 -0.011004 -0.142094 0.111442 -0.034417 -0.088988 -0.017611 0.465693 0.029760 -0.345807 -0.154217 0.137972 0.309225 -0.041869 -0.134330 -0.057286 0.028602 -0.155569 0.260688 0.304662 -0.208670 -0.015835 -0.126892 -0.290813 0.169412 -0.079945 0.145903 -0.127965 0.023697 -0.044687 -0.145570 0.086400 0.117832 0.204410 0.100019 0.345900 -0.147465 -0.361473 0.191706 0.091519 0.052357 0.269481 0.284238 -0.034138 0.293660 -0.179169 -0.101038 
most -0.030680 -0.193777 0.135543 -0.130978 0.008720 -0.142073 0.110161 -0.032607 -0.094642 -0.017620 0.531685 0.038666 -0.388836 -0.173481 0.149642 0.335432 -0.058638 -0.144911 -0.062209 0.039891 -0.188368 0.279851 0.321309 -0.245033 -0.004181 -0.135370 -0.329202 0.196154 -0.077191 0.145083 -0.141928 0.033817 -0.047403 -0.170744 0.087567 0.118643 0.218451 0.116915 0.382132 -0.157716 -0.393749 0.203943 0.095741 0.084357 0.298210 0.315351 -0.013387 0.310405 -0.199102 -0.123614 
think -0.027425 -0.178937 0.145836 -0.099918 -0.007069 -0.148357 0.126316 -0.031338 -0.101083 -0.029437 0.487801 0.038806 -0.360660 -0.168179 0.131827 0.318758 -0.038207 -0.134467 -0.041122 0.038159 -0.173546 0.261821 0.310267 -0.214429 -0.036267 -0.144362 -0.311528 0.166397 -0.080258 0.149280 -0.129935 0.027012 -0.052221 -0.152592 0.075373 0.141247 0.209514 0.117931 0.361397 -0.159302 -0.368745 0.216757 0.071820 0.060984 0.270762 0.300221 -0.023697 0.305414 -0.190824 -0.113407 
possible -0.031744 -0.176611 0.134839 -0.095560 0.005908 -0.130478 0.110669 -0.026865 -0.089813 -0.008415 0.464766 0.039582 -0.338297 -0.160811 0.129736 0.296310 -0.049593 -0.121796 -0.049084 0.041622 -0.172695 0.256859 0.289812 -0.218610 -0.028225 -0.133699 -0.299168 0.174545 -0.072446 0.145872 -0.136510 0.029481 -0.044072 -0.144753 0.069284 0.116557 0.205202 0.109620 0.336740 -0.147153 -0.365483 0.191247 0.086367 0.057869 0.274282 0.282098 -0.029581 0.278987 -0.191254 -0.105933 
already -0.040543 -0.187116 0.163548 -0.107279 0.000262 -0.169370 0.143839 -0.037444 -0.119789 -0.037161 0.546451 0.054659 -0.399982 -0.177611 0.146967 0.356299 -0.053872 -0.154283 -0.055975 0.048247 -0.185245 0.283669 0.350667 -0.240879 -0.033009 -0.175896 -0.364975 0.189021 -0.074337 0.183197 -0.148073 0.017380 -0.060405 -0.163252 0.099325 0.161580 0.242789 0.119409 0.407889 -0.180325 -0.426715 0.240574 0.091410 0.070259 0.314691 0.334097 -0.049038 0.356435 -0.214013 -0.131891 
market -0.028039 -0.181734 0.157890 -0.095083 -0.018501 -0.165621 0.127849 -0.033444 -0.112828 -0.034186 0.492705 0.040528 -0.372123 -0.154987 0.120866 0.318616 -0.023161 -0.142514 -0.027029 0.038309 -0.171888 0.245774 0.329605 -0.205655 -0.046380 -0.166289 -0.340630 0.147019 -0.065747 0.168283 -0.150794 0.023546 -0.058355 -0.132112 0.105680 0.172483 0.229568 0.112200 0.367119 -0.169190 -0.380150 0.220067 0.043853 0.046132 0.290179 0.306335 -0.057111 0.335838 -0.214199 -0.121398 
; -0.031524 -0.172698 0.150934 -0.106738 0.004225 -0.138315 0.119504 -0.032337 -0.102232 -0.016691 0.491922 0.030981 -0.366035 -0.159500 0.141164 0.300633 -0.039991 -0.124685 -0.053859 0.043630 -0.175317 0.264502 0.306668 -0.209718 -0.026110 -0.143268 -0.314956 0.179786 -0.077618 0.155241 -0.133225 0.025388 -0.056162 -0.152343 0.093774 0.126092 0.220920 0.103926 0.352336 -0.155600 -0.378255 0.209608 0.083321 0.062146 0.273595 0.296050 -0.028700 0.298246 -0.186212 -0.111333 
madam -0.026063 -0.154185 0.114393 -0.089774 0.005638 -0.123558 0.090646 -0.020058 -0.079445 -0.004514 0.409563 0.030219 -0.313789 -0.137485 0.137208 0.255145 -0.059132 -0.120280 -0.048203 0.021807 -0.141539 0.232088 0.267511 -0.198092 -0.005665 -0.104141 -0.256710 0.146856 -0.062176 0.113975 -0.119750 0.024938 -0.041507 -0.132129 0.061568 0.089753 0.171218 0.083987 0.303321 -0.138770 -0.324249 0.169283 0.079902 0.063520 0.232524 0.249954 -0.023246 0.245901 -0.162252 -0.088370 
public -0.029111 -0.184389 0.149681 -0.100395 -0.009557 -0.144011 0.121889 -0.019293 -0.086233 -0.014154 0.506340 0.048071 -0.378134 -0.173975 0.149624 0.317432 -0.046274 -0.142002 -0.042956 0.032521 -0.167576 0.271904 0.313634 -0.231723 -0.029774 -0.135958 -0.323628 0.171487 -0.070779 0.143266 -0.132866 0.016502 -0.060829 -0.148392 0.091232 0.135861 0.230090 0.112931 0.364972 -0.156590 -0.393096 0.217973 0.092987 0.065287 0.283447 0.308290 -0.036444 0.306913 -0.192208 -0.119935 
area -0.030676 -0.167955 0.146678 -0.098535 -0.007569 -0.150248 0.120447 -0.025422 -0.088638 -0.018459 0.487576 0.049371 -0.373684 -0.165244 0.138080 0.313410 -0.057722 -0.135035 -0.049475 0.045987 -0.166821 0.261528 0.322229 -0.223355 -0.033023 -0.139156 -0.315258 0.162334 -0.075059 0.161740 -0.141132 0.026506 -0.060791 -0.148451 0.089916 0.129424 0.218988 0.109790 0.358276 -0.160404 -0.378716 0.218452 0.089185 0.055259 0.282587 0.297814 -0.036426 0.309462 -0.201551 -0.106754 
under -0.034150 -0.185007 0.140817 -0.121012 0.005005 -0.143404 0.120436 -0.037074 -0.104447 -0.024741 0.502829 0.038964 -0.378725 -0.171661 0.135410 0.333378 -0.053021 -0.129290 -0.047958 0.037502 -0.169684 0.279891 0.326377 -0.234057 -0.029401 -0.145539 -0.333859 0.179068 -0.075812 0.164432 -0.138928 0.016197 -0.049980 -0.160271 0.083552 0.132794 0.230848 0.121610 0.373293 -0.176377 -0.396328 0.207996 0.086039 0.069037 0.282220 0.305977 -0.023601 0.309906 -0.198366 -0.110226 
could -0.022968 -0.177683 0.139820 -0.094391 -0.009076 -0.137965 0.113479 -0.028134 -0.096882 -0.031910 0.480505 0.042085 -0.343782 -0.160117 0.134061 0.303381 -0.036855 -0.129559 -0.050573 0.030896 -0.176200 0.254669 0.302471 -0.214868 -0.039858 -0.143308 -0.315682 0.167238 -0.067061 0.143374 -0.132325 0.015063 -0.060629 -0.137504 0.092154 0.141906 0.213221 0.113071 0.352007 -0.158855 -0.375131 0.210213 0.061529 0.053571 0.272998 0.281041 -0.035664 0.314836 -0.202700 -0.113844 
national -0.025912 -0.187912 0.166291 -0.109050 -0.008751 -0.166860 0.139690 -0.028129 -0.116345 -0.026563 0.542963 0.053584 -0.407037 -0.168451 0.147699 0.354167 -0.038760 -0.141499 -0.055217 0.038282 -0.183322 0.273624 0.357781 -0.223287 -0.040541 -0.158612 -0.340756 0.191491 -0.076095 0.172830 -0.151303 0.015370 -0.064494 -0.156392 0.089358 0.165290 0.238274 0.113788 0.390977 -0.182999 -0.413788 0.232327 0.084698 0.061971 0.299093 0.328789 -0.047372 0.338088 -0.213923 -0.132260 
want -0.030680 -0.161182 0.125739 -0.094917 0.002215 -0.137187 0.112991 -0.024817 -0.081771 -0.015322 0.457146 0.038547 -0.324387 -0.147868 0.134142 0.293772 -0.049634 -0.131611 -0.046336 0.043083 -0.162562 0.253262 0.286152 -0.199242 -0.006238 -0.117137 -0.281660 0.157385 -0.065763 0.128251 -0.114169 0.013083 -0.050803 -0.136078 0.076854 0.098150 0.195061 0.090204 0.318193 -0.146339 -0.354801 0.195181 0.093076 0.057036 0.256124 0.265713 -0.030255 0.271892 -0.181579 -0.110258 
proposal -0.026970 -0.182528 0.130745 -0.118278 0.008792 -0.142116 0.106141 -0.031015 -0.084947 -0.011423 0.494097 0.045976 -0.357624 -0.172400 0.148627 0.316619 -0.059432 -0.138274 -0.055280 0.043966 -0.164091 0.270128 0.318274 -0.232241 -0.007715 -0.129266 -0.313405 0.178087 -0.083010 0.139575 -0.144037 0.015176 -0.059020 -0.148724 0.071349 0.114961 0.222071 0.103648 0.350841 -0.160426 -0.381654 0.205109 0.085017 0.071419 0.272415 0.302297 -0.017163 0.297092 -0.188831 -0.119750 
see -0.034240 -0.179879 0.137966 -0.114806 -0.001171 -0.154298 0.115452 -0.018518 -0.083846 -0.020767 0.507323 0.034053 -0.360451 -0.162950 0.136736 0.318377 -0.062195 -0.136957 -0.049051 0.038838 -0.172249 0.259391 0.319685 -0.214755 -0.016014 -0.132781 -0.319186 0.178616 -0.086329 0.140917 -0.132984 0.015375 -0.057931 -0.146228 0.074759 0.120233 0.215825 0.115986 0.354223 -0.166103 -0.378911 0.202855 0.079884 0.071019 0.283179 0.292756 -0.019787 0.313136 -0.205484 -0.120772 
course -0.024833 -0.180245 0.148916 -0.096627 -0.004272 -0.144274 0.116522 -0.032226 -0.084943 -0.015858 0.479724 0.035868 -0.363802 -0.160012 0.131663 0.313915 -0.048869 -0.134120 -0.052398 0.035917 -0.159848 0.264343 0.307413 -0.204071 -0.031844 -0.139582 -0.305892 0.169145 -0.082380 0.143191 -0.139584 0.026757 -0.053929 -0.136581 0.078952 0.125070 0.217463 0.100538 0.344617 -0.161195 -0.359840 0.195472 0.087994 0.064540 0.263758 0.280419 -0.030432 0.307445 -0.189185 -0.105075 
then -0.036548 -0.154892 0.131567 -0.082678 -0.007055 -0.142019 0.112417 -0.024838 -0.093894 -0.020681 0.463868 0.031923 -0.341475 -0.155070 0.126190 0.283308 -0.031869 -0.118237 -0.036435 0.033815 -0.163504 0.229814 0.298777 -0.189196 -0.033561 -0.137424 -0.294997 0.145834 -0.067741 0.149265 -0.134507 0.021629 -0.059672 -0.141906 0.088936 0.129973 0.204032 0.106738 0.330356 -0.144634 -0.351916 0.198399 0.061744 0.046764 0.261685 0.271157 -0.033622 0.293393 -0.185875 -0.100113 
two -0.035765 -0.176161 0.142499 -0.108540 0.006292 -0.137868 0.128380 -0.027625 -0.087364 -0.022008 0.518054 0.035826 -0.380049 -0.165823 0.142829 0.316292 -0.065737 -0.132713 -0.056358 0.043416 -0.168819 0.276658 0.325704 -0.231463 -0.026219 -0.140821 -0.314610 0.182266 -0.088057 0.150208 -0.130675 0.029502 -0.059535 -0.154949 0.081431 0.122229 0.226075 0.108317 0.366652 -0.170769 -0.391543 0.202968 0.084751 0.074275 0.296815 0.298400 -0.029518 0.321056 -0.192559 -0.113144 
same -0.039659 -0.204492 0.166868 -0.114721 -0.000596 -0.168011 0.144872 -0.036181 -0.123702 -0.032853 0.571281 0.046748 -0.426549 -0.190298 0.163422 0.372135 -0.053928 -0.156590 -0.062012 0.057196 -0.209483 0.306722 0.379459 -0.243957 -0.035145 -0.185758 -0.379906 0.207273 -0.086421 0.184912 -0.166128 0.013277 -0.066283 -0.175204 0.108351 0.157316 0.269988 0.126590 0.424854 -0.194636 -0.444757 0.258795 0.090303 0.075823 0.328713 0.338796 -0.051478 0.379571 -0.228990 -0.133092 
even -0.018223 -0.165474 0.146795 -0.104842 -0.000648 -0.146885 0.124422 -0.034046 -0.096503 -0.026314 0.496296 0.029009 -0.362752 -0.164495 0.148359 0.315436 -0.046177 -0.129773 -0.057035 0.037706 -0.173283 0.268962 0.318558 -0.220206 -0.012064 -0.134410 -0.311756 0.176923 -0.070971 0.148648 -0.126724 0.023683 -0.053760 -0.154701 0.085336 0.126671 0.219524 0.110606 0.350890 -0.146007 -0.372967 0.201048 0.082097 0.064800 0.279688 0.289670 -0.015260 0.288663 -0.187630 -0.107324 
initiative -0.029995 -0.177003 0.144497 -0.105356 -0.001959 -0.141067 0.116296 -0.025067 -0.085735 -0.016913 0.487080 0.044087 -0.372394 -0.167162 0.140035 0.323586 -0.048065 -0.127181 -0.041613 0.039472 -0.182482 0.265032 0.316414 -0.225510 -0.024263 -0.145327 -0.309932 0.174450 -0.080050 0.147633 -0.145079 0.029841 -0.046598 -0.153739 0.079394 0.133087 0.212211 0.117413 0.359900 -0.152780 -0.372435 0.214599 0.091579 0.052891 0.280579 0.303844 -0.037794 0.315837 -0.196680 -0.113657 
too -0.026917 -0.161524 0.127195 -0.117154 0.009629 -0.133417 0.113889 -0.024675 -0.077729 -0.021943 0.466374 0.027210 -0.328971 -0.157930 0.141107 0.297789 -0.059890 -0.119306 -0.046895 0.039098 -0.161877 0.253988 0.295412 -0.210385 -0.009499 -0.117672 -0.273276 0.168054 -0.074954 0.124148 -0.122243 0.014180 -0.047676 -0.151798 0.068001 0.098102 0.183727 0.098005 0.328333 -0.149863 -0.347318 0.193004 0.087238 0.061149 0.253973 0.273963 -0.008114 0.267646 -0.180683 -0.105073 
had -0.033076 -0.169513 0.153623 -0.090193 0.001125 -0.154034 0.117580 -0.025751 -0.100793 -0.028700 0.465939 0.044914 -0.351204 -0.154992 0.113111 0.313006 -0.044534 -0.125628 -0.038025 0.032057 -0.175353 0.248651 0.310504 -0.193929 -0.033676 -0.147529 -0.312887 0.158406 -0.071901 0.153785 -0.128984 0.016164 -0.061434 -0.126892 0.091864 0.155508 0.227969 0.111622 0.354800 -0.155212 -0.357733 0.205815 0.062766 0.049928 0.277623 0.284866 -0.045193 0.298959 -0.183802 -0.111409 
me -0.019175 -0.178450 0.133762 -0.119226 0.006574 -0.134755 0.103636 -0.014635 -0.092138 -0.021903 0.467416 0.035843 -0.342719 -0.157552 0.133926 0.296707 -0.063959 -0.129527 -0.058067 0.043869 -0.172895 0.254514 0.298739 -0.219365 -0.016375 -0.124727 -0.285118 0.174853 -0.083421 0.137689 -0.121851 0.018354 -0.046731 -0.150605 0.072719 0.102257 0.205934 0.095309 0.346236 -0.155375 -0.366262 0.202319 0.098263 0.068212 0.259007 0.277395 -0.009730 0.283991 -0.189341 -0.108779 
mrs -0.034060 -0.179060 0.154307 -0.123195 -0.005959 -0.143972 0.127610 -0.035790 -0.104436 -0.021556 0.527308 0.031431 -0.384421 -0.171733 0.165922 0.342278 -0.069557 -0.150720 -0.061722 0.033730 -0.182333 0.278095 0.344776 -0.245422 -0.013606 -0.154002 -0.333531 0.183702 -0.074136 0.157137 -0.137670 0.026012 -0.053163 -0.155869 0.095168 0.126370 0.237946 0.112623 0.384763 -0.159766 -0.406783 0.228035 0.092927 0.067842 0.300929 0.311496 -0.017716 0.325281 -0.197902 -0.112194 
much -0.042028 -0.182439 0.160732 -0.108238 -0.012803 -0.160075 0.129855 -0.027835 -0.118949 -0.034841 0.524482 0.041768 -0.372350 -0.174421 0.140105 0.333984 -0.032150 -0.147193 -0.038529 0.044447 -0.186241 0.257327 0.344414 -0.222536 -0.038813 -0.165394 -0.336236 0.167681 -0.082883 0.176355 -0.139932 0.021058 -0.056479 -0.153656 0.091219 0.166931 0.230616 0.116238 0.372848 -0.168724 -0.403887 0.233025 0.058110 0.060586 0.303041 0.297669 -0.047920 0.329668 -0.216136 -0.115851 
may -0.024417 -0.172874 0.135085 -0.111599 -0.006622 -0.136646 0.116416 -0.032485 -0.079361 -0.016046 0.485544 0.034433 -0.353204 -0.174870 0.153460 0.303092 -0.065634 -0.141704 -0.051804 0.034829 -0.174188 0.253591 0.299063 -0.217483 -0.020220 -0.140234 -0.311887 0.170762 -0.067689 0.142716 -0.139739 0.015229 -0.050855 -0.152291 0.071283 0.108921 0.213431 0.108892 0.344710 -0.162558 -0.382579 0.195349 0.099471 0.062762 0.277529 0.286932 -0.018101 0.295044 -0.200220 -0.113478 
future -0.036825 -0.163349 0.155412 -0.094211 -0.011100 -0.153240 0.126132 -0.031164 -0.101056 -0.029513 0.479411 0.046283 -0.358530 -0.154473 0.113139 0.304274 -0.029640 -0.134701 -0.042297 0.041202 -0.173562 0.241779 0.317841 -0.192350 -0.058191 -0.166034 -0.320040 0.147018 -0.063128 0.153560 -0.149861 0.017004 -0.052400 -0.133173 0.095306 0.173698 0.226389 0.107736 0.358729 -0.171001 -0.378058 0.215955 0.043218 0.041655 0.285230 0.283229 -0.050387 0.327575 -0.204674 -0.115547 
cannot -0.021971 -0.169912 0.127258 -0.086208 -0.000812 -0.138284 0.115050 -0.017610 -0.079106 -0.029768 0.459435 0.047521 -0.343969 -0.153036 0.116568 0.290826 -0.043277 -0.126335 -0.038211 0.045290 -0.168803 0.236516 0.288597 -0.198019 -0.022219 -0.140963 -0.296092 0.153591 -0.066940 0.148785 -0.124661 0.015503 -0.051159 -0.135419 0.076908 0.133067 0.212429 0.103495 0.338908 -0.148273 -0.355307 0.198779 0.065140 0.049511 0.253196 0.263152 -0.026711 0.294529 -0.176352 -0.103215 
said -0.028121 -0.170339 0.156922 -0.109050 0.001353 -0.146152 0.125041 -0.024078 -0.105980 -0.024545 0.509564 0.034776 -0.372932 -0.167688 0.125135 0.329837 -0.045635 -0.143927 -0.044376 0.045373 -0.171025 0.264014 0.327586 -0.220299 -0.044714 -0.152501 -0.331365 0.169665 -0.067651 0.163017 -0.152118 0.026846 -0.061863 -0.148118 0.102610 0.154249 0.240068 0.119419 0.360497 -0.177820 -0.394786 0.218230 0.060773 0.062448 0.280767 0.303035 -0.052202 0.334165 -0.203407 -0.116786 
why -0.022746 -0.173388 0.141485 -0.111781 0.000509 -0.145723 0.121776 -0.025913 -0.093060 -0.014077 0.494205 0.040797 -0.364670 -0.155523 0.135335 0.303599 -0.046213 -0.127583 -0.042820 0.044665 -0.180722 0.254986 0.316927 -0.215569 -0.030610 -0.144098 -0.323647 0.162861 -0.066935 0.159179 -0.136206 0.020127 -0.056776 -0.150490 0.080723 0.141145 0.211992 0.115330 0.359590 -0.155969 -0.386791 0.199804 0.068130 0.065099 0.284249 0.296250 -0.038170 0.300497 -0.203999 -0.107552 
amendments -0.030062 -0.195732 0.178308 -0.099708 -0.010608 -0.163834 0.139065 -0.039336 -0.110326 -0.039143 0.531885 0.047922 -0.400835 -0.166562 0.121564 0.344066 -0.031557 -0.137842 -0.041862 0.047535 -0.188517 0.265110 0.345359 -0.230733 -0.037788 -0.174664 -0.357614 0.164979 -0.076607 0.169864 -0.146766 0.024916 -0.063446 -0.144416 0.111601 0.167596 0.252437 0.121349 0.377417 -0.181870 -0.399713 0.232289 0.071547 0.041902 0.297295 0.305151 -0.044734 0.339819 -0.209953 -0.136030 
years -0.037928 -0.189469 0.144017 -0.130735 0.007686 -0.138399 0.117950 -0.031435 -0.086225 -0.011090 0.518345 0.045607 -0.381855 -0.177380 0.148109 0.331359 -0.054897 -0.135910 -0.049326 0.036335 -0.177077 0.285142 0.327337 -0.226461 -0.004469 -0.140979 -0.314740 0.197616 -0.080811 0.145272 -0.141021 0.028742 -0.051016 -0.154832 0.079479 0.110498 0.217723 0.110426 0.369917 -0.162404 -0.399036 0.220187 0.107962 0.083616 0.282995 0.301535 -0.012836 0.318882 -0.209830 -0.120652 
system -0.040484 -0.203850 0.168463 -0.114263 0.004005 -0.168477 0.151996 -0.033360 -0.107724 -0.018983 0.577245 0.040163 -0.426146 -0.188260 0.151632 0.364976 -0.048817 -0.155426 -0.045162 0.053179 -0.212234 0.293100 0.384380 -0.261594 -0.029400 -0.183160 -0.384242 0.195475 -0.090259 0.184265 -0.168146 0.024867 -0.067830 -0.177071 0.109044 0.165729 0.267767 0.121705 0.413528 -0.194423 -0.442724 0.246765 0.083223 0.075362 0.328898 0.353627 -0.033611 0.367035 -0.229715 -0.140567 
directive -0.032026 -0.156430 0.145309 -0.081888 -0.003340 -0.140726 0.117077 -0.024127 -0.092362 -0.027697 0.466754 0.043410 -0.348998 -0.148314 0.109765 0.292936 -0.034884 -0.132995 -0.043337 0.040029 -0.167882 0.234907 0.318950 -0.206224 -0.046619 -0.153642 -0.308614 0.150823 -0.066391 0.150087 -0.143075 0.014834 -0.062115 -0.142596 0.098314 0.161014 0.217759 0.111508 0.342090 -0.161020 -0.354359 0.207124 0.050876 0.051835 0.275890 0.279407 -0.046275 0.303829 -0.199081 -0.111782 
programmes -0.037119 -0.202698 0.159690 -0.121297 0.007288 -0.164711 0.121786 -0.023093 -0.098445 -0.022912 0.558116 0.033472 -0.417508 -0.183480 0.156223 0.358980 -0.070556 -0.153546 -0.063178 0.034252 -0.200508 0.304446 0.361075 -0.255046 -0.021366 -0.158451 -0.354953 0.196478 -0.093442 0.171313 -0.141515 0.032293 -0.052809 -0.173261 0.082340 0.126218 0.236197 0.121031 0.393573 -0.167538 -0.433877 0.229876 0.102098 0.084452 0.315503 0.331503 -0.019004 0.335726 -0.225367 -0.133379 
against -0.031292 -0.170154 0.122611 -0.119361 -0.007686 -0.119462 0.114292 -0.030706 -0.078030 -0.007259 0.472091 0.033610 -0.337117 -0.154846 0.156428 0.303083 -0.062557 -0.130119 -0.056461 0.026595 -0.165108 0.266673 0.282858 -0.225291 -0.007740 -0.127322 -0.278326 0.173822 -0.069371 0.143347 -0.124744 0.019997 -0.054950 -0.150021 0.064488 0.087853 0.189358 0.096104 0.329354 -0.148582 -0.348407 0.179823 0.097814 0.078516 0.264453 0.284996 -0.011795 0.276027 -0.171041 -0.105265 
last -0.027055 -0.181973 0.156779 -0.085848 -0.004495 -0.147697 0.122565 -0.032774 -0.104986 -0.026160 0.493289 0.038991 -0.365096 -0.154064 0.113564 0.313764 -0.034900 -0.138400 -0.042148 0.042301 -0.180310 0.257352 0.322658 -0.212755 -0.033012 -0.164002 -0.320954 0.157521 -0.065229 0.162725 -0.139152 0.013509 -0.068991 -0.141116 0.098182 0.156499 0.234045 0.124605 0.355590 -0.170700 -0.372745 0.213222 0.066030 0.044728 0.293068 0.290711 -0.051353 0.316457 -0.200714 -0.115471 
well -0.025574 -0.169377 0.139444 -0.105099 -0.009777 -0.145528 0.104672 -0.016822 -0.084624 -0.011865 0.484945 0.027323 -0.360105 -0.151724 0.142955 0.315461 -0.059898 -0.123589 -0.049019 0.036184 -0.167121 0.252136 0.308817 -0.218613 -0.014004 -0.143628 -0.312053 0.170125 -0.077934 0.149669 -0.122979 0.018177 -0.062300 -0.147153 0.083105 0.124614 0.215522 0.114818 0.348863 -0.164749 -0.360853 0.194319 0.075801 0.067417 0.277010 0.285554 -0.016856 0.303213 -0.189689 -0.118541 
process -0.033200 -0.195423 0.175942 -0.088783 -0.017179 -0.171528 0.146267 -0.024858 -0.110532 -0.028483 0.532094 0.041260 -0.386186 -0.171991 0.129174 0.334694 -0.043283 -0.152012 -0.044088 0.044975 -0.181991 0.271060 0.340924 -0.228094 -0.057094 -0.170361 -0.354555 0.175334 -0.074435 0.166955 -0.144412 0.013201 -0.063884 -0.154732 0.112806 0.174116 0.239708 0.114494 0.381040 -0.187430 -0.403155 0.234447 0.072421 0.047575 0.309070 0.323297 -0.043399 0.353076 -0.223003 -0.122477 
his -0.036605 -0.159357 0.146879 -0.101221 -0.009935 -0.150476 0.118273 -0.017634 -0.097707 -0.018763 0.463015 0.042325 -0.350145 -0.163071 0.133496 0.303496 -0.043991 -0.123278 -0.040923 0.046095 -0.168476 0.249233 0.310204 -0.205498 -0.038809 -0.150447 -0.301535 0.157955 -0.073327 0.153608 -0.123709 0.024088 -0.062894 -0.146203 0.092331 0.132815 0.215225 0.116149 0.342852 -0.157695 -0.367630 0.207635 0.059734 0.052123 0.279351 0.286307 -0.027721 0.299250 -0.186158 -0.104622 
able -0.030220 -0.193835 0.157597 -0.102744 -0.011746 -0.150287 0.126758 -0.037478 -0.100988 -0.024237 0.528479 0.050470 -0.390202 -0.178591 0.134115 0.322257 -0.045320 -0.141192 -0.042097 0.041945 -0.187744 0.274542 0.326945 -0.228956 -0.025501 -0.151517 -0.330213 0.175431 -0.081040 0.158039 -0.150866 0.026960 -0.062788 -0.154532 0.082491 0.147947 0.240909 0.110419 0.365400 -0.167276 -0.393288 0.225982 0.086671 0.070880 0.302468 0.317089 -0.024387 0.333805 -0.212612 -0.128423 
ensure -0.043947 -0.197321 0.178692 -0.108629 -0.014252 -0.171127 0.149330 -0.043108 -0.125896 -0.032328 0.576782 0.054336 -0.427090 -0.188639 0.147639 0.367192 -0.043520 -0.152990 -0.051388 0.041546 -0.202752 0.291524 0.380050 -0.247877 -0.047514 -0.182261 -0.385021 0.197401 -0.097104 0.186208 -0.169906 0.013595 -0.063981 -0.175596 0.101723 0.175442 0.260696 0.128469 0.418367 -0.189999 -0.435189 0.256654 0.071572 0.057761 0.327463 0.334192 -0.055180 0.373992 -0.242756 -0.145195 
still -0.037866 -0.197049 0.161938 -0.110190 0.003696 -0.171717 0.130068 -0.040346 -0.119109 -0.038132 0.537916 0.056500 -0.400412 -0.181839 0.138505 0.341176 -0.044906 -0.154060 -0.052133 0.044084 -0.192313 0.292377 0.362843 -0.231302 -0.043415 -0.177683 -0.351928 0.179405 -0.081694 0.181618 -0.151380 0.022114 -0.073266 -0.150505 0.106688 0.164047 0.259634 0.127900 0.407008 -0.188036 -0.417432 0.241196 0.071472 0.054311 0.321295 0.333629 -0.036873 0.360141 -0.223717 -0.133004 
level -0.035098 -0.187443 0.158166 -0.106242 -0.001747 -0.162429 0.122906 -0.031915 -0.108143 -0.027385 0.519611 0.046731 -0.390240 -0.164849 0.130660 0.338260 -0.042990 -0.144636 -0.045914 0.037253 -0.176068 0.271862 0.344577 -0.221033 -0.037316 -0.166805 -0.340365 0.179880 -0.077315 0.165560 -0.141791 0.027470 -0.057541 -0.157657 0.098355 0.148568 0.241153 0.130300 0.377931 -0.185560 -0.406579 0.227052 0.082388 0.059235 0.309098 0.317074 -0.033865 0.344124 -0.215556 -0.114209 
clear -0.029118 -0.183518 0.157267 -0.100015 -0.007509 -0.142517 0.127813 -0.034536 -0.093644 -0.034593 0.488503 0.048249 -0.358741 -0.159696 0.122343 0.320077 -0.043506 -0.141842 -0.043746 0.036720 -0.176478 0.266510 0.310909 -0.216611 -0.022001 -0.140371 -0.314530 0.170080 -0.080358 0.150886 -0.145524 0.019686 -0.061365 -0.150755 0.096362 0.138868 0.223191 0.109243 0.349741 -0.157134 -0.377384 0.212625 0.067431 0.049573 0.277531 0.299366 -0.038526 0.307874 -0.188425 -0.117288 
given -0.018110 -0.149874 0.115680 -0.113164 0.011841 -0.103329 0.093055 -0.017206 -0.065971 -0.012802 0.412210 0.017775 -0.296766 -0.140005 0.135550 0.267729 -0.050051 -0.107070 -0.054260 0.024960 -0.142473 0.229141 0.267099 -0.197718 0.009796 -0.112050 -0.251561 0.153733 -0.060568 0.115256 -0.101162 0.012957 -0.035277 -0.134295 0.068117 0.082133 0.180664 0.084868 0.301955 -0.123134 -0.318663 0.170048 0.090540 0.060929 0.239504 0.258858 -0.013305 0.242351 -0.167764 -0.095676 
regional -0.031306 -0.169916 0.136962 -0.090939 0.002666 -0.145463 0.126760 -0.037838 -0.104237 -0.015898 0.469311 0.038411 -0.349905 -0.165053 0.133747 0.301400 -0.040735 -0.128704 -0.033590 0.041021 -0.168380 0.255206 0.307909 -0.194798 -0.033740 -0.145982 -0.301012 0.166453 -0.070011 0.153806 -0.137068 0.019646 -0.059013 -0.130588 0.088526 0.148527 0.214319 0.117416 0.352880 -0.156591 -0.367169 0.215143 0.075912 0.048231 0.275215 0.279823 -0.044322 0.314916 -0.189882 -0.110268 
common -0.027522 -0.184725 0.171452 -0.099899 -0.009067 -0.174840 0.144346 -0.036477 -0.122042 -0.029810 0.527857 0.040077 -0.389544 -0.169110 0.138979 0.342943 -0.044926 -0.137137 -0.047300 0.049014 -0.178750 0.263911 0.341157 -0.225917 -0.044325 -0.162471 -0.353223 0.181044 -0.079651 0.170565 -0.155343 0.010702 -0.072544 -0.151451 0.100861 0.167589 0.244832 0.132725 0.376770 -0.186725 -0.414471 0.226102 0.058692 0.061341 0.315132 0.314296 -0.042032 0.352558 -0.209498 -0.125258 
right -0.043460 -0.181084 0.146652 -0.113378 -0.000998 -0.164748 0.119639 -0.032590 -0.100411 -0.016936 0.534214 0.045704 -0.386384 -0.168260 0.141950 0.328533 -0.043704 -0.139964 -0.048979 0.047286 -0.178531 0.279550 0.335759 -0.230801 -0.035520 -0.147870 -0.338064 0.173727 -0.083746 0.156619 -0.145927 0.015444 -0.065762 -0.162577 0.086031 0.144124 0.234311 0.109177 0.387157 -0.169108 -0.404376 0.214882 0.081582 0.069465 0.295036 0.320371 -0.034092 0.332345 -0.201412 -0.127858 
citizens -0.025391 -0.179255 0.158088 -0.102370 -0.001847 -0.145557 0.124150 -0.032718 -0.092257 -0.023871 0.484462 0.049745 -0.363901 -0.159077 0.136921 0.319086 -0.041927 -0.131238 -0.053645 0.036421 -0.166904 0.257063 0.322393 -0.207248 -0.027326 -0.147864 -0.311591 0.157857 -0.067382 0.162747 -0.137742 0.011239 -0.065824 -0.141811 0.093220 0.138253 0.230878 0.114802 0.360153 -0.154496 -0.377730 0.216869 0.063212 0.062974 0.272268 0.294201 -0.042929 0.320378 -0.190884 -0.120748 
situation -0.033512 -0.170608 0.134248 -0.120801 0.008367 -0.135989 0.109440 -0.029031 -0.078771 -0.004063 0.499131 0.043308 -0.366891 -0.178382 0.157060 0.319124 -0.075944 -0.137896 -0.060891 0.036136 -0.172845 0.284938 0.320885 -0.223303 -0.006397 -0.134533 -0.312030 0.193784 -0.087952 0.137753 -0.141501 0.031072 -0.045724 -0.152640 0.075466 0.097414 0.205405 0.109445 0.347060 -0.148213 -0.387342 0.209466 0.109473 0.086730 0.269773 0.305273 -0.008417 0.296029 -0.182831 -0.121108 
particularly -0.018408 -0.175640 0.132245 -0.118853 0.003227 -0.119949 0.099701 -0.014602 -0.087300 -0.011590 0.473390 0.039680 -0.344683 -0.168692 0.155333 0.289226 -0.062657 -0.122683 -0.057045 0.025342 -0.159584 0.250118 0.289687 -0.221418 -0.012663 -0.120301 -0.289530 0.177106 -0.079464 0.133245 -0.125024 0.032830 -0.049701 -0.148166 0.075553 0.106026 0.192986 0.101801 0.336160 -0.137136 -0.366296 0.183028 0.098245 0.078172 0.271894 0.278948 -0.012442 0.279919 -0.181259 -0.112170 
principle -0.018456 -0.155663 0.131659 -0.104626 0.006880 -0.124986 0.113691 -0.031925 -0.093357 -0.016106 0.461511 0.045754 -0.336437 -0.158846 0.138608 0.295934 -0.054684 -0.116736 -0.053359 0.028716 -0.159923 0.236321 0.285692 -0.199222 -0.028174 -0.140562 -0.289125 0.156441 -0.061807 0.139935 -0.123115 0.016481 -0.056488 -0.128921 0.072544 0.112886 0.194080 0.109378 0.326461 -0.147705 -0.350971 0.182553 0.074320 0.056049 0.249225 0.276771 -0.025959 0.290724 -0.187770 -0.114183 
action -0.027524 -0.177551 0.168274 -0.086723 -0.009828 -0.150198 0.122423 -0.027013 -0.115898 -0.039564 0.503676 0.049563 -0.364397 -0.164636 0.130739 0.317705 -0.041348 -0.125978 -0.032554 0.035962 -0.184473 0.258914 0.327322 -0.204168 -0.035023 -0.162412 -0.338353 0.161237 -0.078988 0.167447 -0.139148 0.020907 -0.055445 -0.138438 0.106416 0.167884 0.234441 0.125127 0.373201 -0.173241 -0.378847 0.226261 0.057226 0.043193 0.281023 0.288319 -0.053396 0.320339 -0.211807 -0.120362 
members -0.032618 -0.167826 0.139301 -0.107547 0.007153 -0.127134 0.113191 -0.022635 -0.074749 -0.012937 0.470508 0.033058 -0.346760 -0.160753 0.150320 0.304849 -0.055926 -0.121946 -0.045067 0.042895 -0.173330 0.262713 0.302623 -0.223688 -0.017502 -0.140574 -0.300391 0.177780 -0.082340 0.132290 -0.137558 0.030039 -0.058410 -0.148279 0.079600 0.109253 0.211734 0.097347 0.341758 -0.152291 -0.370005 0.189555 0.099585 0.076916 0.266019 0.291054 -0.014692 0.284358 -0.180839 -0.109753 
