4302 50
</s> 0.000000 0.000000 0.000000 0.000000 0.000000 0.000000 0.000000 0.000000 0.000000 0.000000 0.000000 0.000000 0.000000 0.000000 0.000000 0.000000 0.000000 0.000000 0.000000 0.000000 0.000000 0.000000 0.000000 0.000000 0.000000 0.000000 0.000000 0.000000 0.000000 0.000000 0.000000 0.000000 0.000000 0.000000 0.000000 0.000000 0.000000 0.000000 0.000000 0.000000 0.000000 0.000000 0.000000 0.000000 0.000000 0.000000 0.000000 0.000000 0.000000 0.000000 
, 0.173521 0.373024 -0.635307 -0.091350 0.127703 0.605121 -0.448760 0.128734 0.487729 0.274741 -1.051488 -0.216557 0.868892 0.222315 0.085190 -0.782059 -0.267564 0.262159 -0.073358 -0.162580 0.426282 -0.361211 -0.911357 0.249179 0.506397 0.694130 1.038165 -0.054022 0.120598 -0.574009 0.410290 0.041071 0.247444 0.125832 -0.437636 -1.000604 -0.778855 -0.356037 -0.892871 0.577236 0.909923 -0.715392 0.317210 0.199852 -0.767434 -0.623741 0.446191 -1.109520 0.565748 0.355455 
die 0.150010 0.247550 -0.485192 -0.094269 0.083834 0.440583 -0.344185 0.097933 0.378373 0.218210 -0.775622 -0.180300 0.663225 0.169290 0.095342 -0.585077 -0.218842 0.193628 -0.061915 -0.126879 0.336925 -0.259427 -0.700962 0.165126 0.406181 0.565329 0.800244 -0.024036 0.068087 -0.455112 0.314363 0.026368 0.189147 0.090508 -0.322762 -0.781795 -0.581096 -0.282518 -0.685353 0.447489 0.683171 -0.534290 0.256100 0.155318 -0.577838 -0.460234 0.343167 -0.858402 0.424046 0.276643 
. 0.156943 0.361074 -0.567306 -0.038005 0.085308 0.512452 -0.402834 0.112689 0.422668 0.219638 -1.020412 -0.201237 0.834487 0.236124 0.009286 -0.738772 -0.188108 0.252965 -0.053478 -0.145847 0.409057 -0.382925 -0.849288 0.276321 0.399146 0.609516 0.942938 -0.105418 0.128265 -0.509637 0.384475 0.020304 0.225573 0.167652 -0.363613 -0.841924 -0.702889 -0.325450 -0.845911 0.537455 0.862871 -0.627929 0.216594 0.123526 -0.723375 -0.615076 0.358935 -1.001029 0.522486 0.319512 
der 0.138399 0.275041 -0.480579 -0.067320 0.103006 0.458899 -0.358046 0.095674 0.369912 0.203703 -0.795039 -0.154922 0.652675 0.178125 0.062300 -0.589487 -0.191966 0.200062 -0.049847 -0.136063 0.319410 -0.285589 -0.686163 0.181079 0.375712 0.530974 0.791555 -0.063939 0.094035 -0.438286 0.327239 0.032111 0.197280 0.092844 -0.331972 -0.757741 -0.589861 -0.260055 -0.674970 0.441468 0.689344 -0.522903 0.223095 0.145896 -0.582083 -0.475193 0.342478 -0.858596 0.434435 0.263316 
und 0.134173 0.344924 -0.505880 -0.015419 0.080930 0.482747 -0.369081 0.091985 0.386511 0.193989 -0.956770 -0.167407 0.775105 0.242601 -0.016912 -0.685038 -0.153566 0.247362 -0.019724 -0.118511 0.375756 -0.386138 -0.776567 0.281760 0.348464 0.547976 0.855529 -0.135623 0.116652 -0.475468 0.346979 0.018063 0.187439 0.159116 -0.328915 -0.736173 -0.628625 -0.299214 -0.782343 0.478583 0.810696 -0.574170 0.158318 0.102678 -0.648498 -0.564286 0.319933 -0.901422 0.488057 0.289148 
in 0.128372 0.371192 -0.491823 0.035407 0.075631 0.474814 -0.358309 0.099650 0.372232 0.178053 -1.039168 -0.166393 0.832094 0.283155 -0.073900 -0.723465 -0.113777 0.267637 -0.009742 -0.122528 0.404740 -0.446158 -0.819349 0.344395 0.313641 0.535653 0.886099 -0.196229 0.137775 -0.476416 0.361622 -0.001624 0.192209 0.201055 -0.320591 -0.694295 -0.639630 -0.305200 -0.835810 0.481484 0.853303 -0.585862 0.107325 0.057780 -0.697425 -0.625497 0.282656 -0.921655 0.496007 0.293622 
zu 0.111125 0.320005 -0.426078 0.025722 0.062754 0.414125 -0.312698 0.084285 0.329034 0.154852 -0.873368 -0.144429 0.699878 0.238779 -0.042854 -0.621285 -0.094110 0.229681 -0.006896 -0.114164 0.343007 -0.370691 -0.684836 0.282116 0.280542 0.450841 0.754529 -0.149316 0.112371 -0.400754 0.312751 0.001779 0.172790 0.171893 -0.276413 -0.601246 -0.549794 -0.265636 -0.703387 0.418269 0.737020 -0.507361 0.093119 0.060693 -0.589718 -0.519367 0.254142 -0.793876 0.424355 0.254635 
den 0.117532 0.338606 -0.445429 0.039954 0.058919 0.418449 -0.325212 0.089142 0.326041 0.148868 -0.940152 -0.141607 0.744966 0.252935 -0.073547 -0.649688 -0.080962 0.244534 0.007527 -0.111796 0.362577 -0.411857 -0.722363 0.309043 0.267317 0.478825 0.784824 -0.181168 0.122385 -0.424159 0.315851 -0.002044 0.182238 0.194640 -0.293602 -0.596817 -0.572970 -0.279174 -0.749964 0.428096 0.777458 -0.528344 0.077544 0.040870 -0.613077 -0.576149 0.248900 -0.817151 0.447350 0.273118 
wir 0.129451 0.403762 -0.501887 0.060930 0.061440 0.481598 -0.381865 0.098593 0.377394 0.159248 -1.124400 -0.161744 0.887213 0.307648 -0.108046 -0.765991 -0.080414 0.291236 0.012468 -0.130298 0.429068 -0.492629 -0.857893 0.383162 0.288415 0.543032 0.917674 -0.234243 0.144590 -0.485109 0.380435 -0.008138 0.204458 0.241020 -0.322476 -0.681463 -0.657030 -0.311741 -0.878818 0.502033 0.915016 -0.615205 0.070977 0.031595 -0.731095 -0.668131 0.274069 -0.948944 0.526526 0.314766 
daß 0.102979 0.297483 -0.399155 0.021160 0.059197 0.372965 -0.289883 0.085919 0.303780 0.134761 -0.831388 -0.135133 0.667784 0.225974 -0.061149 -0.579246 -0.088971 0.214271 -0.002671 -0.099838 0.322484 -0.355453 -0.647830 0.272711 0.257319 0.429684 0.705560 -0.150037 0.110290 -0.379796 0.289145 -0.001399 0.155037 0.161090 -0.255010 -0.557156 -0.517021 -0.249499 -0.655119 0.379347 0.687483 -0.474139 0.075703 0.040833 -0.558739 -0.500134 0.230285 -0.734834 0.402679 0.242750 
das 0.118406 0.353211 -0.459304 0.049612 0.066889 0.439629 -0.343684 0.092629 0.343076 0.148138 -1.012482 -0.156328 0.794879 0.279152 -0.094110 -0.692868 -0.083291 0.261609 0.006085 -0.124119 0.392319 -0.443039 -0.769993 0.335544 0.277401 0.491702 0.829683 -0.205923 0.134938 -0.443601 0.327341 0.003391 0.180891 0.208220 -0.294592 -0.629372 -0.597212 -0.282632 -0.792800 0.454932 0.818218 -0.559080 0.075805 0.031207 -0.660136 -0.602455 0.249230 -0.861283 0.486364 0.290175 
ich 0.111184 0.324677 -0.425577 0.025285 0.060024 0.403648 -0.319862 0.077958 0.313208 0.149622 -0.894796 -0.141441 0.701791 0.243436 -0.053028 -0.610820 -0.092458 0.234967 -0.003621 -0.109509 0.337630 -0.384347 -0.689324 0.286413 0.272658 0.462089 0.746087 -0.154628 0.113905 -0.408504 0.314847 0.002764 0.165994 0.166047 -0.275600 -0.587718 -0.541855 -0.255277 -0.712855 0.410004 0.730801 -0.502172 0.096774 0.040333 -0.592637 -0.536283 0.250168 -0.785142 0.429000 0.252893 
für 0.095910 0.303828 -0.384667 0.042168 0.057333 0.374763 -0.295355 0.076136 0.288559 0.136679 -0.851165 -0.125412 0.678689 0.234300 -0.071475 -0.595870 -0.079259 0.228711 0.007450 -0.104328 0.325027 -0.373747 -0.650633 0.286586 0.235278 0.428340 0.707259 -0.168224 0.107970 -0.379157 0.291266 0.003906 0.155811 0.183143 -0.262682 -0.533244 -0.510554 -0.246750 -0.677277 0.394076 0.705343 -0.480675 0.059551 0.029602 -0.564005 -0.519477 0.207221 -0.735582 0.404131 0.238657 
von 0.094490 0.269209 -0.365357 0.018621 0.059446 0.346560 -0.264135 0.070678 0.280046 0.124660 -0.777071 -0.115327 0.614929 0.210869 -0.065774 -0.536755 -0.071866 0.193184 -0.000995 -0.099408 0.304988 -0.335837 -0.593940 0.250126 0.224373 0.398332 0.657777 -0.147267 0.117384 -0.343692 0.268315 0.004976 0.149422 0.149129 -0.232534 -0.507975 -0.470936 -0.220706 -0.615474 0.352123 0.637025 -0.437030 0.066398 0.029909 -0.519229 -0.461701 0.207894 -0.676477 0.372823 0.227607 
ist 0.110645 0.333316 -0.430923 0.043330 0.052032 0.413519 -0.323873 0.087805 0.315602 0.148249 -0.933481 -0.143345 0.736166 0.250763 -0.074433 -0.647492 -0.080674 0.238022 0.002251 -0.115040 0.356899 -0.402433 -0.709945 0.307253 0.259422 0.463108 0.770164 -0.183134 0.125679 -0.414092 0.318843 -0.006154 0.182217 0.197498 -0.281223 -0.586300 -0.562212 -0.262454 -0.738961 0.429639 0.764870 -0.516808 0.068143 0.036434 -0.619172 -0.557898 0.238126 -0.800517 0.439105 0.262255 
nicht 0.107603 0.350875 -0.435942 0.063449 0.052745 0.421029 -0.327713 0.087104 0.320709 0.147744 -0.979246 -0.138639 0.761797 0.269824 -0.103287 -0.673309 -0.071190 0.254435 0.018134 -0.110104 0.367294 -0.435848 -0.738316 0.333672 0.248901 0.467077 0.798229 -0.200134 0.126426 -0.423423 0.328398 -0.008253 0.172068 0.211217 -0.280452 -0.587354 -0.569807 -0.284659 -0.766846 0.434998 0.804052 -0.534049 0.052185 0.022252 -0.633938 -0.587674 0.238519 -0.827226 0.464200 0.269981 
es 0.120879 0.370452 -0.463605 0.059337 0.054711 0.450126 -0.342430 0.087585 0.341930 0.154496 -1.011098 -0.148065 0.797523 0.276990 -0.097324 -0.700950 -0.079531 0.265332 0.002562 -0.118449 0.395082 -0.449644 -0.775727 0.347388 0.276419 0.493292 0.836512 -0.202709 0.133313 -0.442812 0.341654 -0.006089 0.183603 0.213066 -0.292154 -0.625200 -0.599564 -0.291265 -0.803133 0.460709 0.829691 -0.564873 0.070673 0.039315 -0.660977 -0.610632 0.255448 -0.866038 0.479565 0.290409 
<unk> 0.106476 0.326996 -0.428978 0.051757 0.054970 0.407001 -0.327943 0.086260 0.313891 0.134303 -0.929973 -0.142316 0.742233 0.254016 -0.079422 -0.645415 -0.081545 0.238819 0.001797 -0.104865 0.355100 -0.406050 -0.712339 0.311268 0.257763 0.462270 0.765707 -0.190288 0.129971 -0.413408 0.315930 0.001155 0.175237 0.192263 -0.279092 -0.588619 -0.560498 -0.264468 -0.738376 0.420586 0.758110 -0.516769 0.073071 0.032278 -0.616326 -0.559045 0.234941 -0.797629 0.431813 0.265995 
auf 0.105314 0.351773 -0.428279 0.072098 0.042988 0.414230 -0.323244 0.088069 0.318388 0.138149 -0.988683 -0.138745 0.767210 0.279290 -0.113656 -0.672965 -0.056203 0.259513 0.014338 -0.112170 0.369662 -0.447302 -0.734508 0.346168 0.244412 0.463574 0.781648 -0.210297 0.129162 -0.414648 0.327164 -0.008540 0.167666 0.221597 -0.273978 -0.566847 -0.570693 -0.274055 -0.767363 0.424745 0.794719 -0.526623 0.047885 0.012590 -0.632972 -0.585800 0.228097 -0.813567 0.451301 0.271881 
eine 0.100585 0.339582 -0.426483 0.069839 0.048362 0.410351 -0.313088 0.086393 0.311793 0.132527 -0.948945 -0.130992 0.738477 0.266398 -0.103974 -0.653286 -0.066082 0.250293 0.011361 -0.104809 0.361382 -0.422171 -0.713699 0.329995 0.243134 0.448085 0.773560 -0.202133 0.130256 -0.403901 0.317195 -0.013347 0.167682 0.214521 -0.266841 -0.549783 -0.557697 -0.267078 -0.742293 0.416771 0.768949 -0.508046 0.045029 0.014631 -0.620359 -0.571438 0.219949 -0.791521 0.444295 0.262103 
des 0.096592 0.301924 -0.395805 0.044399 0.060545 0.380805 -0.292278 0.082025 0.291258 0.134434 -0.856501 -0.126010 0.677590 0.240887 -0.079097 -0.605418 -0.069194 0.226976 0.011518 -0.095656 0.327412 -0.387114 -0.660111 0.288213 0.240716 0.430044 0.709772 -0.172138 0.122066 -0.373435 0.289488 -0.003640 0.160630 0.178797 -0.249503 -0.541326 -0.521644 -0.247816 -0.686525 0.390621 0.711790 -0.474808 0.062721 0.033479 -0.574869 -0.522300 0.210667 -0.739963 0.416427 0.246359 
im 0.103845 0.290832 -0.397050 0.034665 0.058866 0.373074 -0.289072 0.081486 0.286267 0.132282 -0.831191 -0.128412 0.662077 0.222408 -0.065203 -0.578623 -0.078531 0.220901 0.001426 -0.108609 0.320410 -0.362113 -0.639057 0.274973 0.237203 0.420769 0.701498 -0.157484 0.108612 -0.373212 0.287014 -0.004587 0.157950 0.165925 -0.254302 -0.539290 -0.505620 -0.245912 -0.670480 0.380549 0.690497 -0.473797 0.073321 0.039355 -0.552837 -0.501084 0.212664 -0.726815 0.398960 0.235707 
werden 0.112951 0.329093 -0.416588 0.054100 0.053921 0.398439 -0.313588 0.081420 0.304803 0.137417 -0.932781 -0.133081 0.735619 0.254469 -0.093262 -0.645504 -0.065711 0.247626 0.015838 -0.112139 0.356054 -0.421655 -0.714393 0.315751 0.243063 0.451312 0.756900 -0.199973 0.125837 -0.401826 0.314998 -0.004708 0.161051 0.200082 -0.270471 -0.562423 -0.545300 -0.263310 -0.738281 0.413958 0.767239 -0.505952 0.052382 0.022531 -0.608060 -0.557054 0.220026 -0.788818 0.442027 0.265796 
sie 0.111068 0.359783 -0.455593 0.053673 0.056498 0.436790 -0.344561 0.093190 0.343487 0.150221 -1.010116 -0.152917 0.791958 0.272206 -0.098648 -0.700661 -0.089615 0.263098 0.011061 -0.120256 0.385363 -0.446462 -0.770885 0.345646 0.273713 0.488163 0.828763 -0.207322 0.127996 -0.434615 0.339156 -0.008940 0.185304 0.204596 -0.294442 -0.619067 -0.595946 -0.284594 -0.793396 0.453055 0.831559 -0.555039 0.072700 0.031829 -0.662008 -0.604122 0.247412 -0.855039 0.475500 0.286885 
auch 0.083536 0.280711 -0.350243 0.056988 0.044985 0.330058 -0.254689 0.065826 0.261588 0.111929 -0.791945 -0.115906 0.626332 0.227559 -0.098024 -0.544921 -0.048564 0.208050 0.018247 -0.091778 0.306983 -0.351746 -0.594046 0.271971 0.197235 0.371278 0.629569 -0.172878 0.103384 -0.333408 0.267966 -0.006377 0.135385 0.173578 -0.217880 -0.460697 -0.462334 -0.222138 -0.624253 0.341865 0.645050 -0.430736 0.032544 0.011228 -0.510708 -0.476142 0.182774 -0.655558 0.370301 0.221292 
mit 0.092871 0.280651 -0.346145 0.050790 0.041226 0.333606 -0.262019 0.070410 0.258463 0.113653 -0.792904 -0.117304 0.622953 0.221119 -0.086431 -0.544549 -0.047406 0.202554 0.008826 -0.091839 0.299223 -0.359984 -0.598627 0.262951 0.209258 0.377910 0.642414 -0.161307 0.100864 -0.339305 0.267474 -0.005861 0.142690 0.164957 -0.228343 -0.465920 -0.460447 -0.225108 -0.622588 0.350532 0.642785 -0.422674 0.045458 0.021309 -0.511808 -0.471529 0.181653 -0.655801 0.369161 0.225118 
kommission 0.105752 0.351727 -0.445269 0.060072 0.051901 0.428514 -0.337726 0.087042 0.328128 0.140916 -0.990013 -0.146365 0.775876 0.275643 -0.110936 -0.678267 -0.069474 0.260036 0.010589 -0.114720 0.373325 -0.439028 -0.759309 0.338388 0.260585 0.475180 0.806140 -0.208950 0.133107 -0.423585 0.329549 -0.005757 0.175131 0.210322 -0.291806 -0.592142 -0.580232 -0.273269 -0.781508 0.434180 0.815603 -0.535738 0.057528 0.024627 -0.643833 -0.594554 0.232143 -0.831541 0.461419 0.272903 
dem 0.096831 0.302167 -0.383755 0.053500 0.054079 0.361033 -0.285478 0.071650 0.283436 0.127795 -0.846563 -0.119446 0.669042 0.231248 -0.082259 -0.580572 -0.062666 0.220823 0.012969 -0.102681 0.320436 -0.373717 -0.638315 0.290073 0.220682 0.412759 0.684795 -0.173686 0.105948 -0.361863 0.281584 -0.010776 0.149521 0.180743 -0.242593 -0.509665 -0.492717 -0.233707 -0.668106 0.379400 0.691912 -0.461191 0.050326 0.022758 -0.549300 -0.508825 0.197482 -0.710330 0.402224 0.235231 
- 0.093720 0.311575 -0.386507 0.067083 0.044978 0.363673 -0.279878 0.068493 0.279261 0.122514 -0.868766 -0.123187 0.679212 0.250540 -0.102466 -0.590580 -0.049256 0.230258 0.018942 -0.094830 0.325326 -0.387839 -0.649026 0.301056 0.214134 0.404097 0.695224 -0.197497 0.117222 -0.362722 0.289546 -0.006989 0.151824 0.190889 -0.249500 -0.501113 -0.498295 -0.243245 -0.683460 0.378759 0.706000 -0.464434 0.035345 0.009327 -0.562410 -0.521856 0.193520 -0.719279 0.402610 0.239598 
sich 0.088961 0.299039 -0.369796 0.062529 0.049819 0.351752 -0.273234 0.079056 0.267169 0.121324 -0.849730 -0.116140 0.655342 0.241427 -0.092268 -0.579575 -0.049516 0.223808 0.015532 -0.099325 0.321688 -0.377224 -0.630822 0.292602 0.206417 0.390578 0.671184 -0.183851 0.112297 -0.353058 0.276131 -0.007071 0.146686 0.189566 -0.239239 -0.483964 -0.483871 -0.229488 -0.663259 0.359772 0.682645 -0.450393 0.031613 0.000092 -0.540529 -0.505866 0.195064 -0.691668 0.385469 0.231784 
ein 0.111449 0.349175 -0.431527 0.065882 0.053098 0.408151 -0.315625 0.083834 0.307469 0.131609 -0.966091 -0.136093 0.750949 0.273169 -0.106113 -0.655139 -0.065744 0.255616 0.017196 -0.111752 0.368237 -0.436764 -0.727323 0.332192 0.239389 0.455821 0.772898 -0.210967 0.131626 -0.402852 0.324702 -0.014572 0.168425 0.209814 -0.270510 -0.556195 -0.559412 -0.264790 -0.757953 0.425719 0.788541 -0.520238 0.046979 0.020102 -0.623266 -0.577787 0.218722 -0.802353 0.453039 0.264677 
wird 0.100374 0.345944 -0.417138 0.089857 0.041940 0.391471 -0.316791 0.080561 0.296263 0.128290 -0.984086 -0.132801 0.764263 0.281181 -0.129551 -0.667499 -0.043456 0.257049 0.031284 -0.106686 0.372145 -0.450033 -0.718375 0.354135 0.226265 0.434505 0.764915 -0.231219 0.134838 -0.397820 0.314932 -0.013289 0.160213 0.226841 -0.258051 -0.528436 -0.548107 -0.270219 -0.754093 0.414383 0.793718 -0.506700 0.016206 -0.000040 -0.622173 -0.587512 0.206326 -0.787522 0.442244 0.270529 
sind 0.101470 0.300378 -0.381313 0.051192 0.050388 0.364137 -0.281099 0.077830 0.282106 0.127778 -0.831018 -0.124184 0.663608 0.238631 -0.091452 -0.578403 -0.065244 0.221872 0.009459 -0.104760 0.319204 -0.374156 -0.639375 0.290240 0.214754 0.400046 0.683270 -0.166973 0.115720 -0.350395 0.288392 -0.004997 0.145623 0.178188 -0.247039 -0.508943 -0.497759 -0.233403 -0.653803 0.373323 0.684163 -0.459635 0.045115 0.024319 -0.546681 -0.500890 0.203112 -0.710209 0.395290 0.237175 
wie 0.096791 0.311354 -0.389427 0.060830 0.047732 0.369925 -0.293162 0.076436 0.279478 0.119464 -0.882179 -0.121602 0.691934 0.245560 -0.097537 -0.601700 -0.054522 0.231250 0.020356 -0.097904 0.333582 -0.397091 -0.665267 0.304976 0.222724 0.410021 0.707988 -0.190480 0.122473 -0.371284 0.293477 -0.011457 0.153310 0.190674 -0.247937 -0.510239 -0.505167 -0.242752 -0.691425 0.383840 0.715806 -0.470485 0.040639 0.011944 -0.568415 -0.525166 0.203263 -0.731360 0.410852 0.248869 
haben 0.095826 0.312075 -0.393217 0.057187 0.049013 0.378538 -0.294030 0.078710 0.286945 0.124569 -0.888399 -0.130884 0.693151 0.245493 -0.096041 -0.605633 -0.059404 0.237393 0.016110 -0.097816 0.335200 -0.395279 -0.663635 0.302605 0.225305 0.413866 0.708714 -0.187302 0.120717 -0.378646 0.289461 -0.010439 0.152506 0.191976 -0.257558 -0.524339 -0.511362 -0.249681 -0.691879 0.387989 0.721605 -0.478466 0.045093 0.019547 -0.573725 -0.534729 0.206751 -0.737494 0.411512 0.248934 
hat 0.108534 0.347036 -0.422227 0.080760 0.047790 0.405730 -0.321791 0.078017 0.309706 0.130109 -0.985806 -0.130137 0.770062 0.286815 -0.124031 -0.672674 -0.053153 0.262551 0.028681 -0.113340 0.373962 -0.448304 -0.733965 0.350123 0.234633 0.451321 0.788529 -0.221005 0.135794 -0.406663 0.319268 -0.010303 0.164313 0.220817 -0.269810 -0.556557 -0.562103 -0.273751 -0.766296 0.420431 0.800259 -0.522261 0.033549 0.002543 -0.629580 -0.597513 0.214136 -0.806518 0.460536 0.271808 
diese 0.101705 0.355433 -0.414311 0.094210 0.044717 0.395107 -0.310400 0.076992 0.298107 0.125423 -0.991417 -0.134339 0.764483 0.285945 -0.141837 -0.667007 -0.033526 0.262906 0.026092 -0.107919 0.373466 -0.457247 -0.733130 0.358992 0.218159 0.438341 0.775692 -0.241466 0.137483 -0.398457 0.323730 -0.017308 0.164385 0.232515 -0.258467 -0.526152 -0.550473 -0.267119 -0.766171 0.416717 0.801984 -0.512828 0.006902 -0.012705 -0.622862 -0.600287 0.197713 -0.786234 0.445653 0.268502 
um 0.091503 0.279562 -0.353635 0.053781 0.045732 0.339237 -0.261229 0.064885 0.257107 0.106873 -0.788568 -0.110006 0.618344 0.216767 -0.086239 -0.544599 -0.052119 0.208394 0.012832 -0.088725 0.295902 -0.350867 -0.588321 0.272665 0.200990 0.367148 0.635551 -0.166567 0.106569 -0.339275 0.263854 -0.007580 0.135572 0.169838 -0.225339 -0.467583 -0.462452 -0.220994 -0.621949 0.347936 0.639306 -0.429118 0.039062 0.008102 -0.516217 -0.473861 0.188730 -0.661588 0.372371 0.223034 
europäischen 0.090294 0.302268 -0.364367 0.067973 0.043598 0.347794 -0.279737 0.072397 0.256279 0.111954 -0.839286 -0.116383 0.656960 0.234910 -0.104200 -0.577778 -0.048844 0.219094 0.021089 -0.091780 0.313603 -0.379486 -0.626732 0.299935 0.205862 0.392734 0.669794 -0.187306 0.120732 -0.351551 0.279216 -0.004186 0.147815 0.188755 -0.231649 -0.478562 -0.480417 -0.234278 -0.660614 0.367636 0.680274 -0.446416 0.035764 0.014114 -0.542117 -0.507433 0.184374 -0.693093 0.386626 0.235106 
als 0.098554 0.326350 -0.396265 0.078781 0.048056 0.376056 -0.286631 0.071860 0.277420 0.120484 -0.922198 -0.125309 0.721956 0.269620 -0.117598 -0.628593 -0.040077 0.238233 0.030526 -0.103421 0.343026 -0.423551 -0.685431 0.331427 0.204330 0.414199 0.718785 -0.218793 0.126051 -0.374943 0.300912 -0.014349 0.151048 0.214846 -0.251032 -0.501593 -0.522860 -0.243722 -0.714659 0.394016 0.749306 -0.486145 0.016225 -0.003002 -0.588213 -0.556304 0.193517 -0.742824 0.429836 0.252901 
zur 0.088362 0.303995 -0.366019 0.076988 0.041388 0.354672 -0.278053 0.073446 0.267740 0.109860 -0.876686 -0.119736 0.671627 0.246709 -0.113269 -0.587406 -0.041617 0.229256 0.024156 -0.098155 0.324593 -0.400275 -0.647171 0.312110 0.202465 0.391926 0.687680 -0.204868 0.117600 -0.349337 0.281602 -0.006939 0.141765 0.198145 -0.235403 -0.479236 -0.490300 -0.236673 -0.676030 0.368062 0.702377 -0.455601 0.017370 -0.005059 -0.555827 -0.523318 0.186668 -0.705125 0.396391 0.239325 
an 0.088008 0.307699 -0.362045 0.079141 0.044774 0.343784 -0.277766 0.073879 0.265920 0.105683 -0.862589 -0.117102 0.665800 0.247742 -0.119124 -0.586505 -0.036563 0.224206 0.027516 -0.090532 0.323045 -0.397488 -0.636371 0.309475 0.195819 0.385958 0.679034 -0.198131 0.118696 -0.352985 0.280638 -0.007969 0.146108 0.192624 -0.231193 -0.466601 -0.484505 -0.238067 -0.670584 0.369407 0.696356 -0.449523 0.020790 0.000442 -0.550458 -0.518852 0.175875 -0.696301 0.396341 0.241678 
einer 0.112927 0.379215 -0.447925 0.095036 0.051397 0.429974 -0.338538 0.088674 0.330636 0.136511 -1.066325 -0.141175 0.827747 0.305802 -0.143151 -0.726765 -0.046440 0.280927 0.029148 -0.118921 0.402240 -0.481446 -0.789090 0.379640 0.240583 0.475085 0.835055 -0.253794 0.147765 -0.431949 0.343219 -0.010397 0.173664 0.243821 -0.286390 -0.578307 -0.598994 -0.289918 -0.827662 0.448879 0.863012 -0.557122 0.017153 -0.002212 -0.675151 -0.642680 0.221057 -0.854920 0.486416 0.290199 
herr 0.117807 0.391976 -0.468097 0.095577 0.053774 0.451861 -0.351534 0.088123 0.341092 0.147078 -1.104748 -0.148387 0.856867 0.318561 -0.145507 -0.747543 -0.045516 0.293241 0.030483 -0.121716 0.417638 -0.504029 -0.812965 0.386317 0.254505 0.499932 0.868480 -0.256962 0.152209 -0.451870 0.363037 -0.012870 0.179018 0.252030 -0.294251 -0.609485 -0.625561 -0.301852 -0.857333 0.475752 0.890844 -0.585431 0.030542 -0.002974 -0.701726 -0.658838 0.239591 -0.890149 0.502924 0.299621 
über 0.101786 0.315865 -0.385559 0.060839 0.045949 0.368829 -0.286825 0.068737 0.286133 0.126392 -0.871965 -0.128542 0.676842 0.246613 -0.101992 -0.602224 -0.051923 0.228652 0.017426 -0.104436 0.331151 -0.392807 -0.650938 0.308814 0.222538 0.409900 0.703060 -0.188810 0.120833 -0.369421 0.291574 -0.005058 0.150177 0.193118 -0.242039 -0.515461 -0.511567 -0.244120 -0.686514 0.382376 0.715585 -0.468928 0.038830 0.011069 -0.568242 -0.524280 0.200081 -0.728832 0.411104 0.239985 
uns 0.098301 0.330289 -0.393641 0.089733 0.042403 0.377529 -0.299262 0.075783 0.283188 0.122620 -0.934267 -0.127441 0.724730 0.268083 -0.128327 -0.633590 -0.033985 0.250254 0.027409 -0.106624 0.350717 -0.435722 -0.692209 0.343773 0.202467 0.414253 0.728374 -0.225041 0.128794 -0.381223 0.306151 -0.014772 0.154416 0.223081 -0.249316 -0.499843 -0.523608 -0.250874 -0.724872 0.395270 0.757788 -0.486732 0.010038 -0.005191 -0.590305 -0.562786 0.185328 -0.744467 0.430241 0.258544 
bei 0.110043 0.382404 -0.434820 0.107807 0.048787 0.428107 -0.334120 0.083895 0.316571 0.129869 -1.077926 -0.137529 0.829648 0.312009 -0.155417 -0.721147 -0.025795 0.281143 0.036494 -0.115708 0.398965 -0.499119 -0.783695 0.390444 0.223455 0.461539 0.819963 -0.262687 0.148483 -0.424261 0.341790 -0.011212 0.171306 0.251758 -0.274615 -0.555923 -0.592897 -0.289430 -0.829316 0.446135 0.865209 -0.550662 0.002976 -0.017944 -0.676316 -0.640271 0.212307 -0.845925 0.484050 0.287734 
union 0.097666 0.344353 -0.398827 0.093483 0.042368 0.382825 -0.300253 0.075933 0.285154 0.114937 -0.965525 -0.123000 0.745154 0.283993 -0.139136 -0.651764 -0.027916 0.252018 0.031346 -0.101009 0.363513 -0.448642 -0.700475 0.352723 0.200801 0.424237 0.742274 -0.236140 0.136022 -0.386015 0.307266 -0.010173 0.153458 0.228990 -0.249321 -0.507562 -0.531289 -0.256347 -0.742810 0.409339 0.778547 -0.491873 -0.000413 -0.014006 -0.604094 -0.577161 0.186706 -0.754950 0.433085 0.257777 
wenn 0.090291 0.296828 -0.346840 0.070778 0.044979 0.334664 -0.266790 0.066946 0.254572 0.111607 -0.827728 -0.111798 0.640589 0.240610 -0.109873 -0.560085 -0.035205 0.220941 0.024090 -0.093993 0.306534 -0.374310 -0.612126 0.293694 0.191684 0.376690 0.651038 -0.195803 0.112052 -0.341491 0.269816 -0.009221 0.137955 0.188740 -0.229498 -0.451341 -0.467473 -0.225383 -0.639669 0.352448 0.672000 -0.436647 0.016497 0.000522 -0.528820 -0.495837 0.174835 -0.668120 0.377962 0.229166 
aber 0.086406 0.275303 -0.341619 0.060988 0.046403 0.327738 -0.251430 0.063731 0.251072 0.110436 -0.783040 -0.105723 0.609451 0.219820 -0.095833 -0.537139 -0.042780 0.199404 0.011680 -0.087589 0.295882 -0.354807 -0.581067 0.268761 0.186631 0.360188 0.626799 -0.172591 0.104294 -0.331578 0.256799 -0.001553 0.137545 0.172691 -0.216089 -0.448299 -0.449087 -0.212782 -0.605148 0.339155 0.633083 -0.421177 0.028370 0.006457 -0.500416 -0.470168 0.177735 -0.641559 0.357246 0.211962 
00 0.095541 0.346455 -0.405993 0.097190 0.044205 0.392398 -0.306242 0.080477 0.292982 0.121421 -0.987102 -0.124928 0.759996 0.284247 -0.140196 -0.664989 -0.031135 0.260203 0.026471 -0.110236 0.369280 -0.456739 -0.717363 0.357090 0.200756 0.426777 0.757479 -0.239429 0.140276 -0.388215 0.314297 -0.010478 0.154797 0.231628 -0.259970 -0.517181 -0.540603 -0.266258 -0.759811 0.406627 0.792079 -0.505850 0.006322 -0.006789 -0.625901 -0.586747 0.194245 -0.781846 0.440752 0.262792 
möchte 0.100038 0.359160 -0.420237 0.094802 0.047373 0.404121 -0.318313 0.081624 0.303003 0.127817 -1.015469 -0.133704 0.783452 0.291537 -0.142118 -0.686191 -0.037231 0.264681 0.034910 -0.110322 0.381139 -0.472085 -0.735032 0.365269 0.216580 0.447251 0.786661 -0.243831 0.142258 -0.401107 0.329318 -0.018763 0.164502 0.235565 -0.263693 -0.538556 -0.562773 -0.268329 -0.784661 0.424621 0.816667 -0.523834 0.010269 -0.007524 -0.640648 -0.609919 0.203140 -0.810711 0.459039 0.279732 
müssen 0.087428 0.280265 -0.340896 0.062281 0.042953 0.328043 -0.253072 0.062695 0.247441 0.110112 -0.784544 -0.112711 0.612953 0.225188 -0.095884 -0.533210 -0.043617 0.208572 0.015056 -0.087264 0.296325 -0.353799 -0.584720 0.278134 0.184562 0.358578 0.614873 -0.173893 0.109899 -0.327823 0.255240 -0.011279 0.133152 0.177428 -0.214031 -0.446347 -0.444867 -0.217472 -0.609454 0.338623 0.639069 -0.415491 0.028841 0.003760 -0.506384 -0.470290 0.173498 -0.642608 0.358472 0.215891 
dieser 0.098817 0.333757 -0.390034 0.087628 0.047001 0.380768 -0.298615 0.076726 0.281846 0.115200 -0.939810 -0.121577 0.726128 0.270224 -0.138420 -0.637956 -0.033368 0.250500 0.030185 -0.105329 0.348976 -0.432923 -0.693510 0.344221 0.202523 0.417518 0.727765 -0.224614 0.128401 -0.379416 0.307577 -0.019943 0.155329 0.219901 -0.249536 -0.501679 -0.527870 -0.254056 -0.731809 0.396444 0.760399 -0.489311 0.015615 -0.003119 -0.595866 -0.565159 0.186088 -0.751575 0.427149 0.257803 
nach 0.084275 0.263862 -0.330759 0.047311 0.041602 0.312916 -0.245689 0.062588 0.240981 0.107986 -0.734390 -0.108183 0.578473 0.209043 -0.082170 -0.505804 -0.046913 0.199009 0.015648 -0.081620 0.279955 -0.330446 -0.555399 0.254226 0.187188 0.350443 0.595664 -0.159485 0.095697 -0.314242 0.247785 -0.008801 0.130706 0.160880 -0.207916 -0.433092 -0.428190 -0.210830 -0.583731 0.327784 0.603440 -0.402141 0.036604 0.015718 -0.480971 -0.445392 0.171488 -0.615846 0.343627 0.206783 
parlament 0.104429 0.343939 -0.405294 0.082964 0.052052 0.392196 -0.311350 0.076829 0.295186 0.125300 -0.962034 -0.132500 0.750894 0.274869 -0.129649 -0.656328 -0.042658 0.247961 0.026346 -0.107084 0.361670 -0.443561 -0.713505 0.344112 0.221006 0.433620 0.759434 -0.219556 0.127999 -0.393160 0.311150 -0.013829 0.161633 0.221767 -0.259940 -0.527607 -0.547663 -0.265098 -0.746326 0.413904 0.775453 -0.507244 0.015657 0.001553 -0.612666 -0.581455 0.202587 -0.778693 0.434714 0.262722 
vor 0.089765 0.296521 -0.347054 0.078818 0.041811 0.334223 -0.264041 0.069670 0.249961 0.107597 -0.829522 -0.110280 0.642440 0.238653 -0.101744 -0.562239 -0.037314 0.220184 0.023654 -0.097170 0.304735 -0.376296 -0.608604 0.294404 0.185761 0.370289 0.647823 -0.193117 0.105203 -0.333407 0.267179 -0.011661 0.137575 0.185230 -0.218589 -0.454090 -0.460862 -0.219303 -0.635217 0.351668 0.665181 -0.430186 0.016408 0.000218 -0.520059 -0.494474 0.173190 -0.663718 0.375315 0.224533 
nur 0.088928 0.282715 -0.343035 0.061231 0.046899 0.332293 -0.253789 0.064579 0.248129 0.104674 -0.791109 -0.111751 0.614846 0.224806 -0.096073 -0.543417 -0.043874 0.210689 0.015256 -0.084020 0.300236 -0.357788 -0.583683 0.275716 0.195519 0.363171 0.627007 -0.173101 0.102790 -0.326948 0.265446 -0.009831 0.134577 0.174046 -0.213659 -0.451286 -0.448505 -0.222541 -0.613623 0.342227 0.640702 -0.422244 0.026769 0.012344 -0.507886 -0.470770 0.175457 -0.646795 0.367581 0.222253 
einen 0.085089 0.291200 -0.349465 0.069092 0.038448 0.337892 -0.260018 0.071980 0.257149 0.106438 -0.813374 -0.112765 0.635697 0.233151 -0.099558 -0.558004 -0.038919 0.218451 0.019011 -0.093622 0.306370 -0.377389 -0.598662 0.288661 0.189508 0.370704 0.644072 -0.186659 0.117280 -0.340780 0.264941 -0.006689 0.130143 0.185796 -0.219663 -0.455870 -0.461619 -0.222330 -0.629994 0.348275 0.657689 -0.424861 0.022259 0.004831 -0.523115 -0.488997 0.176470 -0.662204 0.370033 0.221488 
so 0.100729 0.337326 -0.396276 0.083827 0.044384 0.383207 -0.302285 0.080670 0.290543 0.119087 -0.946224 -0.123809 0.728485 0.272445 -0.118915 -0.639939 -0.036986 0.249024 0.025947 -0.104928 0.360427 -0.430936 -0.693859 0.335466 0.213977 0.421840 0.739811 -0.222138 0.131105 -0.378761 0.303272 -0.010470 0.157665 0.216132 -0.256861 -0.514159 -0.532790 -0.259585 -0.730132 0.397072 0.763495 -0.493857 0.019371 -0.004628 -0.602801 -0.568922 0.192943 -0.760172 0.426928 0.259124 
muß 0.093337 0.313163 -0.376763 0.078501 0.037403 0.365664 -0.285957 0.074532 0.269160 0.111342 -0.892393 -0.120169 0.687767 0.256270 -0.124302 -0.606689 -0.041088 0.231795 0.023211 -0.098795 0.335379 -0.406799 -0.655776 0.320853 0.202785 0.395215 0.698178 -0.208241 0.120450 -0.365349 0.290584 -0.010528 0.145985 0.202896 -0.236420 -0.488158 -0.495192 -0.241419 -0.689426 0.376759 0.722211 -0.465999 0.017003 -0.002263 -0.570847 -0.533055 0.185860 -0.713998 0.407022 0.240553 
können 0.099915 0.343372 -0.412279 0.087474 0.042363 0.395440 -0.306946 0.078912 0.299604 0.127696 -0.971346 -0.130768 0.751302 0.279494 -0.127315 -0.660312 -0.037596 0.254386 0.022937 -0.109236 0.359582 -0.439714 -0.714990 0.344268 0.220096 0.435952 0.755121 -0.226821 0.129586 -0.397077 0.314355 -0.013991 0.160913 0.223233 -0.257843 -0.525375 -0.543989 -0.260280 -0.752723 0.414609 0.781558 -0.505568 0.025046 -0.000582 -0.613422 -0.573258 0.203808 -0.779145 0.442027 0.267695 
diesem 0.094349 0.309442 -0.369382 0.080251 0.044308 0.352312 -0.276675 0.073622 0.267380 0.113316 -0.878051 -0.117110 0.674643 0.248774 -0.114405 -0.596115 -0.039470 0.229821 0.026486 -0.100138 0.326400 -0.405019 -0.646562 0.309643 0.202820 0.392882 0.687282 -0.197984 0.123942 -0.355589 0.283876 -0.013954 0.148186 0.199597 -0.237612 -0.479784 -0.494351 -0.237127 -0.675385 0.371053 0.701819 -0.460257 0.022155 0.001262 -0.558219 -0.520021 0.183114 -0.706816 0.400974 0.241922 
zum 0.094058 0.331479 -0.390087 0.094377 0.045285 0.376505 -0.302310 0.080632 0.284353 0.114653 -0.937340 -0.120881 0.725149 0.272866 -0.132064 -0.636410 -0.034949 0.251988 0.026060 -0.101477 0.349262 -0.434973 -0.689997 0.333581 0.206082 0.412947 0.730164 -0.226382 0.126481 -0.376177 0.302239 -0.015320 0.153785 0.219824 -0.249800 -0.502067 -0.518914 -0.251332 -0.726309 0.393802 0.756405 -0.490608 0.009128 -0.002839 -0.592263 -0.562530 0.192632 -0.748022 0.426834 0.252604 
kann 0.091428 0.316805 -0.374050 0.083990 0.040509 0.365624 -0.276313 0.070065 0.269572 0.113679 -0.890515 -0.119961 0.692702 0.257001 -0.123047 -0.602608 -0.032783 0.234015 0.025481 -0.102191 0.334356 -0.411549 -0.660127 0.323721 0.195662 0.397569 0.693625 -0.212036 0.126069 -0.359468 0.288101 -0.013106 0.145334 0.209109 -0.238340 -0.473173 -0.493558 -0.244617 -0.685932 0.376816 0.719152 -0.465585 0.009624 -0.004065 -0.569968 -0.537651 0.179984 -0.709093 0.406479 0.239529 
noch 0.098985 0.330495 -0.400595 0.080101 0.052184 0.385307 -0.304048 0.076368 0.287882 0.119686 -0.932489 -0.126692 0.729365 0.262861 -0.117396 -0.633900 -0.043071 0.247105 0.028523 -0.106338 0.348172 -0.425002 -0.694719 0.331769 0.214271 0.422846 0.731619 -0.216164 0.131839 -0.389803 0.306659 -0.011477 0.160748 0.211657 -0.253581 -0.515752 -0.529018 -0.254832 -0.730846 0.402966 0.760429 -0.491739 0.026527 0.001420 -0.596618 -0.560910 0.196902 -0.754460 0.427792 0.254788 
aus 0.078102 0.270163 -0.311526 0.069508 0.037791 0.303059 -0.239608 0.057398 0.231148 0.100902 -0.750276 -0.097045 0.588422 0.214453 -0.098649 -0.512885 -0.034136 0.199381 0.020199 -0.084589 0.283193 -0.341291 -0.553700 0.267876 0.164679 0.333222 0.591045 -0.173202 0.106301 -0.307054 0.244185 -0.011606 0.125040 0.170531 -0.197973 -0.407504 -0.422046 -0.202545 -0.581082 0.314322 0.610381 -0.394307 0.014965 -0.000893 -0.476981 -0.446583 0.159698 -0.607559 0.335689 0.202239 
0000 0.073021 0.253979 -0.301344 0.059576 0.037440 0.290695 -0.230653 0.056343 0.222131 0.092490 -0.712173 -0.093113 0.553458 0.203369 -0.099219 -0.483116 -0.029962 0.189221 0.015601 -0.080047 0.264550 -0.327037 -0.525086 0.257757 0.160208 0.316660 0.555907 -0.163538 0.100322 -0.290581 0.227736 -0.009905 0.118729 0.161420 -0.192026 -0.384534 -0.400627 -0.191887 -0.556057 0.310172 0.572843 -0.377674 0.013877 0.003084 -0.460461 -0.430518 0.150446 -0.573927 0.327400 0.191033 
was 0.090874 0.304996 -0.358117 0.081673 0.042286 0.339949 -0.274941 0.072607 0.256679 0.113645 -0.866189 -0.117912 0.669573 0.248585 -0.123728 -0.585801 -0.031100 0.231520 0.034496 -0.090927 0.321948 -0.403591 -0.635069 0.316710 0.183162 0.375583 0.672493 -0.209204 0.121005 -0.345268 0.283281 -0.014379 0.137235 0.205820 -0.222944 -0.452047 -0.479087 -0.230305 -0.671330 0.357921 0.696062 -0.446928 0.003421 -0.006443 -0.549229 -0.514709 0.169399 -0.680882 0.399358 0.235931 
: 0.087090 0.303667 -0.356999 0.074837 0.040101 0.340252 -0.271120 0.070254 0.249216 0.107340 -0.848693 -0.112449 0.654095 0.245685 -0.115320 -0.572812 -0.028751 0.226983 0.022656 -0.088698 0.320983 -0.392481 -0.618642 0.308864 0.188789 0.372561 0.654006 -0.198709 0.116865 -0.337674 0.268938 -0.007949 0.137193 0.194090 -0.220839 -0.452827 -0.472974 -0.227315 -0.655788 0.354985 0.686703 -0.436935 0.009086 -0.004131 -0.534541 -0.505758 0.170996 -0.674070 0.382705 0.233767 
frau 0.101837 0.348360 -0.405765 0.094044 0.042477 0.386974 -0.312676 0.073775 0.294616 0.126205 -0.980415 -0.134250 0.754659 0.284549 -0.142686 -0.664613 -0.036424 0.253828 0.034341 -0.103701 0.364277 -0.453273 -0.712881 0.351207 0.213984 0.431983 0.753723 -0.234029 0.129964 -0.391934 0.313977 -0.014261 0.161687 0.226027 -0.252973 -0.519333 -0.542129 -0.265627 -0.755198 0.408509 0.784328 -0.506182 0.013004 -0.007904 -0.619837 -0.583005 0.200477 -0.773721 0.443605 0.264992 
oder 0.097650 0.324097 -0.376063 0.083096 0.041723 0.363749 -0.287089 0.076488 0.274455 0.115934 -0.901338 -0.119209 0.697653 0.258297 -0.124959 -0.616238 -0.032224 0.239465 0.031788 -0.095743 0.336691 -0.415290 -0.659133 0.327394 0.197945 0.399913 0.703685 -0.217220 0.123930 -0.362921 0.286100 -0.015284 0.147124 0.206789 -0.245183 -0.482534 -0.503544 -0.242405 -0.698613 0.377160 0.726484 -0.471803 0.011280 -0.009790 -0.573252 -0.541871 0.185198 -0.721132 0.411395 0.244836 
sehr 0.081068 0.275789 -0.314027 0.072286 0.031788 0.303347 -0.237086 0.060052 0.225455 0.097314 -0.763997 -0.098414 0.594782 0.218512 -0.110233 -0.513740 -0.019172 0.203791 0.024502 -0.081426 0.287708 -0.352093 -0.560838 0.278356 0.164468 0.328507 0.590873 -0.181598 0.103629 -0.305025 0.249145 -0.010963 0.120759 0.180511 -0.194334 -0.401015 -0.424001 -0.202717 -0.583389 0.323706 0.614419 -0.389737 0.003248 -0.004812 -0.480921 -0.452885 0.154131 -0.604428 0.346079 0.202093 
präsident 0.091129 0.327435 -0.378168 0.094703 0.046699 0.363262 -0.285196 0.070244 0.272652 0.108685 -0.914623 -0.116948 0.710801 0.266908 -0.134661 -0.615629 -0.025095 0.245038 0.035926 -0.094391 0.338618 -0.426780 -0.663869 0.333503 0.196138 0.395427 0.710254 -0.218485 0.131908 -0.368547 0.293128 -0.014462 0.148371 0.211733 -0.233250 -0.483832 -0.507735 -0.240502 -0.702684 0.382939 0.731230 -0.472403 0.007950 -0.013527 -0.575450 -0.548826 0.181015 -0.724279 0.406852 0.248418 
! 0.086957 0.315188 -0.360673 0.091354 0.034495 0.355102 -0.271727 0.071388 0.260709 0.105911 -0.887008 -0.112855 0.679696 0.258414 -0.131967 -0.597776 -0.028038 0.236713 0.031902 -0.094736 0.329417 -0.414572 -0.643284 0.326540 0.183634 0.382285 0.684099 -0.217307 0.120930 -0.348047 0.282213 -0.013740 0.144331 0.208535 -0.226433 -0.456438 -0.487207 -0.235534 -0.681702 0.368647 0.708302 -0.455782 0.003891 -0.011468 -0.557047 -0.530067 0.169307 -0.696287 0.397416 0.241182 
dies 0.083354 0.281917 -0.329720 0.074905 0.036545 0.315064 -0.250910 0.058110 0.240669 0.099301 -0.793039 -0.103615 0.613958 0.228356 -0.116114 -0.534138 -0.022860 0.207734 0.028773 -0.084254 0.302073 -0.365145 -0.575018 0.283787 0.175143 0.347680 0.617001 -0.187260 0.113337 -0.319434 0.254239 -0.011828 0.129266 0.179518 -0.207505 -0.420500 -0.441120 -0.211830 -0.613020 0.331544 0.638841 -0.410312 0.008137 -0.007307 -0.498644 -0.474546 0.161549 -0.628277 0.358119 0.212457 
sein 0.089165 0.304230 -0.356587 0.085366 0.037194 0.340025 -0.270822 0.069064 0.256331 0.103471 -0.862123 -0.109370 0.661395 0.246659 -0.120230 -0.576239 -0.026468 0.225487 0.029419 -0.093233 0.324022 -0.402323 -0.625638 0.308728 0.183387 0.376448 0.662863 -0.204452 0.120910 -0.346613 0.276823 -0.010166 0.140939 0.201470 -0.228526 -0.452676 -0.475755 -0.232867 -0.661198 0.356657 0.691613 -0.441397 0.006527 -0.005512 -0.541941 -0.516192 0.169250 -0.681124 0.391609 0.235882 
bericht 0.099096 0.350670 -0.396780 0.101240 0.047337 0.381827 -0.301434 0.079460 0.283096 0.117040 -0.974178 -0.125236 0.743438 0.283820 -0.148268 -0.651287 -0.025485 0.260283 0.037030 -0.101088 0.358905 -0.450539 -0.699456 0.356707 0.198064 0.417980 0.739959 -0.240634 0.139319 -0.384055 0.312603 -0.011826 0.154573 0.226652 -0.250089 -0.497291 -0.531195 -0.257204 -0.742825 0.401594 0.775561 -0.494605 0.002341 -0.010062 -0.609543 -0.579311 0.186268 -0.759148 0.434144 0.260424 
" 0.099312 0.334416 -0.386378 0.086384 0.043328 0.373230 -0.299485 0.073557 0.281739 0.114573 -0.940075 -0.129467 0.725650 0.274182 -0.134964 -0.637661 -0.034703 0.247270 0.030865 -0.106317 0.351984 -0.438786 -0.688842 0.345508 0.202466 0.412212 0.726199 -0.224119 0.127830 -0.378250 0.301561 -0.015262 0.153294 0.219365 -0.249111 -0.497911 -0.525122 -0.253179 -0.723808 0.395160 0.755593 -0.487305 0.009368 -0.008039 -0.590214 -0.558664 0.188291 -0.744076 0.424916 0.250289 
dieses 0.088449 0.287072 -0.340846 0.077030 0.037008 0.329151 -0.259566 0.062237 0.245341 0.104184 -0.814339 -0.106169 0.624076 0.232410 -0.109810 -0.549892 -0.032121 0.214176 0.025626 -0.095626 0.304651 -0.375750 -0.597859 0.291178 0.180117 0.356727 0.632225 -0.189722 0.108914 -0.330242 0.264483 -0.007585 0.131906 0.185693 -0.220560 -0.439414 -0.454809 -0.222743 -0.630831 0.343705 0.657112 -0.425051 0.011299 -0.005457 -0.514011 -0.482976 0.164138 -0.648919 0.371137 0.222457 
einem 0.092100 0.295414 -0.350045 0.073781 0.042781 0.339054 -0.269877 0.069153 0.258905 0.107941 -0.828681 -0.112591 0.646249 0.237848 -0.107520 -0.567509 -0.035287 0.219304 0.023923 -0.091358 0.313030 -0.378984 -0.614562 0.300293 0.186551 0.374429 0.657735 -0.191737 0.114340 -0.339908 0.270843 -0.007057 0.137782 0.184594 -0.228557 -0.455879 -0.468022 -0.226274 -0.644957 0.352630 0.667861 -0.435201 0.024260 0.003336 -0.529404 -0.493432 0.180233 -0.675638 0.380275 0.225545 
? 0.096896 0.328195 -0.388196 0.088522 0.045739 0.367634 -0.293496 0.073352 0.280713 0.116079 -0.926175 -0.119107 0.717266 0.263823 -0.129286 -0.628697 -0.031053 0.248979 0.028958 -0.100864 0.346215 -0.430933 -0.675338 0.338686 0.197625 0.408111 0.714436 -0.221835 0.129594 -0.371114 0.297473 -0.013418 0.148361 0.220659 -0.245085 -0.485002 -0.512170 -0.247057 -0.713897 0.386195 0.745889 -0.478579 0.007364 -0.008472 -0.584867 -0.554374 0.185889 -0.733657 0.418693 0.252012 
durch 0.077629 0.279623 -0.315106 0.078608 0.032519 0.307136 -0.238792 0.061151 0.231340 0.094904 -0.773245 -0.099421 0.596363 0.220523 -0.112298 -0.521922 -0.023639 0.207473 0.025525 -0.085891 0.290841 -0.357937 -0.561248 0.281167 0.160680 0.339858 0.597966 -0.186097 0.109199 -0.308950 0.246456 -0.012399 0.127774 0.182344 -0.197753 -0.400500 -0.427471 -0.208151 -0.596022 0.323481 0.622831 -0.399458 0.002865 -0.011070 -0.487048 -0.463575 0.151742 -0.611073 0.348706 0.208859 
man 0.083422 0.286024 -0.332028 0.079319 0.038435 0.320418 -0.254618 0.064846 0.240570 0.098501 -0.799384 -0.109045 0.620477 0.228079 -0.112917 -0.540068 -0.027205 0.214774 0.025669 -0.083986 0.295419 -0.372300 -0.583205 0.292085 0.168298 0.346912 0.616973 -0.196177 0.109914 -0.320664 0.257819 -0.011709 0.129788 0.184195 -0.209264 -0.421041 -0.441626 -0.217280 -0.616911 0.336440 0.641982 -0.410325 0.008348 -0.005837 -0.501751 -0.478902 0.161323 -0.634854 0.362935 0.214897 
hier 0.083650 0.287713 -0.340324 0.075258 0.039467 0.329487 -0.259273 0.065394 0.251024 0.104042 -0.807478 -0.109193 0.624029 0.228243 -0.103575 -0.549890 -0.035231 0.213594 0.023348 -0.092054 0.301104 -0.369039 -0.594626 0.287261 0.182610 0.365278 0.635607 -0.186921 0.108643 -0.334172 0.259929 -0.013926 0.136672 0.182262 -0.221407 -0.448677 -0.455395 -0.215936 -0.629440 0.343508 0.654417 -0.423717 0.022350 -0.000075 -0.515852 -0.490744 0.170474 -0.655203 0.370825 0.218990 
europäische 0.082331 0.305105 -0.355445 0.084142 0.035100 0.343090 -0.270449 0.068154 0.256517 0.103455 -0.862444 -0.110964 0.666699 0.250708 -0.126730 -0.585332 -0.025823 0.227109 0.027565 -0.094527 0.322631 -0.397730 -0.624871 0.314506 0.186704 0.373758 0.666983 -0.207354 0.120666 -0.345544 0.278889 -0.015715 0.138922 0.198438 -0.222140 -0.450827 -0.478208 -0.230043 -0.663591 0.360971 0.691095 -0.450383 0.002260 -0.011181 -0.543664 -0.514971 0.169699 -0.683217 0.390440 0.228566 
) 0.095518 0.333599 -0.380376 0.105231 0.043246 0.364356 -0.290204 0.076575 0.276371 0.107897 -0.949919 -0.122441 0.730409 0.274802 -0.152280 -0.639158 -0.018837 0.248899 0.033357 -0.099577 0.353375 -0.447155 -0.686932 0.352760 0.186640 0.396150 0.717666 -0.243876 0.137688 -0.373828 0.302195 -0.015452 0.152227 0.229476 -0.238498 -0.472364 -0.517140 -0.247705 -0.731001 0.389126 0.761945 -0.481993 -0.007230 -0.021856 -0.593480 -0.568231 0.174712 -0.735269 0.422334 0.253302 
( 0.083180 0.276608 -0.325694 0.076788 0.036850 0.313200 -0.245596 0.064631 0.231590 0.093865 -0.777869 -0.098593 0.606938 0.227688 -0.111075 -0.528461 -0.025205 0.200257 0.024261 -0.083547 0.285775 -0.362217 -0.569824 0.282836 0.163160 0.337516 0.606894 -0.190886 0.111133 -0.314579 0.248882 -0.010596 0.128554 0.184385 -0.202369 -0.412475 -0.432065 -0.206997 -0.605696 0.330932 0.629805 -0.403192 0.002921 -0.007665 -0.496082 -0.472783 0.154007 -0.623098 0.354667 0.211122 
europa 0.085933 0.292470 -0.344650 0.075607 0.038695 0.329930 -0.262707 0.066009 0.244106 0.105173 -0.819169 -0.112294 0.635708 0.238585 -0.114657 -0.553001 -0.035680 0.220132 0.027320 -0.091516 0.309672 -0.378218 -0.605273 0.302083 0.178526 0.366662 0.640411 -0.192013 0.114592 -0.338659 0.263914 -0.010543 0.136125 0.188974 -0.215751 -0.437750 -0.459932 -0.221652 -0.636056 0.344644 0.657567 -0.425597 0.009706 -0.003476 -0.519244 -0.486364 0.163486 -0.655286 0.374127 0.222352 
mitgliedstaaten 0.095343 0.319065 -0.380496 0.073924 0.043020 0.368584 -0.288763 0.074058 0.278117 0.121578 -0.892840 -0.125549 0.696259 0.255561 -0.116019 -0.607549 -0.046554 0.237718 0.020743 -0.102244 0.339460 -0.407402 -0.665655 0.320158 0.212135 0.408638 0.710779 -0.203174 0.126651 -0.370487 0.291441 -0.010494 0.150505 0.203496 -0.242777 -0.498386 -0.508087 -0.243758 -0.696879 0.383784 0.723796 -0.470129 0.022548 0.001380 -0.570275 -0.539257 0.193437 -0.728056 0.412460 0.244624 
frage 0.088196 0.311075 -0.356187 0.083885 0.037620 0.343711 -0.274193 0.067171 0.258968 0.108118 -0.876158 -0.114553 0.676932 0.257360 -0.125015 -0.591017 -0.029385 0.232624 0.027476 -0.094330 0.325412 -0.406822 -0.639269 0.317774 0.183228 0.380324 0.670171 -0.210720 0.122712 -0.345791 0.282761 -0.015154 0.138535 0.206093 -0.227514 -0.453715 -0.480817 -0.236881 -0.676845 0.362866 0.705582 -0.450942 0.002419 -0.012251 -0.548704 -0.523011 0.171180 -0.688842 0.395069 0.240446 
damit 0.088420 0.316044 -0.367542 0.080808 0.039660 0.357927 -0.280595 0.072025 0.269773 0.114454 -0.884304 -0.114508 0.685916 0.260104 -0.126040 -0.599966 -0.035327 0.238530 0.028735 -0.095702 0.336326 -0.409310 -0.650828 0.322163 0.189723 0.392800 0.685776 -0.205770 0.122507 -0.355754 0.287307 -0.014361 0.147767 0.199786 -0.232660 -0.470090 -0.494999 -0.240642 -0.685332 0.370083 0.712151 -0.460069 0.010862 -0.006357 -0.559193 -0.530326 0.176826 -0.704375 0.404887 0.241951 
ihre 0.086830 0.295333 -0.347278 0.070264 0.037655 0.329925 -0.259609 0.068409 0.251918 0.107454 -0.820731 -0.109530 0.636409 0.235790 -0.108632 -0.556425 -0.035488 0.215645 0.024373 -0.092314 0.307525 -0.374542 -0.601426 0.293233 0.185995 0.371670 0.641164 -0.188222 0.112612 -0.335884 0.266069 -0.007085 0.134034 0.189940 -0.224636 -0.450104 -0.461807 -0.223048 -0.633981 0.347967 0.660097 -0.431902 0.023101 -0.001763 -0.522919 -0.489318 0.169523 -0.661543 0.366947 0.223741 
mehr 0.060794 0.227282 -0.271137 0.055423 0.031495 0.260708 -0.206106 0.052953 0.197260 0.079348 -0.640279 -0.085342 0.494175 0.182097 -0.083555 -0.428148 -0.020848 0.170027 0.021027 -0.068972 0.240455 -0.293900 -0.468777 0.226548 0.139335 0.282913 0.497829 -0.150817 0.087014 -0.260871 0.204427 -0.006557 0.102804 0.146868 -0.173811 -0.344170 -0.358995 -0.176376 -0.493772 0.269250 0.514465 -0.334587 0.013108 0.001854 -0.404012 -0.383387 0.132676 -0.512203 0.291901 0.167865 
wurde 0.080486 0.282312 -0.326520 0.081020 0.031814 0.308818 -0.239114 0.061707 0.231019 0.097597 -0.796943 -0.104401 0.617858 0.235224 -0.121111 -0.536495 -0.020169 0.206016 0.028523 -0.085575 0.296908 -0.369364 -0.571435 0.291506 0.164482 0.340396 0.603600 -0.193334 0.113895 -0.312887 0.254666 -0.014037 0.124234 0.187480 -0.201852 -0.409817 -0.429151 -0.212659 -0.612735 0.324691 0.635169 -0.403090 0.001091 -0.008971 -0.497476 -0.475876 0.152691 -0.623643 0.355127 0.215068 
alle 0.077641 0.261855 -0.317702 0.056351 0.039849 0.306438 -0.239311 0.062530 0.235002 0.099240 -0.734387 -0.099480 0.576383 0.208983 -0.094336 -0.502498 -0.040905 0.192604 0.012662 -0.081422 0.278466 -0.334874 -0.550926 0.264030 0.178962 0.335377 0.581112 -0.163817 0.105540 -0.306902 0.243780 -0.007728 0.124665 0.162447 -0.202182 -0.415578 -0.418408 -0.201376 -0.571540 0.313922 0.598097 -0.392163 0.025936 0.007904 -0.475239 -0.440755 0.162732 -0.602096 0.341407 0.208622 
denn 0.088780 0.320986 -0.367098 0.096662 0.034575 0.355042 -0.276258 0.071203 0.264481 0.101142 -0.907190 -0.116905 0.699826 0.267551 -0.142432 -0.606683 -0.016375 0.241625 0.034118 -0.093946 0.337879 -0.420808 -0.654461 0.335480 0.175578 0.384223 0.689349 -0.222685 0.123552 -0.354266 0.288321 -0.015084 0.141094 0.215308 -0.232244 -0.457185 -0.489643 -0.243742 -0.696621 0.369679 0.727373 -0.459267 -0.008382 -0.015935 -0.568328 -0.545580 0.166441 -0.703042 0.405817 0.237046 
meine 0.082660 0.319228 -0.354394 0.093166 0.039812 0.349338 -0.273348 0.069933 0.260117 0.108410 -0.881387 -0.112997 0.684889 0.258454 -0.131807 -0.594764 -0.021910 0.232433 0.034632 -0.093777 0.326257 -0.412416 -0.640091 0.324333 0.184009 0.379833 0.677253 -0.218798 0.123218 -0.348941 0.281709 -0.015180 0.140363 0.209824 -0.224917 -0.451496 -0.485423 -0.233999 -0.675727 0.361752 0.705417 -0.450691 -0.002775 -0.014922 -0.552618 -0.527160 0.168840 -0.691113 0.395193 0.238220 
eines 0.072800 0.243102 -0.286251 0.063356 0.034284 0.272809 -0.218164 0.056619 0.203504 0.088162 -0.682136 -0.088872 0.531155 0.198772 -0.093468 -0.464546 -0.023421 0.184894 0.024023 -0.076927 0.252431 -0.316513 -0.498246 0.243557 0.148117 0.304248 0.529428 -0.164984 0.096899 -0.275369 0.216371 -0.007050 0.108906 0.157080 -0.180430 -0.366994 -0.380551 -0.186196 -0.532386 0.286180 0.550477 -0.355202 0.009583 -0.004676 -0.436485 -0.402117 0.133936 -0.547327 0.309120 0.186198 
heute 0.088797 0.310338 -0.359319 0.086714 0.038369 0.346836 -0.272089 0.069009 0.256325 0.107559 -0.879432 -0.116744 0.682541 0.259006 -0.129769 -0.595892 -0.025658 0.230163 0.030650 -0.098479 0.326091 -0.407197 -0.640885 0.324536 0.182373 0.382764 0.675991 -0.216723 0.122129 -0.349312 0.283590 -0.015465 0.141171 0.205723 -0.229185 -0.456056 -0.489160 -0.236509 -0.677765 0.366202 0.706732 -0.453244 -0.000967 -0.013641 -0.553124 -0.527399 0.173134 -0.695413 0.397290 0.239179 
ihnen 0.093412 0.319377 -0.370896 0.082663 0.041420 0.358343 -0.279627 0.072370 0.268033 0.113499 -0.891176 -0.118236 0.692210 0.258431 -0.124414 -0.599289 -0.035464 0.235200 0.029031 -0.097701 0.332780 -0.408495 -0.652803 0.321732 0.199238 0.391707 0.689439 -0.208877 0.122599 -0.361235 0.285971 -0.013940 0.146925 0.205047 -0.234943 -0.476462 -0.498220 -0.238606 -0.687799 0.375008 0.718250 -0.461763 0.014360 -0.004104 -0.565228 -0.531625 0.184776 -0.711602 0.404979 0.242604 
dann 0.076619 0.265384 -0.304843 0.080177 0.037235 0.289804 -0.232206 0.056696 0.214389 0.085019 -0.748059 -0.096567 0.574750 0.223986 -0.114364 -0.501019 -0.019032 0.196675 0.035623 -0.076158 0.281350 -0.350976 -0.538943 0.276177 0.150624 0.320003 0.567384 -0.184461 0.107052 -0.294501 0.237739 -0.012109 0.119402 0.174440 -0.185744 -0.375763 -0.406131 -0.199657 -0.574863 0.305547 0.597574 -0.380193 -0.006816 -0.015075 -0.468633 -0.447210 0.143071 -0.577387 0.333716 0.203987 
sondern 0.101958 0.355579 -0.398282 0.106140 0.041612 0.387010 -0.304117 0.079471 0.288104 0.115839 -0.996720 -0.124524 0.759906 0.287660 -0.150459 -0.664837 -0.018769 0.262913 0.039846 -0.101566 0.367705 -0.464838 -0.718756 0.366530 0.196328 0.419201 0.759491 -0.250180 0.136905 -0.387760 0.315545 -0.016500 0.154017 0.233300 -0.253300 -0.500035 -0.540602 -0.264109 -0.761910 0.411199 0.796825 -0.507901 -0.008352 -0.021155 -0.620250 -0.598542 0.186341 -0.775170 0.442048 0.266241 
0 0.072410 0.233521 -0.279051 0.058359 0.033547 0.267941 -0.215944 0.058409 0.197694 0.085146 -0.666179 -0.091501 0.517660 0.189312 -0.090754 -0.449907 -0.028479 0.175506 0.019417 -0.074339 0.252903 -0.310969 -0.490975 0.238616 0.139989 0.296665 0.515397 -0.155892 0.095291 -0.267602 0.215480 -0.008607 0.108029 0.153269 -0.179804 -0.359533 -0.370840 -0.181565 -0.516424 0.280496 0.536736 -0.346882 0.006347 -0.003541 -0.421466 -0.400598 0.136455 -0.528787 0.303073 0.185091 
mich 0.085937 0.300442 -0.341386 0.084666 0.035769 0.332375 -0.262846 0.067872 0.248231 0.104230 -0.844722 -0.105777 0.648149 0.247243 -0.124737 -0.566012 -0.022190 0.225221 0.030275 -0.091993 0.316748 -0.389384 -0.606196 0.308854 0.174185 0.365797 0.646514 -0.206617 0.116679 -0.330857 0.269021 -0.016041 0.131076 0.198200 -0.214837 -0.431219 -0.461618 -0.227638 -0.647745 0.349101 0.675508 -0.432861 0.000593 -0.014231 -0.529780 -0.504610 0.162553 -0.660121 0.378638 0.223068 
da 0.073682 0.247293 -0.295902 0.060131 0.032769 0.283300 -0.224021 0.055542 0.209688 0.089573 -0.699024 -0.094619 0.538210 0.202661 -0.094025 -0.476177 -0.029149 0.182764 0.017345 -0.077765 0.261880 -0.316744 -0.520114 0.247234 0.157588 0.313040 0.552723 -0.167085 0.097790 -0.284724 0.229695 -0.011146 0.115418 0.157164 -0.190484 -0.378127 -0.395115 -0.188872 -0.543896 0.294093 0.563041 -0.367931 0.011422 -0.000896 -0.445581 -0.419464 0.147787 -0.563718 0.318850 0.190647 
jedoch 0.087859 0.301946 -0.342903 0.090638 0.036045 0.331944 -0.257904 0.067532 0.248414 0.099349 -0.842432 -0.107341 0.648791 0.247316 -0.129363 -0.568632 -0.016532 0.221396 0.033228 -0.088900 0.311333 -0.396192 -0.613666 0.312329 0.169327 0.357051 0.643497 -0.209011 0.116060 -0.332741 0.266424 -0.016328 0.133549 0.203737 -0.215815 -0.428699 -0.459541 -0.220332 -0.645890 0.347894 0.674943 -0.432096 -0.003442 -0.013149 -0.531047 -0.504373 0.158593 -0.654902 0.377819 0.225529 
er 0.069471 0.243634 -0.284461 0.068333 0.032664 0.275847 -0.214888 0.056895 0.204201 0.085011 -0.687109 -0.090881 0.526955 0.201058 -0.098994 -0.463138 -0.023461 0.182723 0.020347 -0.072718 0.252886 -0.315702 -0.501435 0.251686 0.144710 0.303340 0.532111 -0.167241 0.097226 -0.270385 0.220409 -0.009086 0.111128 0.158300 -0.181254 -0.359176 -0.378306 -0.183288 -0.534479 0.289312 0.552052 -0.354522 0.008771 -0.004626 -0.435274 -0.409710 0.136158 -0.546881 0.306849 0.185168 
gibt 0.078126 0.284582 -0.316053 0.091445 0.028625 0.307529 -0.239366 0.061298 0.227031 0.088108 -0.799250 -0.094747 0.615477 0.236628 -0.130980 -0.534750 -0.003901 0.217917 0.034286 -0.084222 0.297847 -0.380849 -0.575198 0.298893 0.147399 0.332335 0.603107 -0.208907 0.112866 -0.307650 0.253552 -0.019269 0.121948 0.197326 -0.199613 -0.389314 -0.430100 -0.213160 -0.612596 0.322589 0.642557 -0.402228 -0.018555 -0.024276 -0.496920 -0.481700 0.142421 -0.612513 0.353208 0.209896 
herrn 0.080337 0.283393 -0.318694 0.082961 0.032171 0.307675 -0.246443 0.061024 0.230589 0.094424 -0.798969 -0.098729 0.612335 0.230863 -0.123643 -0.535812 -0.017121 0.212521 0.029273 -0.086508 0.294569 -0.375450 -0.575551 0.293795 0.161156 0.339544 0.603647 -0.200088 0.113523 -0.313902 0.253874 -0.014388 0.123727 0.188672 -0.202486 -0.403440 -0.430183 -0.210567 -0.610196 0.328702 0.639210 -0.403136 -0.005533 -0.015331 -0.496196 -0.475225 0.150960 -0.618096 0.355228 0.210952 
zwischen 0.077682 0.276581 -0.318064 0.080105 0.035963 0.305436 -0.244079 0.060570 0.232499 0.091399 -0.789147 -0.100858 0.604894 0.231075 -0.115163 -0.530756 -0.018949 0.205657 0.027661 -0.085908 0.294644 -0.366677 -0.570731 0.290262 0.160367 0.339839 0.599589 -0.194467 0.108837 -0.311342 0.249284 -0.014569 0.127256 0.189464 -0.207522 -0.402890 -0.433441 -0.213857 -0.609263 0.324683 0.629257 -0.402093 -0.004057 -0.012866 -0.496806 -0.471607 0.149867 -0.616061 0.355739 0.212218 
unsere 0.086131 0.305171 -0.348337 0.088458 0.037269 0.336000 -0.267696 0.071677 0.254220 0.105145 -0.852943 -0.109251 0.662004 0.247164 -0.127588 -0.577779 -0.027899 0.227578 0.029506 -0.097584 0.318749 -0.401618 -0.619750 0.315629 0.178819 0.368318 0.657374 -0.211692 0.117524 -0.343317 0.270246 -0.016641 0.136009 0.203451 -0.224248 -0.440691 -0.473465 -0.225441 -0.659344 0.352709 0.686032 -0.442017 0.000366 -0.016371 -0.537235 -0.513343 0.166153 -0.672203 0.388458 0.229722 
sowie 0.074463 0.254786 -0.297663 0.069287 0.033262 0.288280 -0.227049 0.057273 0.215956 0.091216 -0.711630 -0.093273 0.553164 0.206187 -0.094645 -0.480210 -0.025887 0.184975 0.020665 -0.081152 0.261872 -0.327693 -0.522122 0.253975 0.156641 0.312639 0.549347 -0.167825 0.102866 -0.293453 0.231492 -0.008528 0.119836 0.165388 -0.186394 -0.383504 -0.399099 -0.188798 -0.552678 0.303724 0.574789 -0.366983 0.009284 -0.006725 -0.447674 -0.426241 0.149648 -0.564517 0.323414 0.192253 
kollegen 0.073001 0.274274 -0.306654 0.086130 0.030882 0.293256 -0.232577 0.056465 0.215760 0.093006 -0.775562 -0.095947 0.600615 0.231751 -0.130469 -0.521439 -0.012227 0.206833 0.033132 -0.080884 0.285616 -0.365160 -0.557199 0.290429 0.148610 0.325310 0.585301 -0.197383 0.105412 -0.299869 0.245016 -0.012826 0.123772 0.186443 -0.195059 -0.380619 -0.423423 -0.205931 -0.589963 0.317526 0.616927 -0.392826 -0.013428 -0.018836 -0.480910 -0.465435 0.141763 -0.596717 0.344363 0.208797 
entwicklung 0.082773 0.308221 -0.346814 0.094265 0.038295 0.333695 -0.261326 0.066868 0.246291 0.102839 -0.861758 -0.108105 0.665144 0.252566 -0.132405 -0.579303 -0.018452 0.227834 0.037255 -0.091877 0.321220 -0.404535 -0.625336 0.321855 0.171676 0.363123 0.653991 -0.214640 0.122837 -0.338501 0.270829 -0.016408 0.135375 0.206759 -0.219397 -0.431592 -0.469543 -0.225654 -0.663398 0.351037 0.693434 -0.439637 -0.008843 -0.017721 -0.541007 -0.519518 0.160267 -0.670535 0.387850 0.228213 
am 0.079989 0.287765 -0.330633 0.076965 0.036678 0.315993 -0.248736 0.065568 0.238284 0.097452 -0.806027 -0.103353 0.622055 0.236338 -0.119164 -0.542162 -0.026541 0.209777 0.031441 -0.081766 0.298524 -0.377470 -0.584129 0.293693 0.169977 0.345262 0.616521 -0.196506 0.112760 -0.319375 0.257667 -0.010873 0.129638 0.191513 -0.207515 -0.410778 -0.440665 -0.220132 -0.620669 0.331540 0.643987 -0.414953 -0.001789 -0.013713 -0.505502 -0.482587 0.156243 -0.631006 0.361614 0.218000 
rat 0.078771 0.262824 -0.298839 0.079624 0.032424 0.288017 -0.226463 0.058455 0.212869 0.087652 -0.737280 -0.095069 0.570019 0.217159 -0.112485 -0.497695 -0.012872 0.196077 0.027592 -0.078657 0.271715 -0.344388 -0.535516 0.276215 0.149147 0.311115 0.560140 -0.188088 0.105889 -0.290011 0.237650 -0.012629 0.117025 0.170925 -0.187774 -0.368209 -0.405462 -0.196915 -0.565426 0.297908 0.593077 -0.371810 -0.005333 -0.017079 -0.463020 -0.437443 0.137632 -0.575627 0.324813 0.196731 
diesen 0.078008 0.257079 -0.294928 0.068543 0.035418 0.284138 -0.222235 0.059526 0.215786 0.088314 -0.722766 -0.091171 0.553730 0.209963 -0.100912 -0.486810 -0.025338 0.188355 0.022989 -0.073839 0.267338 -0.335979 -0.524520 0.260947 0.151832 0.314180 0.555416 -0.172760 0.103115 -0.288757 0.233102 -0.012360 0.115154 0.165374 -0.189164 -0.377199 -0.399996 -0.194545 -0.555706 0.299439 0.575920 -0.371765 0.003418 -0.010040 -0.458121 -0.431654 0.140729 -0.570068 0.323836 0.194308 
weil 0.068584 0.229119 -0.269526 0.056025 0.032617 0.260283 -0.207305 0.052554 0.194968 0.087662 -0.650195 -0.084703 0.505295 0.186890 -0.084848 -0.440343 -0.025328 0.173573 0.018402 -0.073335 0.239277 -0.299167 -0.476755 0.233861 0.143709 0.287591 0.501897 -0.154179 0.087690 -0.261516 0.212542 -0.009859 0.108853 0.146874 -0.170985 -0.347589 -0.362894 -0.174830 -0.499069 0.277079 0.520024 -0.338107 0.011155 -0.002267 -0.414767 -0.385937 0.133057 -0.520517 0.295000 0.177497 
doch 0.083704 0.302864 -0.347800 0.081733 0.037606 0.339078 -0.266606 0.066768 0.250311 0.103508 -0.845633 -0.111336 0.659185 0.245933 -0.125201 -0.575494 -0.028794 0.228794 0.027388 -0.087978 0.317342 -0.392865 -0.621901 0.305985 0.177639 0.371397 0.656971 -0.204879 0.120146 -0.343734 0.274558 -0.009521 0.136464 0.198724 -0.221828 -0.446320 -0.469614 -0.227875 -0.656134 0.354080 0.685459 -0.439141 0.010996 -0.011455 -0.535852 -0.508173 0.168573 -0.674921 0.382438 0.229142 
habe 0.073543 0.259663 -0.301435 0.066619 0.032674 0.291578 -0.227064 0.059244 0.217789 0.089936 -0.727222 -0.095981 0.562804 0.206539 -0.099976 -0.490422 -0.027933 0.193121 0.022122 -0.080164 0.271738 -0.338233 -0.530481 0.264772 0.155451 0.319629 0.563352 -0.178771 0.101267 -0.293129 0.232335 -0.009115 0.118146 0.166955 -0.190607 -0.383256 -0.407082 -0.195739 -0.555171 0.302301 0.583618 -0.374012 0.005609 -0.006950 -0.457766 -0.435783 0.145630 -0.577735 0.327135 0.195692 
mir 0.075935 0.293652 -0.321888 0.094548 0.031830 0.313154 -0.249280 0.062965 0.230040 0.093298 -0.825463 -0.099458 0.630959 0.246832 -0.137252 -0.550058 -0.010445 0.219904 0.037588 -0.080003 0.305409 -0.388030 -0.588356 0.309651 0.152470 0.342169 0.616815 -0.214622 0.116557 -0.316883 0.256620 -0.021844 0.125699 0.202886 -0.202491 -0.397951 -0.436528 -0.214287 -0.628128 0.329108 0.658363 -0.414857 -0.019899 -0.026330 -0.510093 -0.493124 0.143046 -0.625772 0.362992 0.212764 
geht 0.081976 0.296301 -0.338691 0.084520 0.036649 0.324199 -0.256190 0.063245 0.247393 0.099150 -0.827805 -0.106802 0.635731 0.238317 -0.122836 -0.555368 -0.024271 0.218821 0.028885 -0.089125 0.308654 -0.381628 -0.603890 0.299982 0.170981 0.358727 0.633242 -0.203057 0.117961 -0.329419 0.265287 -0.012975 0.133808 0.194776 -0.215383 -0.427260 -0.454847 -0.221630 -0.638695 0.341633 0.661794 -0.428129 -0.000665 -0.011840 -0.521656 -0.496791 0.164383 -0.651440 0.368963 0.222222 
darauf 0.084681 0.294852 -0.337181 0.086723 0.038633 0.323700 -0.260099 0.067086 0.242128 0.102108 -0.827544 -0.105644 0.640851 0.242870 -0.119139 -0.561901 -0.029527 0.216883 0.029547 -0.089817 0.308235 -0.384651 -0.607231 0.302837 0.170556 0.359889 0.638432 -0.203263 0.117743 -0.331812 0.262325 -0.010378 0.135673 0.197812 -0.216923 -0.425691 -0.455019 -0.217797 -0.636562 0.343595 0.666251 -0.424037 -0.002196 -0.016521 -0.521933 -0.495288 0.162818 -0.649930 0.371015 0.225492 
dafür 0.089100 0.307449 -0.362507 0.090617 0.039080 0.349838 -0.275241 0.069772 0.260630 0.103850 -0.884737 -0.114871 0.684661 0.258750 -0.131727 -0.594202 -0.023686 0.235923 0.030079 -0.092928 0.327354 -0.410609 -0.643558 0.323135 0.183997 0.380356 0.675398 -0.221112 0.121806 -0.354562 0.282314 -0.015576 0.140191 0.207999 -0.231636 -0.453080 -0.485061 -0.234919 -0.681172 0.364872 0.710578 -0.455667 -0.000812 -0.012425 -0.556604 -0.528071 0.165468 -0.692284 0.394275 0.239270 
keine 0.094968 0.345830 -0.386940 0.105488 0.036672 0.372952 -0.296208 0.074558 0.275547 0.106426 -0.964592 -0.119909 0.744463 0.289788 -0.155981 -0.650475 -0.017495 0.256575 0.039075 -0.103314 0.358337 -0.456251 -0.693678 0.363326 0.185426 0.407205 0.734155 -0.243339 0.137761 -0.375883 0.304660 -0.019898 0.151001 0.235942 -0.242145 -0.480025 -0.520930 -0.255669 -0.742776 0.391616 0.775744 -0.490541 -0.015265 -0.022350 -0.602445 -0.582401 0.177802 -0.751771 0.431827 0.256958 
bereits 0.065485 0.223635 -0.267155 0.056797 0.027880 0.255776 -0.197524 0.049523 0.193537 0.079162 -0.622527 -0.088280 0.487353 0.177888 -0.077441 -0.423641 -0.029752 0.164960 0.015880 -0.068721 0.231318 -0.286990 -0.460551 0.222512 0.142184 0.282228 0.485952 -0.141884 0.085665 -0.258001 0.203214 -0.007112 0.104915 0.142347 -0.171237 -0.343978 -0.352661 -0.167965 -0.488437 0.266177 0.500446 -0.325744 0.015418 -0.000478 -0.398756 -0.371088 0.134555 -0.505462 0.285358 0.170797 
unter 0.071724 0.271683 -0.301648 0.084996 0.030317 0.288511 -0.229629 0.061432 0.212925 0.084624 -0.762225 -0.094930 0.588912 0.226154 -0.127922 -0.511265 -0.010133 0.201867 0.031304 -0.077585 0.281444 -0.363918 -0.549487 0.287688 0.144338 0.314464 0.572588 -0.201996 0.108079 -0.295443 0.240915 -0.012974 0.117205 0.185350 -0.186824 -0.365860 -0.407375 -0.195734 -0.581635 0.305798 0.608738 -0.385193 -0.019452 -0.019094 -0.473043 -0.458865 0.135623 -0.585882 0.338918 0.201391 
regionen 0.084969 0.300110 -0.344721 0.084059 0.038584 0.333263 -0.263534 0.070698 0.250407 0.104547 -0.840439 -0.109988 0.650778 0.244158 -0.117689 -0.567542 -0.026105 0.225948 0.026663 -0.091659 0.311423 -0.389032 -0.609570 0.307865 0.177025 0.369552 0.648530 -0.204166 0.117742 -0.335169 0.266623 -0.014537 0.132314 0.192237 -0.221172 -0.444658 -0.467451 -0.226243 -0.646218 0.350583 0.673062 -0.434752 0.005389 -0.008686 -0.530478 -0.504288 0.170297 -0.665997 0.377476 0.226930 
dazu 0.073484 0.262913 -0.292192 0.076583 0.027007 0.285380 -0.228425 0.059283 0.213378 0.087938 -0.734847 -0.095901 0.564678 0.218542 -0.109068 -0.491684 -0.016472 0.195422 0.025665 -0.077846 0.276354 -0.341559 -0.530417 0.271964 0.148055 0.315508 0.564380 -0.178649 0.099982 -0.290250 0.235447 -0.011137 0.112705 0.173047 -0.188746 -0.376374 -0.404728 -0.194312 -0.564692 0.297872 0.591059 -0.374137 -0.000034 -0.011879 -0.459311 -0.439281 0.139409 -0.578179 0.326062 0.196791 
deshalb 0.084597 0.293204 -0.340175 0.078910 0.037991 0.327489 -0.255487 0.067328 0.247701 0.101504 -0.823198 -0.106236 0.638838 0.235575 -0.117740 -0.553852 -0.025652 0.214230 0.025630 -0.088126 0.307691 -0.381436 -0.602535 0.301057 0.177472 0.361506 0.633987 -0.196509 0.113997 -0.332400 0.264303 -0.008555 0.130490 0.194218 -0.214723 -0.435334 -0.455866 -0.220083 -0.638099 0.345166 0.659821 -0.422858 0.010774 -0.005469 -0.522351 -0.491486 0.164509 -0.653493 0.372215 0.220492 
ihrer 0.078802 0.272728 -0.317267 0.078249 0.035447 0.308325 -0.244092 0.064919 0.230235 0.095200 -0.776731 -0.102224 0.604629 0.223080 -0.114751 -0.521573 -0.024613 0.205411 0.026537 -0.082822 0.291942 -0.363052 -0.565368 0.283369 0.162170 0.336580 0.597231 -0.184752 0.107791 -0.312579 0.247329 -0.011716 0.126412 0.185138 -0.204017 -0.403633 -0.429018 -0.204453 -0.596219 0.322572 0.622821 -0.401069 0.003563 -0.010267 -0.486734 -0.463112 0.150973 -0.613030 0.347331 0.208762 
anderen 0.075187 0.267468 -0.307441 0.080860 0.034225 0.297179 -0.233991 0.060176 0.223494 0.090421 -0.758998 -0.094486 0.578907 0.220746 -0.112370 -0.505957 -0.021259 0.197696 0.029763 -0.080375 0.283252 -0.350253 -0.551651 0.275414 0.154997 0.322166 0.578378 -0.187564 0.108727 -0.300826 0.236697 -0.012172 0.121488 0.176335 -0.194241 -0.386164 -0.416268 -0.201680 -0.585845 0.311974 0.608847 -0.382837 -0.004481 -0.011103 -0.474124 -0.453763 0.148561 -0.590489 0.340542 0.204169 
sagen 0.081324 0.276410 -0.334762 0.065927 0.042380 0.316635 -0.247406 0.066406 0.241889 0.103932 -0.781845 -0.106265 0.607430 0.225189 -0.103413 -0.536243 -0.036214 0.206731 0.017564 -0.087305 0.293813 -0.362050 -0.580930 0.279634 0.180904 0.354927 0.616760 -0.175512 0.112069 -0.321600 0.252708 -0.010444 0.131172 0.175933 -0.208664 -0.434649 -0.442621 -0.216878 -0.608720 0.335656 0.632405 -0.413302 0.019672 0.002589 -0.505798 -0.469917 0.164627 -0.632417 0.358058 0.213756 
unserer 0.065223 0.229554 -0.263633 0.063507 0.027666 0.257073 -0.201392 0.052268 0.190324 0.076520 -0.645599 -0.085787 0.497506 0.188193 -0.091602 -0.439095 -0.020725 0.167509 0.020907 -0.071791 0.243313 -0.300726 -0.471504 0.232085 0.141029 0.278341 0.497001 -0.151245 0.088268 -0.256677 0.207211 -0.006361 0.106388 0.153152 -0.166133 -0.340153 -0.357637 -0.170367 -0.501027 0.272452 0.523531 -0.333825 0.003050 -0.012353 -0.409941 -0.391527 0.126182 -0.510737 0.294591 0.173371 
präsidentin 0.086612 0.309559 -0.350014 0.094273 0.034611 0.343096 -0.266439 0.070923 0.254529 0.101445 -0.873600 -0.112630 0.672921 0.254659 -0.134906 -0.590038 -0.018005 0.232434 0.033055 -0.093600 0.320835 -0.410985 -0.628149 0.323255 0.176858 0.372831 0.668730 -0.217879 0.121034 -0.344735 0.275653 -0.017549 0.137497 0.206935 -0.221246 -0.444182 -0.477746 -0.228706 -0.672989 0.359658 0.700455 -0.446304 -0.007557 -0.013250 -0.547220 -0.524341 0.167746 -0.683152 0.389773 0.235414 
maßnahmen 0.068325 0.252121 -0.283356 0.083892 0.027904 0.275058 -0.213306 0.054482 0.202865 0.081064 -0.712103 -0.087129 0.544908 0.211070 -0.110537 -0.475450 -0.009534 0.187187 0.027488 -0.077475 0.263923 -0.333071 -0.514373 0.266560 0.133150 0.296333 0.533893 -0.180509 0.099039 -0.275405 0.225358 -0.013219 0.109352 0.171373 -0.174785 -0.344811 -0.387578 -0.185768 -0.545102 0.285599 0.566554 -0.359029 -0.010363 -0.021384 -0.444077 -0.422603 0.128407 -0.546930 0.315612 0.190193 
sollten 0.079044 0.283161 -0.329406 0.080964 0.034978 0.317140 -0.252547 0.063569 0.240173 0.103574 -0.796418 -0.107288 0.618548 0.232569 -0.113280 -0.540946 -0.027286 0.210268 0.027759 -0.089184 0.298772 -0.370735 -0.581387 0.291919 0.165751 0.347481 0.614325 -0.190278 0.107082 -0.318779 0.258118 -0.013154 0.129801 0.185512 -0.207549 -0.420912 -0.441572 -0.214874 -0.614885 0.334335 0.644361 -0.414579 0.011509 -0.008727 -0.504490 -0.477467 0.155960 -0.633541 0.361194 0.216541 
denen 0.071360 0.265452 -0.294306 0.080962 0.030664 0.284849 -0.228216 0.060144 0.215273 0.087357 -0.739416 -0.092140 0.571474 0.216598 -0.117846 -0.499720 -0.018457 0.196762 0.027667 -0.080151 0.272600 -0.343271 -0.536210 0.275962 0.146548 0.309963 0.559800 -0.189047 0.102333 -0.287713 0.234185 -0.013968 0.114143 0.173639 -0.187776 -0.369325 -0.406069 -0.196789 -0.564282 0.302013 0.590698 -0.373800 -0.004599 -0.012960 -0.463043 -0.440407 0.137033 -0.573418 0.330942 0.198836 
ganz 0.085880 0.296168 -0.343731 0.091878 0.039345 0.329579 -0.257435 0.064499 0.246893 0.101659 -0.838746 -0.107622 0.652536 0.248164 -0.124417 -0.565693 -0.017990 0.220488 0.032307 -0.086090 0.311457 -0.392392 -0.608509 0.309301 0.174239 0.361577 0.642404 -0.211813 0.116446 -0.332038 0.268454 -0.015266 0.135376 0.198404 -0.214330 -0.428141 -0.458863 -0.223691 -0.645426 0.348921 0.670803 -0.430422 -0.003203 -0.015950 -0.526668 -0.508372 0.158439 -0.658345 0.376695 0.224740 
sollte 0.070605 0.262817 -0.293160 0.080292 0.027509 0.284556 -0.221052 0.058152 0.209305 0.081384 -0.733144 -0.088492 0.562484 0.214005 -0.117626 -0.491763 -0.008107 0.196183 0.028686 -0.078670 0.266930 -0.344452 -0.524817 0.271097 0.139200 0.307249 0.551672 -0.181264 0.107522 -0.284028 0.231131 -0.013797 0.114546 0.177410 -0.184842 -0.361669 -0.395775 -0.192021 -0.558640 0.299941 0.587058 -0.367364 -0.007795 -0.016598 -0.456804 -0.438262 0.133261 -0.563893 0.323725 0.192510 
immer 0.067173 0.247403 -0.275155 0.078462 0.026579 0.266492 -0.213043 0.055433 0.194642 0.080302 -0.693933 -0.087611 0.535623 0.206434 -0.112276 -0.465466 -0.007983 0.181152 0.030840 -0.075650 0.256384 -0.328969 -0.496274 0.260578 0.130134 0.286030 0.521377 -0.178283 0.098472 -0.268238 0.219577 -0.017554 0.107079 0.166479 -0.173094 -0.336813 -0.374805 -0.182480 -0.531719 0.280642 0.554256 -0.348890 -0.015775 -0.019775 -0.432826 -0.417956 0.125587 -0.535408 0.311502 0.181544 
gegen 0.090222 0.326560 -0.371641 0.099152 0.042164 0.356323 -0.283623 0.070656 0.266442 0.108687 -0.920815 -0.116900 0.712884 0.270954 -0.141268 -0.620667 -0.018369 0.244731 0.034145 -0.100641 0.342621 -0.432143 -0.666506 0.343419 0.182811 0.392598 0.701684 -0.230589 0.127861 -0.363055 0.294701 -0.015857 0.144091 0.222193 -0.237093 -0.467607 -0.506361 -0.243211 -0.710231 0.377422 0.736799 -0.469097 -0.005234 -0.016545 -0.582020 -0.555272 0.174007 -0.718437 0.411097 0.244997 
vom 0.080087 0.285173 -0.325019 0.083615 0.033265 0.317288 -0.251189 0.061022 0.234582 0.095395 -0.804240 -0.103348 0.617358 0.234509 -0.117159 -0.537681 -0.019728 0.215104 0.027799 -0.088015 0.293923 -0.373001 -0.584346 0.294454 0.165126 0.345061 0.610972 -0.201356 0.112696 -0.315985 0.255262 -0.016291 0.127240 0.189195 -0.201641 -0.409199 -0.436158 -0.215233 -0.617038 0.331099 0.641325 -0.410726 -0.002611 -0.016055 -0.500368 -0.475965 0.155118 -0.628105 0.358255 0.215474 
meiner 0.073700 0.254354 -0.289153 0.071072 0.030936 0.279228 -0.217977 0.054812 0.202906 0.085277 -0.711147 -0.092807 0.547694 0.207162 -0.105382 -0.478504 -0.019070 0.189762 0.023423 -0.072684 0.266810 -0.330577 -0.513686 0.260486 0.144944 0.306047 0.540998 -0.175205 0.101204 -0.278732 0.225517 -0.011815 0.112771 0.170597 -0.184142 -0.361698 -0.389155 -0.186551 -0.543291 0.293562 0.570777 -0.358456 -0.003320 -0.012678 -0.445048 -0.423462 0.138490 -0.552188 0.326431 0.191870 
rahmen 0.054359 0.182554 -0.218220 0.044010 0.024514 0.206317 -0.166509 0.042457 0.162446 0.067136 -0.515172 -0.068927 0.402043 0.151208 -0.071420 -0.351153 -0.018463 0.137279 0.015244 -0.055283 0.191743 -0.236593 -0.382504 0.185156 0.118397 0.230814 0.402759 -0.117300 0.071238 -0.211310 0.170065 -0.004130 0.083889 0.115636 -0.142738 -0.286662 -0.292177 -0.142293 -0.403718 0.224615 0.414269 -0.273306 0.016883 -0.000223 -0.335148 -0.309484 0.108105 -0.418012 0.234095 0.144187 
parlaments 0.086477 0.303322 -0.351830 0.083702 0.039067 0.339285 -0.267253 0.069209 0.255501 0.102435 -0.848129 -0.111879 0.655470 0.248219 -0.123630 -0.576884 -0.028688 0.225349 0.025403 -0.091971 0.317197 -0.391497 -0.620127 0.308293 0.184869 0.372413 0.657506 -0.205748 0.117929 -0.340147 0.271891 -0.010597 0.140067 0.199400 -0.220861 -0.452087 -0.472162 -0.227631 -0.653929 0.354657 0.682622 -0.439950 0.011652 -0.009791 -0.538627 -0.511559 0.168934 -0.674061 0.383240 0.232833 
wollen 0.070465 0.265868 -0.295685 0.081084 0.028992 0.285833 -0.228494 0.058208 0.212870 0.084116 -0.744696 -0.092571 0.575491 0.220353 -0.120159 -0.498093 -0.015167 0.197760 0.029118 -0.080290 0.276052 -0.346385 -0.536461 0.277459 0.143830 0.313280 0.565228 -0.186954 0.101703 -0.286959 0.236519 -0.013889 0.119104 0.178172 -0.189679 -0.370668 -0.403035 -0.197042 -0.570501 0.303289 0.598219 -0.374431 -0.011565 -0.018110 -0.465163 -0.446061 0.133924 -0.577231 0.331601 0.196190 
war 0.071795 0.255592 -0.291693 0.077975 0.028442 0.287597 -0.222787 0.055778 0.213597 0.087164 -0.723656 -0.092790 0.562734 0.209095 -0.106623 -0.487402 -0.014916 0.192383 0.026873 -0.078038 0.274092 -0.338443 -0.524445 0.267958 0.146524 0.307449 0.552874 -0.180283 0.104177 -0.287491 0.231682 -0.010936 0.116851 0.170782 -0.186214 -0.368737 -0.397285 -0.190040 -0.555599 0.298576 0.583173 -0.372181 -0.004011 -0.014645 -0.453482 -0.436955 0.136150 -0.565082 0.325186 0.193376 
jetzt 0.086096 0.308449 -0.352877 0.094565 0.033205 0.338402 -0.268486 0.068955 0.254515 0.098481 -0.865631 -0.109777 0.669379 0.254303 -0.134244 -0.582018 -0.019557 0.230284 0.034226 -0.094232 0.319185 -0.408888 -0.628029 0.322033 0.175089 0.369029 0.660682 -0.215730 0.120151 -0.341428 0.277529 -0.012957 0.134923 0.208452 -0.222022 -0.439731 -0.469525 -0.232118 -0.665680 0.356853 0.693306 -0.437694 -0.005142 -0.019110 -0.547457 -0.519376 0.163313 -0.675988 0.388377 0.231216 
bereich 0.067502 0.251653 -0.283819 0.070267 0.032413 0.268130 -0.215685 0.054104 0.204087 0.086738 -0.695640 -0.089485 0.539195 0.198001 -0.101089 -0.468921 -0.021869 0.185822 0.024414 -0.078413 0.261562 -0.322641 -0.505525 0.259173 0.142262 0.301479 0.535393 -0.169784 0.094433 -0.274542 0.224519 -0.011682 0.109063 0.160872 -0.182840 -0.361845 -0.384385 -0.185471 -0.537371 0.290116 0.562219 -0.359643 0.000274 -0.006749 -0.438707 -0.417711 0.135161 -0.548909 0.316421 0.185894 
insbesondere 0.068430 0.241949 -0.283730 0.067806 0.030264 0.273232 -0.212637 0.054282 0.205148 0.083560 -0.689355 -0.088324 0.530210 0.199864 -0.098710 -0.464438 -0.018734 0.183024 0.024172 -0.073541 0.251668 -0.316755 -0.497211 0.251776 0.142166 0.297631 0.526638 -0.166273 0.096457 -0.271432 0.221787 -0.013439 0.111678 0.160698 -0.177605 -0.360233 -0.375276 -0.187503 -0.527714 0.283645 0.551381 -0.349966 0.004479 -0.009396 -0.433760 -0.408708 0.134555 -0.544336 0.310092 0.181435 
also 0.075839 0.281434 -0.319527 0.081934 0.035122 0.301708 -0.241411 0.061864 0.226876 0.094541 -0.780520 -0.099099 0.600397 0.227666 -0.117690 -0.524932 -0.017611 0.210895 0.028066 -0.084163 0.291294 -0.363428 -0.567092 0.287307 0.156736 0.335727 0.595412 -0.191033 0.109300 -0.310791 0.252766 -0.012178 0.123552 0.185893 -0.199601 -0.397616 -0.425520 -0.206831 -0.597431 0.322517 0.625342 -0.399420 -0.002015 -0.013230 -0.488556 -0.467362 0.150731 -0.614323 0.350743 0.212946 
wurden 0.079481 0.273846 -0.318999 0.071419 0.036367 0.305472 -0.236799 0.058899 0.231265 0.098087 -0.763523 -0.099646 0.588712 0.218970 -0.106246 -0.512372 -0.025538 0.199628 0.028774 -0.082636 0.286790 -0.352686 -0.555569 0.276874 0.161904 0.335632 0.588370 -0.181322 0.107578 -0.307036 0.241564 -0.011935 0.126856 0.176633 -0.200519 -0.402454 -0.423898 -0.202116 -0.591348 0.320430 0.615053 -0.392699 0.008301 -0.005909 -0.483895 -0.456665 0.153699 -0.607339 0.345307 0.206369 
einige 0.061731 0.220742 -0.254241 0.067257 0.030208 0.243294 -0.193847 0.049456 0.178266 0.069341 -0.629195 -0.077022 0.479424 0.187675 -0.098827 -0.421201 -0.009460 0.169593 0.025480 -0.065906 0.231189 -0.295791 -0.449981 0.231610 0.121786 0.262362 0.474447 -0.160505 0.089183 -0.243708 0.197403 -0.010649 0.102110 0.151332 -0.157472 -0.313604 -0.342000 -0.166888 -0.483058 0.254158 0.501657 -0.317427 -0.005307 -0.014161 -0.393364 -0.371412 0.118661 -0.485248 0.277015 0.167877 
allem 0.070516 0.238928 -0.279883 0.064598 0.033796 0.272502 -0.214064 0.054591 0.202367 0.085657 -0.670730 -0.086680 0.520253 0.196191 -0.090667 -0.455860 -0.024232 0.171062 0.022676 -0.073136 0.246461 -0.307177 -0.491036 0.244006 0.146560 0.291238 0.519943 -0.159181 0.092507 -0.269952 0.217985 -0.008442 0.109775 0.155298 -0.179577 -0.357330 -0.372360 -0.180835 -0.519688 0.284552 0.539445 -0.349240 0.006942 -0.002292 -0.425752 -0.402082 0.137846 -0.534948 0.300129 0.178659 
vorschlag 0.071298 0.255226 -0.289671 0.073611 0.032630 0.281507 -0.224238 0.058181 0.211618 0.084750 -0.718418 -0.091815 0.552672 0.209188 -0.109238 -0.483352 -0.018680 0.187963 0.022930 -0.077394 0.267570 -0.335895 -0.523954 0.262063 0.149880 0.307820 0.548030 -0.179317 0.097496 -0.286696 0.232716 -0.012563 0.114164 0.170697 -0.184663 -0.365883 -0.396689 -0.191447 -0.553453 0.296046 0.574425 -0.367437 -0.003941 -0.010310 -0.452056 -0.431772 0.138934 -0.562104 0.323282 0.194459 
nun 0.070246 0.242859 -0.282610 0.070579 0.026685 0.271154 -0.218812 0.052395 0.202508 0.082520 -0.690433 -0.088594 0.532668 0.205033 -0.102801 -0.464672 -0.019689 0.182623 0.025516 -0.073625 0.253049 -0.323336 -0.501378 0.255463 0.138746 0.300786 0.529970 -0.169231 0.096235 -0.276300 0.221107 -0.007644 0.111869 0.163057 -0.177970 -0.355177 -0.383574 -0.184690 -0.532431 0.289555 0.553684 -0.351747 -0.002905 -0.010016 -0.434583 -0.414579 0.134622 -0.540126 0.309724 0.183035 
ihren 0.071034 0.238943 -0.282100 0.058267 0.031528 0.272180 -0.213838 0.057871 0.207594 0.084985 -0.667015 -0.089281 0.522482 0.193758 -0.087166 -0.450963 -0.033875 0.178527 0.019395 -0.075945 0.252562 -0.306374 -0.494741 0.235984 0.155479 0.304553 0.525243 -0.152736 0.087791 -0.272552 0.218118 -0.005670 0.111706 0.148297 -0.185181 -0.368798 -0.374764 -0.181759 -0.520888 0.285378 0.538056 -0.352180 0.016953 0.001156 -0.426400 -0.399115 0.144014 -0.538793 0.304427 0.184061 
richtlinie 0.073404 0.263318 -0.299845 0.081277 0.028775 0.290251 -0.228050 0.053792 0.213025 0.087565 -0.746126 -0.094789 0.570431 0.219560 -0.119992 -0.498607 -0.011144 0.197055 0.030184 -0.080329 0.276711 -0.352118 -0.537363 0.273171 0.147214 0.313475 0.564980 -0.188470 0.104455 -0.293712 0.234853 -0.012347 0.116680 0.182060 -0.187136 -0.371619 -0.400599 -0.195271 -0.565504 0.303062 0.593135 -0.378020 -0.006219 -0.016288 -0.462096 -0.447590 0.134823 -0.577714 0.333870 0.197711 
bürger 0.075268 0.256503 -0.299291 0.065240 0.034251 0.291814 -0.231459 0.059375 0.216704 0.090058 -0.725728 -0.097235 0.557150 0.211240 -0.101283 -0.488335 -0.023922 0.190358 0.023136 -0.081911 0.268630 -0.331014 -0.530016 0.262595 0.156609 0.319309 0.559447 -0.169845 0.098305 -0.293261 0.231989 -0.012585 0.119646 0.169679 -0.189756 -0.382863 -0.404819 -0.193023 -0.558422 0.303887 0.581036 -0.374584 0.007169 -0.003954 -0.460343 -0.434071 0.147599 -0.577439 0.329036 0.196771 
soll 0.064966 0.228497 -0.269785 0.059930 0.032729 0.257405 -0.201273 0.050865 0.194021 0.082560 -0.641771 -0.084121 0.495331 0.186293 -0.086432 -0.431941 -0.025744 0.170293 0.019749 -0.072051 0.237100 -0.293514 -0.468275 0.228837 0.140398 0.286520 0.496303 -0.149249 0.088629 -0.259070 0.205223 -0.005864 0.102077 0.149159 -0.172704 -0.342943 -0.353737 -0.173391 -0.492336 0.272940 0.514790 -0.330895 0.007922 -0.006882 -0.404837 -0.385325 0.130306 -0.509837 0.290279 0.171661 
recht 0.075028 0.261919 -0.293975 0.072682 0.031453 0.291212 -0.229472 0.058741 0.214748 0.088060 -0.736729 -0.093500 0.567467 0.221251 -0.112843 -0.498471 -0.015077 0.195427 0.027011 -0.078172 0.277096 -0.347889 -0.534003 0.273449 0.146390 0.317210 0.562352 -0.183785 0.100595 -0.291524 0.234770 -0.011521 0.118295 0.174620 -0.187039 -0.375389 -0.403218 -0.195603 -0.568429 0.304623 0.592188 -0.375530 -0.006047 -0.010321 -0.460862 -0.439290 0.138668 -0.575458 0.330780 0.200800 
bin 0.068366 0.239015 -0.280663 0.069188 0.031946 0.268671 -0.208517 0.053956 0.199834 0.086609 -0.677191 -0.088839 0.520864 0.197456 -0.097853 -0.457592 -0.021064 0.177170 0.023657 -0.072537 0.246239 -0.314030 -0.494013 0.245211 0.144703 0.295410 0.522880 -0.161572 0.091753 -0.269121 0.214897 -0.006732 0.107668 0.156944 -0.178399 -0.354205 -0.374677 -0.175377 -0.522072 0.279343 0.541690 -0.350780 0.003938 -0.010700 -0.424005 -0.402485 0.132435 -0.533417 0.303482 0.180352 
neue 0.077500 0.278377 -0.313761 0.083480 0.031328 0.304862 -0.240729 0.060082 0.224510 0.089913 -0.771769 -0.100134 0.597329 0.229064 -0.117920 -0.517304 -0.016402 0.205752 0.030369 -0.083767 0.284809 -0.364666 -0.557957 0.288679 0.152249 0.327903 0.589522 -0.189976 0.105856 -0.303151 0.245949 -0.012513 0.120498 0.182762 -0.199634 -0.390031 -0.417559 -0.205465 -0.593684 0.317637 0.620080 -0.397735 -0.005599 -0.015953 -0.484660 -0.464435 0.146587 -0.603229 0.345224 0.205939 
natürlich 0.078167 0.281817 -0.317404 0.079508 0.035892 0.311163 -0.241704 0.061508 0.227728 0.092952 -0.781566 -0.101711 0.603936 0.228901 -0.119178 -0.529168 -0.020839 0.206773 0.025982 -0.083933 0.295910 -0.365804 -0.571189 0.290088 0.161518 0.337010 0.604690 -0.192968 0.110938 -0.308605 0.252330 -0.012976 0.126773 0.185249 -0.201159 -0.399812 -0.431921 -0.211766 -0.603911 0.326321 0.629017 -0.403007 0.003657 -0.012157 -0.491374 -0.474085 0.151894 -0.613042 0.353748 0.212208 
fraktion 0.081520 0.290581 -0.334614 0.078628 0.037317 0.320902 -0.253522 0.062913 0.241050 0.101721 -0.817471 -0.106741 0.630402 0.237642 -0.122193 -0.551728 -0.024220 0.214896 0.028205 -0.088504 0.307165 -0.380709 -0.594989 0.298501 0.172310 0.351818 0.629083 -0.199547 0.114587 -0.324488 0.261773 -0.013811 0.129661 0.193980 -0.212840 -0.424028 -0.451292 -0.216415 -0.629254 0.340812 0.659097 -0.417394 0.001549 -0.006846 -0.517818 -0.489155 0.156891 -0.644228 0.369181 0.221958 
fragen 0.072906 0.278431 -0.313656 0.089299 0.030735 0.302606 -0.238293 0.057110 0.218959 0.090657 -0.785616 -0.098661 0.603938 0.229037 -0.125003 -0.524162 -0.009280 0.207777 0.036172 -0.080601 0.294471 -0.368323 -0.560204 0.293949 0.148350 0.324575 0.592300 -0.201890 0.111246 -0.302434 0.247582 -0.013476 0.120762 0.186648 -0.195935 -0.379554 -0.425339 -0.209214 -0.601407 0.317933 0.627562 -0.393343 -0.016253 -0.020571 -0.488179 -0.470917 0.139227 -0.602170 0.348781 0.207257 
ob 0.066357 0.230988 -0.268834 0.062704 0.026163 0.258492 -0.201253 0.049726 0.196521 0.080117 -0.650378 -0.085142 0.498094 0.189089 -0.092463 -0.433772 -0.022289 0.173039 0.018873 -0.069353 0.242918 -0.299590 -0.474464 0.233636 0.135672 0.283221 0.504101 -0.151866 0.087098 -0.258704 0.207566 -0.007987 0.106355 0.152208 -0.169609 -0.342320 -0.357870 -0.175363 -0.496876 0.270399 0.524399 -0.333194 0.005386 -0.005713 -0.411011 -0.389443 0.127539 -0.515183 0.293127 0.174830 
neuen 0.068366 0.235070 -0.268862 0.073091 0.028926 0.255462 -0.206629 0.052395 0.193152 0.075804 -0.662767 -0.085142 0.514827 0.190928 -0.100317 -0.444318 -0.015458 0.172928 0.024220 -0.072175 0.245239 -0.306957 -0.473382 0.244295 0.129298 0.279083 0.501615 -0.167033 0.095372 -0.258885 0.209357 -0.013005 0.103669 0.155918 -0.170222 -0.329737 -0.363522 -0.174324 -0.508853 0.271631 0.526687 -0.334891 -0.007945 -0.015483 -0.415275 -0.397049 0.123416 -0.514317 0.297224 0.177875 
wäre 0.074729 0.260156 -0.293611 0.077932 0.032785 0.282343 -0.223194 0.059503 0.210017 0.086890 -0.722781 -0.094001 0.562124 0.208278 -0.107002 -0.487309 -0.015292 0.194234 0.026467 -0.079714 0.270450 -0.335360 -0.525894 0.270368 0.142617 0.310982 0.551983 -0.175798 0.100895 -0.282627 0.228835 -0.015058 0.114554 0.173472 -0.184628 -0.366724 -0.394300 -0.190893 -0.556681 0.299772 0.581278 -0.371262 0.000632 -0.012335 -0.453154 -0.435733 0.136680 -0.566790 0.321234 0.191572 
zeit 0.075893 0.277250 -0.308123 0.083952 0.031131 0.299768 -0.233934 0.059406 0.219888 0.083428 -0.772597 -0.095372 0.598652 0.225262 -0.121739 -0.522361 -0.012596 0.207527 0.031262 -0.081502 0.288310 -0.364839 -0.559805 0.287067 0.150954 0.324995 0.584905 -0.194952 0.110958 -0.303426 0.241587 -0.015340 0.120747 0.185386 -0.195882 -0.387891 -0.419435 -0.206021 -0.592605 0.314001 0.619182 -0.393840 -0.006261 -0.016079 -0.483370 -0.465189 0.142881 -0.599693 0.347760 0.206614 
würde 0.064414 0.227922 -0.258292 0.063632 0.028933 0.247203 -0.195964 0.049659 0.182769 0.073351 -0.630172 -0.080875 0.489607 0.187736 -0.096953 -0.425463 -0.017051 0.167980 0.026259 -0.069829 0.235814 -0.296728 -0.456901 0.232271 0.128964 0.270759 0.482317 -0.156591 0.086946 -0.251524 0.201178 -0.007421 0.099236 0.152528 -0.161944 -0.321355 -0.346422 -0.166143 -0.487750 0.261304 0.508154 -0.320385 -0.004315 -0.012388 -0.396653 -0.379822 0.120788 -0.490561 0.281906 0.173981 
arbeit 0.083206 0.294537 -0.331586 0.091350 0.033545 0.318941 -0.255087 0.064687 0.237086 0.095497 -0.830338 -0.104850 0.641812 0.244274 -0.128187 -0.557148 -0.013786 0.218705 0.033038 -0.088990 0.309253 -0.392968 -0.597308 0.310851 0.161197 0.347276 0.628516 -0.210416 0.119226 -0.323009 0.265998 -0.016348 0.130191 0.199931 -0.208057 -0.413409 -0.449426 -0.218535 -0.637964 0.341243 0.665206 -0.419552 -0.011898 -0.019066 -0.519650 -0.499752 0.150059 -0.645691 0.371200 0.221247 
daher 0.068659 0.235829 -0.267389 0.068008 0.026918 0.258688 -0.202106 0.052480 0.194211 0.078429 -0.657433 -0.086789 0.508283 0.192220 -0.098320 -0.444320 -0.014744 0.173486 0.023272 -0.069900 0.245022 -0.304954 -0.475846 0.240291 0.133888 0.284154 0.498646 -0.158806 0.093765 -0.261638 0.208820 -0.010290 0.105120 0.152742 -0.168100 -0.339905 -0.362257 -0.172149 -0.506583 0.270076 0.524057 -0.336632 0.001316 -0.013262 -0.414709 -0.393882 0.128208 -0.514488 0.296782 0.177109 
unternehmen 0.075669 0.258059 -0.302501 0.067879 0.032175 0.289800 -0.230589 0.057279 0.220843 0.088996 -0.728215 -0.097016 0.566047 0.211952 -0.104006 -0.493477 -0.024363 0.191368 0.019998 -0.081071 0.272953 -0.337461 -0.535397 0.265191 0.154912 0.319835 0.568418 -0.170056 0.101543 -0.292830 0.234338 -0.009203 0.117870 0.170818 -0.191071 -0.390049 -0.404948 -0.196401 -0.564830 0.301439 0.590285 -0.382269 0.008573 -0.003090 -0.460916 -0.437854 0.147338 -0.576991 0.329046 0.195457 
machen 0.086303 0.309564 -0.346632 0.092301 0.034307 0.338342 -0.266343 0.066231 0.250053 0.100492 -0.869624 -0.109734 0.667046 0.254349 -0.133878 -0.584010 -0.017965 0.231482 0.032172 -0.091290 0.321874 -0.406577 -0.627536 0.324506 0.170021 0.364707 0.660985 -0.219046 0.121996 -0.335739 0.276470 -0.012520 0.136639 0.207565 -0.220290 -0.434473 -0.473493 -0.229758 -0.667028 0.356895 0.693912 -0.443769 -0.006942 -0.020025 -0.542364 -0.521383 0.164134 -0.671201 0.388847 0.231465 
kommissar 0.079959 0.296493 -0.335006 0.089573 0.032385 0.321887 -0.256989 0.063815 0.239263 0.094658 -0.834460 -0.103940 0.641398 0.244149 -0.131178 -0.558701 -0.013232 0.221035 0.033630 -0.084720 0.308943 -0.390712 -0.597723 0.310854 0.163887 0.354748 0.630041 -0.209637 0.116118 -0.326471 0.267098 -0.014309 0.133551 0.202395 -0.210931 -0.413406 -0.452326 -0.217172 -0.640082 0.340260 0.667584 -0.421630 -0.007984 -0.016628 -0.520580 -0.498982 0.154166 -0.645642 0.374521 0.224361 
000 0.063521 0.227248 -0.263716 0.062292 0.028579 0.255639 -0.199221 0.051890 0.188966 0.077032 -0.637634 -0.080456 0.492656 0.181604 -0.091633 -0.432082 -0.022071 0.170288 0.020160 -0.066950 0.235805 -0.297333 -0.462406 0.230922 0.132095 0.275790 0.490119 -0.156729 0.090071 -0.252726 0.206127 -0.007356 0.106040 0.151289 -0.167625 -0.331714 -0.351314 -0.171268 -0.490586 0.267422 0.512629 -0.329325 0.005820 -0.008831 -0.403596 -0.376319 0.127504 -0.503054 0.287194 0.173052 
seine 0.070273 0.254583 -0.287975 0.078223 0.032652 0.278175 -0.223115 0.055645 0.207915 0.082125 -0.718534 -0.089422 0.556464 0.207061 -0.112475 -0.481485 -0.012812 0.192273 0.027659 -0.074631 0.265941 -0.336399 -0.516922 0.266278 0.141600 0.301390 0.545151 -0.183261 0.103947 -0.278921 0.228217 -0.011657 0.115670 0.171048 -0.182918 -0.358966 -0.391360 -0.190061 -0.555187 0.295314 0.574051 -0.364334 -0.007238 -0.012806 -0.450990 -0.429781 0.132157 -0.556804 0.322207 0.187844 
ohne 0.064841 0.238450 -0.273860 0.064088 0.028522 0.264435 -0.209828 0.052551 0.197488 0.079795 -0.658022 -0.086691 0.513237 0.193367 -0.093731 -0.446895 -0.021968 0.176919 0.021011 -0.071612 0.251012 -0.307941 -0.482982 0.239515 0.140891 0.288751 0.515295 -0.158836 0.091838 -0.266815 0.210647 -0.009463 0.106426 0.156177 -0.173141 -0.346485 -0.366406 -0.176892 -0.511781 0.275366 0.532466 -0.341773 0.007354 -0.005160 -0.417038 -0.395765 0.133731 -0.523652 0.300016 0.180837 
programm 0.078235 0.286502 -0.316564 0.094109 0.030227 0.307556 -0.246422 0.061735 0.225596 0.088107 -0.807026 -0.098004 0.620395 0.238795 -0.135147 -0.543530 -0.008910 0.216199 0.037269 -0.086002 0.296153 -0.382084 -0.576971 0.307397 0.149998 0.332748 0.603754 -0.207600 0.114983 -0.309768 0.256841 -0.018667 0.121673 0.201218 -0.196278 -0.386909 -0.433304 -0.211093 -0.616323 0.325991 0.646424 -0.403516 -0.018940 -0.024378 -0.501400 -0.485456 0.139872 -0.616790 0.356946 0.212260 
; 0.075046 0.254210 -0.292053 0.074211 0.032240 0.277939 -0.222258 0.054132 0.208746 0.083043 -0.715323 -0.092746 0.555578 0.210730 -0.109508 -0.479588 -0.019388 0.188870 0.027233 -0.075703 0.268286 -0.333459 -0.523666 0.264292 0.143589 0.303265 0.545993 -0.178783 0.100415 -0.279772 0.226865 -0.013747 0.114665 0.169403 -0.182302 -0.363665 -0.391897 -0.188180 -0.550554 0.292128 0.577210 -0.363649 -0.004712 -0.012060 -0.451825 -0.426703 0.135475 -0.558146 0.320200 0.190055 
regierungskonferenz 0.066419 0.227437 -0.261136 0.068324 0.027132 0.249509 -0.197601 0.051771 0.191687 0.074046 -0.646538 -0.086102 0.494325 0.187971 -0.102327 -0.434056 -0.014059 0.170873 0.021642 -0.068802 0.236504 -0.299751 -0.464960 0.237959 0.131442 0.275307 0.493318 -0.160926 0.092734 -0.251450 0.203699 -0.009394 0.103390 0.157531 -0.165611 -0.328531 -0.353617 -0.170784 -0.494342 0.264939 0.516930 -0.330507 -0.001121 -0.012396 -0.405485 -0.385789 0.121593 -0.499559 0.287679 0.173144 
lassen 0.070984 0.259247 -0.295279 0.071176 0.033699 0.286236 -0.226600 0.059897 0.215801 0.085630 -0.723966 -0.093372 0.556450 0.209490 -0.104899 -0.484633 -0.021996 0.192038 0.021526 -0.079768 0.270718 -0.333684 -0.523476 0.265702 0.152783 0.315172 0.555089 -0.173865 0.102073 -0.288142 0.232808 -0.009065 0.117696 0.168252 -0.184487 -0.378696 -0.398334 -0.194296 -0.556749 0.301569 0.579594 -0.372559 0.002196 -0.007995 -0.453864 -0.433069 0.141706 -0.567281 0.324567 0.195468 
zusammenarbeit 0.067579 0.241495 -0.277523 0.070599 0.032004 0.265134 -0.213750 0.053534 0.199343 0.081762 -0.687385 -0.083552 0.526419 0.196248 -0.099771 -0.462331 -0.014860 0.176128 0.022628 -0.071352 0.253552 -0.318660 -0.494729 0.253772 0.141684 0.291754 0.524222 -0.171107 0.097037 -0.266647 0.218049 -0.007130 0.108538 0.163585 -0.179557 -0.345308 -0.372739 -0.181649 -0.526535 0.283934 0.548060 -0.350955 -0.001598 -0.009026 -0.429657 -0.405772 0.130010 -0.534181 0.310528 0.182093 
dabei 0.063926 0.229333 -0.264681 0.069975 0.027776 0.250983 -0.202054 0.051453 0.187251 0.077238 -0.649574 -0.082737 0.500399 0.188972 -0.099234 -0.435567 -0.014118 0.168690 0.023880 -0.072152 0.241287 -0.301245 -0.469433 0.241326 0.129394 0.280207 0.497465 -0.162520 0.088759 -0.257306 0.208691 -0.010098 0.104084 0.155175 -0.167735 -0.333061 -0.355959 -0.177818 -0.499447 0.268508 0.520837 -0.329275 -0.004208 -0.010669 -0.405833 -0.389934 0.126402 -0.510606 0.290557 0.174337 
schon 0.083912 0.304002 -0.338851 0.095556 0.034330 0.327801 -0.260549 0.065443 0.242925 0.096869 -0.851843 -0.105547 0.654478 0.255987 -0.138220 -0.572857 -0.008693 0.226553 0.035206 -0.088948 0.314882 -0.403617 -0.612391 0.317569 0.162918 0.355403 0.641643 -0.217315 0.119911 -0.331169 0.267528 -0.014550 0.131376 0.206642 -0.211926 -0.415636 -0.460207 -0.223225 -0.650683 0.345792 0.680771 -0.430163 -0.015406 -0.022494 -0.532935 -0.512187 0.154765 -0.656032 0.380738 0.225132 
sicherheit 0.058490 0.199630 -0.232575 0.051942 0.027730 0.227539 -0.180128 0.047192 0.172666 0.072532 -0.562253 -0.071739 0.434038 0.160367 -0.077010 -0.382262 -0.022078 0.146905 0.015527 -0.061664 0.207546 -0.256557 -0.412321 0.203993 0.128440 0.247569 0.437572 -0.132269 0.079642 -0.228993 0.182194 -0.005395 0.092009 0.128290 -0.150344 -0.302166 -0.317648 -0.153086 -0.435009 0.237653 0.451625 -0.292093 0.008631 -0.000774 -0.354787 -0.333883 0.115717 -0.447564 0.254422 0.150983 
tun 0.052422 0.188674 -0.205413 0.066975 0.019280 0.204997 -0.156923 0.039440 0.150416 0.061412 -0.533846 -0.063847 0.407226 0.162168 -0.090531 -0.359267 -0.000891 0.141034 0.022583 -0.052847 0.200979 -0.254131 -0.381077 0.203516 0.097256 0.217622 0.395781 -0.140195 0.072772 -0.205819 0.169363 -0.009415 0.083181 0.134958 -0.130716 -0.250261 -0.283708 -0.139069 -0.409142 0.212791 0.426983 -0.265056 -0.015056 -0.019466 -0.326419 -0.316288 0.089406 -0.403416 0.233545 0.141457 
zwar 0.071440 0.240151 -0.280916 0.066445 0.030234 0.272271 -0.214346 0.052655 0.201710 0.083751 -0.683398 -0.090816 0.527687 0.199379 -0.097920 -0.463562 -0.023867 0.177691 0.023655 -0.074451 0.251684 -0.317772 -0.497766 0.250337 0.141819 0.296963 0.525105 -0.164611 0.095074 -0.272145 0.220498 -0.013620 0.112224 0.161415 -0.179336 -0.356821 -0.376585 -0.182766 -0.528423 0.279694 0.549175 -0.351475 0.003004 -0.009235 -0.432340 -0.411307 0.135866 -0.541110 0.307134 0.183579 
viele 0.066252 0.220665 -0.266111 0.054742 0.030458 0.255503 -0.199114 0.050778 0.191703 0.078610 -0.624600 -0.083639 0.484717 0.177669 -0.082638 -0.422695 -0.027191 0.163787 0.013891 -0.070466 0.232804 -0.290024 -0.460218 0.224749 0.140141 0.276154 0.486961 -0.145213 0.084777 -0.254002 0.203221 -0.005477 0.103197 0.141329 -0.166389 -0.340922 -0.351950 -0.167149 -0.486136 0.265281 0.501591 -0.328542 0.011458 -0.000409 -0.396647 -0.373209 0.133556 -0.501873 0.285071 0.169537 
bis 0.072202 0.260761 -0.294844 0.075349 0.029194 0.283383 -0.224731 0.059060 0.211080 0.086491 -0.733169 -0.091413 0.560964 0.212887 -0.111257 -0.490136 -0.016059 0.192634 0.025118 -0.080675 0.273070 -0.342783 -0.529627 0.270534 0.149580 0.311200 0.560162 -0.182818 0.104833 -0.287792 0.235136 -0.012847 0.116393 0.172758 -0.187951 -0.370473 -0.396608 -0.194064 -0.558343 0.297877 0.582992 -0.371934 -0.001950 -0.010021 -0.456948 -0.436130 0.137750 -0.567258 0.323723 0.195709 
selbst 0.073507 0.265000 -0.301330 0.080443 0.027444 0.292025 -0.229834 0.056076 0.213181 0.084636 -0.755733 -0.096489 0.581932 0.223221 -0.121413 -0.505764 -0.014995 0.198124 0.028968 -0.082711 0.279115 -0.355392 -0.544615 0.280703 0.148781 0.317498 0.571162 -0.193088 0.109734 -0.294569 0.239490 -0.014477 0.116331 0.183335 -0.190270 -0.376289 -0.410895 -0.196142 -0.578056 0.307940 0.602079 -0.383801 -0.006753 -0.017858 -0.473310 -0.450262 0.140697 -0.586363 0.335378 0.202068 
fall 0.081970 0.295071 -0.333057 0.093754 0.033923 0.322587 -0.255393 0.065691 0.239577 0.095655 -0.832005 -0.104983 0.638731 0.242765 -0.132276 -0.557113 -0.017296 0.220048 0.031047 -0.088280 0.307242 -0.393076 -0.600635 0.309284 0.162626 0.349359 0.627773 -0.210508 0.118615 -0.325842 0.262374 -0.013825 0.130911 0.200635 -0.208694 -0.409434 -0.452778 -0.220305 -0.636255 0.338509 0.666900 -0.421017 -0.010045 -0.018328 -0.519345 -0.494656 0.155347 -0.641361 0.369016 0.222033 
probleme 0.074385 0.255497 -0.289665 0.077553 0.030091 0.281413 -0.220539 0.056839 0.206957 0.083390 -0.717820 -0.093247 0.549091 0.213375 -0.112649 -0.481247 -0.014560 0.193666 0.026295 -0.079483 0.265227 -0.337929 -0.518396 0.264492 0.140964 0.304970 0.546949 -0.183769 0.103811 -0.279921 0.228423 -0.013515 0.114679 0.173647 -0.182625 -0.359940 -0.391052 -0.190220 -0.552617 0.293842 0.574303 -0.363787 -0.000888 -0.014346 -0.452332 -0.432554 0.132661 -0.558195 0.323943 0.192266 
betrifft 0.074886 0.279580 -0.311876 0.096151 0.031502 0.301417 -0.238150 0.062159 0.219217 0.084565 -0.790166 -0.099320 0.609647 0.235200 -0.134581 -0.534062 -0.004997 0.211948 0.034708 -0.080777 0.293454 -0.374311 -0.566857 0.297824 0.143906 0.325838 0.593337 -0.205859 0.111641 -0.304613 0.246753 -0.012927 0.122131 0.191177 -0.196769 -0.378637 -0.421341 -0.204504 -0.602367 0.317027 0.633425 -0.396548 -0.020211 -0.025321 -0.490764 -0.475379 0.137304 -0.603597 0.352491 0.208724 
bedeutung 0.072744 0.258795 -0.295273 0.080512 0.030788 0.285298 -0.222836 0.056423 0.210198 0.082616 -0.732803 -0.089568 0.565168 0.215071 -0.116403 -0.490582 -0.015468 0.193483 0.031648 -0.076069 0.270764 -0.344913 -0.529869 0.266941 0.144280 0.308103 0.559078 -0.185012 0.104162 -0.285804 0.229187 -0.012064 0.113115 0.176603 -0.183044 -0.365981 -0.399956 -0.192291 -0.563010 0.300977 0.587414 -0.371236 -0.008897 -0.017195 -0.456957 -0.439270 0.134668 -0.571366 0.326468 0.193589 
mittel 0.055994 0.214666 -0.237783 0.076482 0.021211 0.227172 -0.179701 0.044376 0.164212 0.063022 -0.601658 -0.071922 0.461537 0.180758 -0.102463 -0.404749 -0.002320 0.160437 0.027875 -0.063634 0.220994 -0.285869 -0.425572 0.229252 0.108393 0.246139 0.446920 -0.160313 0.085869 -0.230358 0.190327 -0.013400 0.086410 0.149844 -0.144424 -0.279946 -0.321222 -0.154198 -0.456456 0.240861 0.480905 -0.299124 -0.018761 -0.021448 -0.372760 -0.362772 0.102252 -0.457213 0.269850 0.159486 
ihr 0.080125 0.295726 -0.331318 0.089582 0.034252 0.321934 -0.256637 0.065294 0.240522 0.092843 -0.828547 -0.102503 0.639649 0.243357 -0.130104 -0.556826 -0.016035 0.222047 0.031753 -0.088856 0.307257 -0.391399 -0.601024 0.307538 0.160506 0.348082 0.628304 -0.211468 0.115514 -0.324830 0.263328 -0.014636 0.128405 0.200545 -0.208327 -0.413779 -0.448715 -0.216185 -0.636976 0.340727 0.663949 -0.420974 -0.009873 -0.020241 -0.520349 -0.498829 0.151215 -0.639344 0.368526 0.220024 
etwas 0.078871 0.296801 -0.333746 0.089555 0.033636 0.326591 -0.258180 0.063373 0.240637 0.096101 -0.839890 -0.108607 0.644301 0.248815 -0.129396 -0.563704 -0.016606 0.225299 0.035369 -0.088269 0.311996 -0.398350 -0.603593 0.313206 0.164395 0.354979 0.638943 -0.210226 0.120232 -0.325046 0.261949 -0.012320 0.132586 0.201537 -0.210531 -0.420075 -0.455148 -0.217791 -0.646394 0.340697 0.672744 -0.423909 -0.011213 -0.020481 -0.526501 -0.501772 0.153805 -0.652022 0.374799 0.225184 
artikel 0.072730 0.258157 -0.289860 0.084551 0.029014 0.282932 -0.224714 0.058885 0.206948 0.084692 -0.736321 -0.092745 0.563682 0.215506 -0.118528 -0.492932 -0.013373 0.193498 0.030610 -0.076814 0.270661 -0.346697 -0.525971 0.273643 0.141512 0.305496 0.552543 -0.186670 0.105716 -0.284545 0.229061 -0.013325 0.110629 0.177975 -0.185484 -0.361424 -0.394967 -0.192056 -0.560150 0.297452 0.585319 -0.370228 -0.008003 -0.017388 -0.459991 -0.437825 0.133760 -0.563753 0.326764 0.193322 
% 0.050872 0.175597 -0.202660 0.046459 0.021423 0.196783 -0.158961 0.036980 0.146798 0.059985 -0.492595 -0.064199 0.379995 0.141479 -0.068282 -0.334863 -0.017268 0.126597 0.013860 -0.052937 0.182229 -0.227198 -0.358966 0.181150 0.109075 0.217336 0.380352 -0.115853 0.070977 -0.197540 0.159958 -0.008366 0.080965 0.115042 -0.130832 -0.264713 -0.277052 -0.132441 -0.381403 0.205452 0.398393 -0.257510 0.006058 -0.002493 -0.311196 -0.297366 0.100210 -0.393808 0.228618 0.134395 
wichtig 0.071451 0.276543 -0.306878 0.092674 0.032283 0.295970 -0.232791 0.060201 0.217594 0.087222 -0.777124 -0.093201 0.597104 0.231229 -0.132863 -0.521895 -0.005709 0.206255 0.034529 -0.078177 0.285274 -0.371718 -0.558473 0.292098 0.140255 0.317756 0.583530 -0.202632 0.109972 -0.298215 0.243806 -0.016474 0.119498 0.189575 -0.191308 -0.371935 -0.418104 -0.202811 -0.593820 0.313123 0.619412 -0.388405 -0.019599 -0.024895 -0.485980 -0.466523 0.138747 -0.593430 0.344357 0.206048 
darüber 0.059790 0.207647 -0.241536 0.057154 0.029049 0.228368 -0.182816 0.048165 0.172883 0.072486 -0.582861 -0.072738 0.446562 0.164135 -0.082494 -0.394504 -0.019355 0.156041 0.019351 -0.065411 0.215489 -0.267853 -0.425527 0.211004 0.126152 0.256612 0.452726 -0.138857 0.079729 -0.233192 0.188030 -0.008965 0.094065 0.131284 -0.152943 -0.308038 -0.325824 -0.155788 -0.449814 0.240592 0.467677 -0.303671 0.007327 -0.003303 -0.367443 -0.345028 0.116769 -0.461141 0.261344 0.157239 
einmal 0.063269 0.244636 -0.273525 0.081734 0.025354 0.262077 -0.207201 0.049881 0.192071 0.073836 -0.685453 -0.082254 0.524789 0.205820 -0.116409 -0.460324 -0.005506 0.181680 0.030218 -0.068389 0.253455 -0.326803 -0.489606 0.255253 0.127309 0.284907 0.518623 -0.180875 0.094791 -0.263921 0.212099 -0.013979 0.106748 0.167208 -0.169400 -0.328316 -0.370008 -0.179238 -0.526016 0.274626 0.547697 -0.341487 -0.014710 -0.021430 -0.425052 -0.410710 0.118081 -0.523657 0.303556 0.182766 
wieder 0.059443 0.208929 -0.242675 0.059365 0.023769 0.228715 -0.182705 0.046105 0.170749 0.074021 -0.585340 -0.078444 0.454225 0.173037 -0.084726 -0.394083 -0.021851 0.155045 0.019963 -0.064592 0.219323 -0.274122 -0.427340 0.211874 0.124187 0.255938 0.453767 -0.143777 0.082099 -0.235131 0.188587 -0.008840 0.095702 0.132845 -0.154281 -0.310716 -0.327054 -0.156772 -0.455013 0.245591 0.471964 -0.302704 0.002144 -0.005522 -0.371796 -0.351522 0.116302 -0.466240 0.265163 0.160496 
