3640 50
</s> 0.000000 0.000000 0.000000 0.000000 0.000000 0.000000 0.000000 0.000000 0.000000 0.000000 0.000000 0.000000 0.000000 0.000000 0.000000 0.000000 0.000000 0.000000 0.000000 0.000000 0.000000 0.000000 0.000000 0.000000 0.000000 0.000000 0.000000 0.000000 0.000000 0.000000 0.000000 0.000000 0.000000 0.000000 0.000000 0.000000 0.000000 0.000000 0.000000 0.000000 0.000000 0.000000 0.000000 0.000000 0.000000 0.000000 0.000000 0.000000 0.000000 0.000000 
the 0.043157 0.432917 -0.274751 0.356700 -0.020444 0.294543 -0.243430 0.031117 0.139866 0.018278 -1.233185 -0.068071 0.895395 0.438838 -0.456824 -0.767192 0.229479 0.329650 0.180342 -0.081300 0.426511 -0.707515 -0.735434 0.602473 -0.059039 0.266426 0.695168 -0.502444 0.199864 -0.317425 0.305248 -0.077504 0.096722 0.428705 -0.150049 -0.141742 -0.463234 -0.230473 -0.868521 0.342470 0.926820 -0.447319 -0.325249 -0.250894 -0.657160 -0.739070 -0.018610 -0.642552 0.460083 0.256725 
, 0.028766 0.397232 -0.225984 0.323551 -0.020994 0.251742 -0.208148 0.047633 0.127228 -0.010383 -1.099335 -0.032372 0.786777 0.395980 -0.411092 -0.666943 0.226224 0.303811 0.175101 -0.055466 0.375018 -0.634150 -0.631698 0.541921 -0.064630 0.207295 0.590022 -0.472297 0.186581 -0.272484 0.263777 -0.065520 0.084490 0.388026 -0.115963 -0.081491 -0.392779 -0.215185 -0.742852 0.297898 0.798396 -0.402712 -0.316025 -0.230083 -0.568475 -0.646818 -0.044598 -0.558849 0.387438 0.237424 
. 0.053145 0.455345 -0.301273 0.348994 -0.011715 0.317749 -0.263102 0.050234 0.182603 0.013679 -1.274476 -0.068200 0.921515 0.446376 -0.428605 -0.789074 0.203218 0.343235 0.159374 -0.088235 0.431079 -0.698803 -0.772263 0.602589 -0.031349 0.293445 0.721670 -0.507379 0.201213 -0.340843 0.333212 -0.063168 0.112390 0.408461 -0.161018 -0.181156 -0.504189 -0.265643 -0.885177 0.362664 0.952224 -0.479580 -0.315112 -0.233422 -0.680108 -0.760598 -0.007562 -0.700807 0.471305 0.275388 
of 0.057444 0.452047 -0.329415 0.311076 -0.002790 0.344009 -0.276695 0.054240 0.194984 0.028245 -1.264640 -0.083636 0.929130 0.425373 -0.397233 -0.793693 0.184413 0.357015 0.146015 -0.092967 0.441758 -0.689069 -0.790937 0.593768 0.009261 0.323447 0.764371 -0.469932 0.189200 -0.355972 0.340101 -0.061555 0.126407 0.406221 -0.189723 -0.246376 -0.515861 -0.263104 -0.902264 0.387939 0.963202 -0.497120 -0.276115 -0.196551 -0.704900 -0.756494 0.033062 -0.738387 0.494206 0.288762 
to 0.056043 0.402139 -0.291108 0.289038 -0.007539 0.301733 -0.237120 0.049511 0.184658 0.028645 -1.116621 -0.064149 0.820667 0.379448 -0.364473 -0.689658 0.162791 0.315097 0.134315 -0.077972 0.375382 -0.612519 -0.683098 0.513538 -0.012941 0.274303 0.660285 -0.416860 0.177714 -0.308889 0.302134 -0.057428 0.114436 0.365811 -0.154066 -0.190652 -0.460159 -0.231654 -0.787472 0.337935 0.840824 -0.438707 -0.259754 -0.177155 -0.610805 -0.666809 0.024153 -0.637068 0.430347 0.237311 
and 0.042628 0.394963 -0.270120 0.291718 -0.010031 0.287176 -0.233446 0.047415 0.171004 0.023364 -1.115046 -0.066886 0.812754 0.389808 -0.375736 -0.691654 0.166047 0.299484 0.140231 -0.076052 0.380706 -0.617672 -0.683101 0.523930 -0.015075 0.268636 0.662248 -0.431697 0.184227 -0.315526 0.298503 -0.067348 0.102536 0.362939 -0.163470 -0.186594 -0.455316 -0.230922 -0.794754 0.322453 0.843500 -0.429042 -0.270525 -0.189989 -0.598246 -0.657738 0.017006 -0.628464 0.423860 0.249442 
in 0.048351 0.337287 -0.246521 0.248101 -0.005083 0.250533 -0.211971 0.035713 0.144079 0.032923 -0.961525 -0.058706 0.691803 0.336362 -0.308546 -0.596873 0.142511 0.266471 0.110605 -0.068226 0.324603 -0.529528 -0.589936 0.454207 -0.004410 0.239451 0.563510 -0.376594 0.148569 -0.263156 0.256602 -0.043197 0.091202 0.305115 -0.133346 -0.169971 -0.392815 -0.208068 -0.670983 0.289692 0.722672 -0.379390 -0.219805 -0.162685 -0.515410 -0.570873 0.027254 -0.543062 0.364844 0.217072 
is 0.065292 0.387681 -0.284066 0.269588 -0.011179 0.292166 -0.237031 0.053301 0.183446 0.021119 -1.114718 -0.076097 0.806793 0.374855 -0.357112 -0.690867 0.164447 0.297922 0.127142 -0.080109 0.384252 -0.605589 -0.681819 0.511255 0.009591 0.279760 0.664878 -0.422066 0.174432 -0.311556 0.297378 -0.054636 0.102785 0.347805 -0.165018 -0.209486 -0.455548 -0.236073 -0.781330 0.337838 0.835967 -0.437482 -0.247591 -0.178594 -0.600432 -0.660229 0.025951 -0.638183 0.424876 0.246817 
that 0.060449 0.413340 -0.308467 0.279642 -0.011246 0.321135 -0.258142 0.056027 0.194936 0.041280 -1.162870 -0.078541 0.867548 0.393671 -0.364801 -0.734026 0.163104 0.316071 0.124719 -0.075508 0.409724 -0.634529 -0.737535 0.541498 0.016791 0.317302 0.714737 -0.442144 0.178173 -0.334128 0.318323 -0.054338 0.112698 0.366879 -0.171129 -0.243369 -0.503929 -0.254926 -0.835506 0.361449 0.888258 -0.468992 -0.249424 -0.173238 -0.649462 -0.691750 0.038906 -0.687902 0.457355 0.271745 
a 0.051093 0.365705 -0.280022 0.248326 -0.008439 0.283614 -0.242196 0.054610 0.172505 0.019977 -1.043434 -0.061319 0.762888 0.361936 -0.328002 -0.658456 0.140900 0.284104 0.122442 -0.070173 0.365603 -0.554313 -0.653393 0.483564 0.000668 0.267534 0.627950 -0.388927 0.166978 -0.291335 0.272262 -0.058131 0.098971 0.336773 -0.152192 -0.212138 -0.437411 -0.217202 -0.741055 0.318067 0.795359 -0.422341 -0.222104 -0.165160 -0.577412 -0.621291 0.040923 -0.601795 0.403728 0.239210 
this 0.060892 0.384973 -0.306385 0.244234 -0.001336 0.311832 -0.261390 0.053450 0.203139 0.041405 -1.105700 -0.085342 0.814075 0.370975 -0.336129 -0.703418 0.129746 0.303313 0.113813 -0.087377 0.386202 -0.594989 -0.705260 0.499080 0.038451 0.308242 0.691047 -0.399071 0.165614 -0.332026 0.300544 -0.045498 0.124101 0.344810 -0.179313 -0.259213 -0.480669 -0.247399 -0.792421 0.351403 0.843227 -0.463695 -0.209867 -0.159510 -0.618136 -0.663349 0.050504 -0.676209 0.435633 0.257425 
we 0.059725 0.400025 -0.326822 0.254465 -0.003569 0.325128 -0.266604 0.057566 0.207422 0.036892 -1.126526 -0.082627 0.831092 0.374155 -0.334005 -0.710016 0.129129 0.303979 0.115763 -0.075877 0.395441 -0.601687 -0.713432 0.497295 0.040722 0.313473 0.710253 -0.406115 0.176050 -0.331163 0.316056 -0.040370 0.115165 0.345901 -0.183309 -0.272229 -0.484271 -0.248464 -0.807872 0.359816 0.862310 -0.471989 -0.208224 -0.157642 -0.629681 -0.662338 0.054089 -0.689071 0.446905 0.265586 
for 0.057066 0.340635 -0.258985 0.224505 0.004838 0.271116 -0.216563 0.050408 0.164033 0.034535 -0.943017 -0.068011 0.699254 0.312140 -0.282717 -0.604535 0.112577 0.250457 0.104466 -0.073612 0.335614 -0.516157 -0.605738 0.424335 0.030246 0.259218 0.586622 -0.345294 0.151948 -0.287091 0.255620 -0.043045 0.089743 0.288981 -0.154491 -0.213334 -0.403952 -0.210130 -0.678537 0.289814 0.721793 -0.391722 -0.184513 -0.130961 -0.530835 -0.560718 0.045759 -0.578477 0.367139 0.213515 
i 0.074200 0.428492 -0.328334 0.286496 0.001509 0.334674 -0.272968 0.057303 0.210036 0.038331 -1.201738 -0.086981 0.888517 0.401540 -0.362542 -0.755152 0.151698 0.324092 0.132234 -0.083598 0.410383 -0.650332 -0.754144 0.546853 0.029182 0.321248 0.744055 -0.438773 0.181615 -0.358545 0.325902 -0.063168 0.128958 0.365504 -0.181184 -0.267100 -0.522218 -0.257882 -0.852255 0.377600 0.912633 -0.493657 -0.233134 -0.175838 -0.664900 -0.720188 0.047323 -0.715355 0.465418 0.279208 
be 0.058421 0.391821 -0.301537 0.256218 0.003247 0.308488 -0.256613 0.054344 0.203577 0.041162 -1.094628 -0.083941 0.806611 0.372672 -0.322586 -0.693886 0.123131 0.295658 0.117105 -0.082649 0.380487 -0.575281 -0.696768 0.493358 0.042398 0.301207 0.681201 -0.393284 0.162525 -0.327251 0.295513 -0.047711 0.115451 0.325843 -0.176364 -0.253701 -0.477396 -0.237943 -0.776742 0.351877 0.836116 -0.450729 -0.205152 -0.152459 -0.615633 -0.653611 0.046555 -0.663836 0.436115 0.248609 
it 0.058131 0.346342 -0.276797 0.219628 0.004550 0.286776 -0.233255 0.060241 0.180580 0.037282 -0.977598 -0.074976 0.726667 0.326137 -0.288893 -0.616272 0.103904 0.272973 0.099746 -0.076405 0.339562 -0.524123 -0.620901 0.433856 0.035854 0.290507 0.617840 -0.348986 0.148215 -0.296844 0.267902 -0.031767 0.110984 0.301266 -0.166205 -0.248170 -0.430441 -0.216718 -0.703564 0.314683 0.746086 -0.407022 -0.172879 -0.126435 -0.551549 -0.580837 0.053965 -0.605432 0.386688 0.238347 
on 0.059532 0.368796 -0.295919 0.241782 -0.001599 0.298121 -0.254987 0.054339 0.187736 0.039513 -1.059821 -0.077662 0.773227 0.357603 -0.308446 -0.661531 0.129154 0.287754 0.109210 -0.079831 0.372850 -0.557624 -0.670424 0.476347 0.032948 0.302053 0.655714 -0.381830 0.165039 -0.306372 0.282254 -0.049545 0.107740 0.325787 -0.178132 -0.254103 -0.457508 -0.232651 -0.765143 0.335598 0.801960 -0.432542 -0.196235 -0.143170 -0.586892 -0.629968 0.060886 -0.638151 0.411705 0.239495 
which 0.062154 0.383195 -0.313495 0.246865 0.003638 0.310369 -0.256464 0.051615 0.188837 0.038626 -1.080305 -0.082990 0.785823 0.358083 -0.318533 -0.690951 0.119639 0.291293 0.110300 -0.074233 0.379205 -0.578028 -0.688638 0.488321 0.032501 0.303632 0.681526 -0.381674 0.171578 -0.330123 0.300567 -0.049560 0.116993 0.324216 -0.177356 -0.265712 -0.468460 -0.241466 -0.775852 0.344164 0.830790 -0.445077 -0.194598 -0.151934 -0.599255 -0.645139 0.051098 -0.664815 0.423823 0.246699 
are 0.053005 0.351088 -0.270123 0.234332 0.002597 0.274140 -0.222453 0.054204 0.168915 0.028484 -0.995873 -0.071433 0.724284 0.344134 -0.304528 -0.625024 0.120136 0.269181 0.105157 -0.080507 0.347536 -0.537148 -0.615241 0.454072 0.020207 0.265355 0.605193 -0.365649 0.161896 -0.289501 0.271403 -0.048185 0.104073 0.305280 -0.153827 -0.214758 -0.417497 -0.217478 -0.706009 0.306061 0.747756 -0.402391 -0.190269 -0.148953 -0.549253 -0.593787 0.036673 -0.585440 0.381376 0.229727 
as 0.045999 0.291243 -0.232381 0.196029 -0.004307 0.237938 -0.194417 0.043597 0.147025 0.031855 -0.845859 -0.064385 0.613897 0.281374 -0.252673 -0.535506 0.099346 0.222259 0.097582 -0.065698 0.285972 -0.455980 -0.530914 0.379990 0.020245 0.228240 0.519910 -0.312481 0.137077 -0.253231 0.226821 -0.041905 0.083454 0.257379 -0.138240 -0.187091 -0.367092 -0.182318 -0.599563 0.260091 0.644833 -0.343433 -0.161963 -0.122493 -0.472354 -0.501533 0.043610 -0.505615 0.331506 0.196711 
have 0.055684 0.328708 -0.259275 0.219208 -0.002493 0.271007 -0.214584 0.042443 0.161581 0.028322 -0.945441 -0.072383 0.695839 0.316922 -0.285375 -0.594479 0.118911 0.256254 0.107543 -0.071111 0.322950 -0.506893 -0.596834 0.429983 0.023875 0.256219 0.583071 -0.341804 0.146160 -0.277692 0.252573 -0.040500 0.103363 0.296756 -0.143437 -0.208483 -0.399823 -0.206158 -0.672985 0.292602 0.717921 -0.380851 -0.176809 -0.133561 -0.530748 -0.561144 0.039006 -0.570242 0.361644 0.215589 
not 0.055179 0.361971 -0.287607 0.230187 0.006638 0.302922 -0.240259 0.051326 0.186063 0.036413 -1.017961 -0.079887 0.752931 0.346315 -0.297742 -0.653420 0.107330 0.276706 0.106149 -0.076966 0.358287 -0.546000 -0.652048 0.448219 0.040629 0.297982 0.651344 -0.361328 0.155255 -0.303699 0.282323 -0.043613 0.112870 0.310792 -0.167263 -0.257306 -0.444306 -0.224575 -0.736452 0.327298 0.784033 -0.427390 -0.180937 -0.137859 -0.571896 -0.607973 0.049774 -0.628345 0.407803 0.240214 
with 0.052892 0.340894 -0.269931 0.216687 0.004994 0.280499 -0.229525 0.047257 0.172799 0.035268 -0.965968 -0.072650 0.706578 0.323676 -0.283131 -0.608439 0.109697 0.261246 0.101064 -0.076683 0.323362 -0.512727 -0.612546 0.429364 0.031049 0.268165 0.599749 -0.351335 0.151997 -0.284039 0.260630 -0.046910 0.105558 0.293492 -0.158509 -0.226083 -0.412725 -0.212276 -0.684326 0.300996 0.732790 -0.393918 -0.181415 -0.138875 -0.538875 -0.571330 0.043149 -0.583043 0.375874 0.217693 
will 0.052636 0.333141 -0.252081 0.226722 0.001357 0.268513 -0.215634 0.043161 0.158966 0.031132 -0.930816 -0.063421 0.683361 0.325501 -0.273856 -0.581398 0.119185 0.258702 0.102069 -0.065475 0.323670 -0.496866 -0.578416 0.424615 0.014683 0.251505 0.565932 -0.333436 0.148367 -0.269125 0.251869 -0.042254 0.095677 0.290226 -0.141543 -0.198139 -0.393941 -0.204207 -0.665449 0.289295 0.705721 -0.376681 -0.175696 -0.141487 -0.513314 -0.555825 0.039125 -0.551227 0.364055 0.209048 
european 0.057381 0.338238 -0.277210 0.213867 -0.000353 0.279564 -0.229078 0.045812 0.181124 0.038800 -0.961659 -0.076906 0.714700 0.320476 -0.278385 -0.610142 0.109870 0.261579 0.095292 -0.075552 0.340237 -0.517031 -0.615942 0.430694 0.042653 0.276079 0.606829 -0.347597 0.148791 -0.295200 0.265538 -0.039393 0.107021 0.296598 -0.160122 -0.244890 -0.422586 -0.216165 -0.697436 0.314155 0.740327 -0.401150 -0.172540 -0.127446 -0.541076 -0.572016 0.058846 -0.598523 0.381749 0.227533 
commission 0.063609 0.401430 -0.330705 0.238385 0.007018 0.330011 -0.271106 0.061544 0.216629 0.051330 -1.128166 -0.090112 0.830861 0.369389 -0.323019 -0.715432 0.113588 0.305476 0.113760 -0.089603 0.392110 -0.596385 -0.728658 0.494730 0.051756 0.331821 0.715590 -0.392019 0.173782 -0.349345 0.309687 -0.044594 0.125334 0.338883 -0.189784 -0.292326 -0.497079 -0.249731 -0.814904 0.370145 0.866618 -0.468278 -0.192937 -0.142685 -0.638728 -0.672325 0.071130 -0.706834 0.448861 0.268945 
by 0.064189 0.360241 -0.290544 0.234660 0.001193 0.285797 -0.237244 0.055579 0.185650 0.043826 -1.014450 -0.072128 0.749466 0.342902 -0.296799 -0.643523 0.116204 0.282321 0.103671 -0.071565 0.349394 -0.546196 -0.637672 0.452961 0.038380 0.280283 0.640416 -0.367910 0.155801 -0.305445 0.277593 -0.044169 0.111718 0.314477 -0.166342 -0.247876 -0.444459 -0.223848 -0.732273 0.322160 0.777649 -0.423757 -0.185542 -0.137319 -0.571949 -0.604738 0.054189 -0.625273 0.396396 0.238105 
has 0.055220 0.354627 -0.277482 0.225730 0.008225 0.280840 -0.226707 0.053556 0.174610 0.035391 -0.976149 -0.073854 0.723576 0.328267 -0.283589 -0.620001 0.111725 0.265391 0.105260 -0.076837 0.336523 -0.515963 -0.619258 0.438348 0.030443 0.276273 0.606420 -0.351140 0.145134 -0.292137 0.267431 -0.043863 0.109976 0.300431 -0.158796 -0.232616 -0.421587 -0.217574 -0.695884 0.313397 0.749310 -0.404991 -0.179417 -0.136143 -0.545935 -0.582722 0.050848 -0.595918 0.382919 0.228399 
' 0.058569 0.354183 -0.286188 0.214928 0.001898 0.293349 -0.241697 0.054629 0.180043 0.044389 -0.986319 -0.079301 0.723415 0.324189 -0.279428 -0.617490 0.100916 0.269660 0.093821 -0.079492 0.347182 -0.521938 -0.629071 0.436211 0.050286 0.287484 0.626196 -0.344638 0.152182 -0.299261 0.275236 -0.039721 0.105715 0.301738 -0.166171 -0.260005 -0.435945 -0.217626 -0.707876 0.320562 0.757184 -0.414954 -0.164246 -0.123547 -0.552595 -0.587730 0.060438 -0.614929 0.391221 0.230094 
mr 0.068077 0.407357 -0.323312 0.259203 0.003154 0.326127 -0.261953 0.060606 0.207838 0.042462 -1.138971 -0.078358 0.835113 0.378639 -0.331910 -0.720763 0.125410 0.311906 0.120464 -0.092920 0.395018 -0.607190 -0.721917 0.509530 0.040382 0.324796 0.713752 -0.405565 0.176496 -0.341272 0.314679 -0.052527 0.120058 0.349419 -0.194276 -0.282288 -0.493002 -0.251917 -0.814760 0.364307 0.863821 -0.472472 -0.202585 -0.157257 -0.635489 -0.678914 0.058459 -0.696670 0.442002 0.262491 
would 0.053240 0.328899 -0.271354 0.208077 0.002152 0.264507 -0.221438 0.048742 0.170239 0.032789 -0.924807 -0.070226 0.681547 0.310148 -0.264395 -0.586318 0.103978 0.250172 0.085657 -0.073165 0.320984 -0.489086 -0.589404 0.409326 0.040964 0.263032 0.581844 -0.326107 0.144092 -0.281613 0.256379 -0.041911 0.105851 0.286152 -0.151503 -0.234394 -0.408971 -0.204040 -0.662318 0.305688 0.707693 -0.391576 -0.160243 -0.121593 -0.514789 -0.551246 0.050185 -0.568507 0.366541 0.212127 
an 0.054635 0.330595 -0.279953 0.189352 0.006327 0.284057 -0.229823 0.053218 0.190007 0.048405 -0.926999 -0.076017 0.685534 0.302041 -0.246111 -0.590491 0.077988 0.249877 0.088107 -0.079483 0.326030 -0.475237 -0.598236 0.400521 0.066285 0.280391 0.600780 -0.312914 0.141696 -0.295613 0.258934 -0.033089 0.105674 0.276007 -0.169162 -0.273612 -0.419116 -0.215939 -0.671015 0.311473 0.711336 -0.399823 -0.134836 -0.111173 -0.529455 -0.551714 0.076560 -0.597353 0.375857 0.221210 
at 0.059504 0.329924 -0.267307 0.203087 0.007092 0.271201 -0.221236 0.044899 0.172644 0.033549 -0.928719 -0.070844 0.682398 0.311100 -0.265605 -0.588672 0.096656 0.247280 0.091392 -0.075233 0.327092 -0.486609 -0.591649 0.410337 0.041822 0.266554 0.588212 -0.321895 0.146826 -0.282871 0.253076 -0.038083 0.101819 0.284768 -0.155112 -0.241541 -0.410651 -0.206429 -0.664656 0.300405 0.709111 -0.385583 -0.155198 -0.120491 -0.520275 -0.551853 0.047919 -0.572414 0.362130 0.218450 
but 0.058645 0.323493 -0.276419 0.195891 0.005576 0.274744 -0.226217 0.053192 0.175668 0.036695 -0.922111 -0.076035 0.685241 0.299837 -0.260989 -0.595230 0.093164 0.249652 0.091149 -0.076656 0.327013 -0.488521 -0.600328 0.411375 0.051652 0.273816 0.595155 -0.320011 0.139380 -0.285872 0.254596 -0.035064 0.102802 0.278374 -0.157853 -0.253713 -0.414775 -0.207122 -0.665526 0.298460 0.708173 -0.389268 -0.147648 -0.117894 -0.529798 -0.553622 0.063651 -0.580891 0.369402 0.219109 
should 0.048735 0.337873 -0.258537 0.214379 0.000949 0.261992 -0.212767 0.046733 0.172900 0.033285 -0.925772 -0.065941 0.676772 0.315288 -0.277504 -0.589105 0.107641 0.251142 0.100432 -0.068808 0.320534 -0.503818 -0.586936 0.421259 0.027102 0.254635 0.573786 -0.332627 0.143425 -0.276513 0.256934 -0.041595 0.102706 0.284715 -0.146645 -0.223426 -0.403426 -0.203548 -0.663417 0.296556 0.710081 -0.384440 -0.179368 -0.132682 -0.518142 -0.560895 0.040820 -0.567204 0.365576 0.210975 
also 0.054304 0.303495 -0.250680 0.175940 0.008464 0.255691 -0.204730 0.043320 0.168852 0.042673 -0.848284 -0.068502 0.624176 0.282708 -0.230130 -0.540208 0.082867 0.229464 0.082079 -0.066594 0.297047 -0.442012 -0.550027 0.371267 0.048673 0.247743 0.550464 -0.292404 0.128895 -0.264809 0.240182 -0.031882 0.094039 0.249564 -0.148439 -0.235649 -0.378424 -0.193419 -0.611497 0.281490 0.652349 -0.354911 -0.139291 -0.111456 -0.479737 -0.506322 0.054170 -0.538740 0.338447 0.199301 
you 0.066730 0.381823 -0.310006 0.235230 0.002887 0.312952 -0.257883 0.063454 0.196385 0.043703 -1.071109 -0.084874 0.791574 0.357473 -0.306678 -0.673722 0.117154 0.289038 0.112620 -0.084250 0.374374 -0.572775 -0.681363 0.477067 0.048676 0.312775 0.682012 -0.376768 0.163159 -0.323796 0.291777 -0.050124 0.120810 0.325406 -0.179068 -0.271363 -0.476476 -0.239388 -0.771511 0.344002 0.817615 -0.446907 -0.181149 -0.137796 -0.601559 -0.638430 0.062862 -0.664213 0.421875 0.253623 
all 0.057454 0.336508 -0.295107 0.192949 0.008598 0.288651 -0.227975 0.050047 0.183705 0.048475 -0.942711 -0.075189 0.701572 0.308549 -0.255657 -0.601062 0.085125 0.252119 0.090450 -0.076148 0.329837 -0.492542 -0.615127 0.406828 0.056325 0.283414 0.610997 -0.324841 0.149549 -0.292487 0.262884 -0.036053 0.106623 0.273694 -0.167558 -0.268033 -0.430683 -0.213968 -0.685726 0.315725 0.727502 -0.402805 -0.141837 -0.107840 -0.537582 -0.564667 0.065309 -0.603507 0.375902 0.227106 
must 0.062942 0.368696 -0.306879 0.226399 0.003826 0.302951 -0.246395 0.054652 0.199272 0.048516 -1.039927 -0.079622 0.764010 0.345107 -0.292415 -0.657372 0.100977 0.275309 0.104242 -0.086230 0.366429 -0.545535 -0.665190 0.457461 0.053321 0.305915 0.660440 -0.365805 0.163943 -0.316838 0.283487 -0.046671 0.117394 0.309083 -0.175569 -0.269839 -0.459592 -0.231183 -0.751802 0.340602 0.794027 -0.434810 -0.173143 -0.130871 -0.586712 -0.617851 0.061892 -0.647033 0.415793 0.242202 
there 0.049921 0.324752 -0.254134 0.207861 0.005694 0.257392 -0.211368 0.048588 0.165654 0.034836 -0.911531 -0.067503 0.667401 0.303476 -0.276507 -0.579146 0.105914 0.248027 0.098237 -0.068464 0.318693 -0.485781 -0.582818 0.415154 0.030496 0.254046 0.573148 -0.329410 0.142355 -0.273612 0.248978 -0.036511 0.099275 0.279290 -0.145379 -0.215543 -0.396472 -0.199547 -0.655877 0.290688 0.699959 -0.371961 -0.172960 -0.128123 -0.509786 -0.540361 0.045640 -0.549391 0.355203 0.214531 
s 0.073611 0.379325 -0.326008 0.225984 0.011387 0.322541 -0.263430 0.061165 0.215063 0.054030 -1.072702 -0.092393 0.800659 0.356331 -0.293816 -0.692172 0.098819 0.290419 0.100775 -0.089391 0.378363 -0.558296 -0.695106 0.461938 0.065336 0.325675 0.698456 -0.366270 0.166496 -0.339622 0.299570 -0.048852 0.124482 0.315785 -0.190897 -0.306824 -0.483368 -0.244944 -0.779658 0.357814 0.831996 -0.461311 -0.167141 -0.130666 -0.612024 -0.644407 0.074503 -0.682439 0.432979 0.257723 
our 0.065181 0.390589 -0.319463 0.244849 0.008252 0.318922 -0.257156 0.056441 0.202432 0.045665 -1.100148 -0.085691 0.810024 0.368151 -0.314043 -0.697723 0.112425 0.300365 0.106397 -0.088124 0.385506 -0.587850 -0.701160 0.491051 0.044963 0.316509 0.696749 -0.389430 0.165999 -0.338531 0.302526 -0.051836 0.114504 0.332438 -0.183685 -0.277229 -0.480165 -0.249251 -0.792610 0.360605 0.836229 -0.462806 -0.189160 -0.146259 -0.619771 -0.659129 0.060206 -0.677560 0.435076 0.258388 
president 0.080437 0.421216 -0.353880 0.247795 0.007673 0.357457 -0.291818 0.064601 0.233298 0.057261 -1.182659 -0.093919 0.872905 0.391156 -0.326602 -0.756033 0.107510 0.315734 0.109133 -0.093663 0.421155 -0.621644 -0.763195 0.515712 0.072159 0.348597 0.763034 -0.403194 0.185580 -0.365741 0.328961 -0.045398 0.129297 0.346177 -0.207931 -0.328411 -0.530200 -0.266229 -0.855208 0.394445 0.905365 -0.506348 -0.187426 -0.143890 -0.672256 -0.706799 0.081306 -0.747058 0.469405 0.281233 
parliament 0.061816 0.352049 -0.296207 0.211708 0.010237 0.293736 -0.239159 0.056741 0.180712 0.051335 -0.986162 -0.081322 0.727424 0.332453 -0.276021 -0.630767 0.093950 0.263642 0.093871 -0.080821 0.345283 -0.525672 -0.627571 0.429317 0.054396 0.289114 0.625799 -0.341655 0.150780 -0.308676 0.272620 -0.039873 0.111043 0.292073 -0.167547 -0.265919 -0.435566 -0.227332 -0.709297 0.327459 0.751811 -0.417812 -0.157734 -0.121838 -0.560641 -0.588681 0.070747 -0.621025 0.395320 0.229190 
- 0.062469 0.347583 -0.291109 0.209010 0.010906 0.296335 -0.235376 0.052675 0.190330 0.053650 -0.978623 -0.079855 0.726962 0.322787 -0.270671 -0.629008 0.094466 0.265487 0.092685 -0.081650 0.345562 -0.515236 -0.636029 0.428859 0.054477 0.300742 0.632262 -0.338811 0.150220 -0.303790 0.272348 -0.041626 0.111485 0.296672 -0.168902 -0.264107 -0.437846 -0.219212 -0.707355 0.325424 0.757806 -0.415780 -0.164205 -0.117513 -0.560097 -0.586504 0.061153 -0.618022 0.396021 0.228752 
from 0.050358 0.336083 -0.267190 0.215454 0.003396 0.268143 -0.221525 0.045239 0.167318 0.034759 -0.947758 -0.068931 0.695051 0.320100 -0.280038 -0.601923 0.108640 0.259815 0.101410 -0.071181 0.327141 -0.508184 -0.597709 0.423426 0.029140 0.264786 0.591376 -0.341175 0.150024 -0.276108 0.255053 -0.044148 0.094857 0.293219 -0.149607 -0.224843 -0.408050 -0.204210 -0.675426 0.297286 0.723550 -0.393164 -0.181350 -0.131754 -0.531533 -0.560619 0.043854 -0.578633 0.368950 0.222190 
been 0.061603 0.350834 -0.291410 0.204674 0.003905 0.293132 -0.236424 0.055305 0.185045 0.040617 -0.977804 -0.079343 0.723791 0.328496 -0.273136 -0.625380 0.101102 0.268794 0.097610 -0.079484 0.342150 -0.519127 -0.628614 0.429635 0.051984 0.291785 0.630148 -0.340303 0.154301 -0.302727 0.271274 -0.039894 0.106287 0.295807 -0.172480 -0.262083 -0.433137 -0.220977 -0.713137 0.319178 0.750357 -0.417349 -0.161892 -0.123781 -0.556987 -0.587959 0.063389 -0.615935 0.396723 0.228978 
union 0.063249 0.356226 -0.305696 0.200448 0.007609 0.303652 -0.245890 0.063195 0.203431 0.054856 -1.002020 -0.089051 0.748296 0.328411 -0.265966 -0.647505 0.090703 0.270630 0.096867 -0.084723 0.348397 -0.522581 -0.652995 0.430949 0.065189 0.304086 0.655859 -0.338804 0.152886 -0.314644 0.285078 -0.036015 0.116098 0.291461 -0.182576 -0.291411 -0.455374 -0.227692 -0.724230 0.341813 0.773766 -0.436485 -0.154315 -0.114623 -0.574403 -0.598457 0.078381 -0.649969 0.404931 0.234794 
these 0.061339 0.338055 -0.279916 0.205644 0.002283 0.285513 -0.227433 0.052935 0.184559 0.041209 -0.962174 -0.076847 0.708377 0.323486 -0.265323 -0.611865 0.096661 0.263506 0.094154 -0.080753 0.334474 -0.508019 -0.613073 0.421210 0.045370 0.285071 0.613953 -0.333950 0.146274 -0.292663 0.268980 -0.044917 0.105655 0.289210 -0.165931 -0.253840 -0.427639 -0.214157 -0.694427 0.316111 0.735512 -0.405609 -0.157644 -0.117857 -0.547143 -0.573414 0.061779 -0.597739 0.383530 0.227747 
can 0.053325 0.338911 -0.277484 0.207471 0.007394 0.279059 -0.228305 0.052400 0.180725 0.044021 -0.962109 -0.079081 0.704781 0.320120 -0.274362 -0.613884 0.097458 0.257902 0.088710 -0.074516 0.332854 -0.509576 -0.610811 0.424978 0.038065 0.275867 0.609187 -0.339749 0.150216 -0.291305 0.259129 -0.042743 0.103980 0.289041 -0.162204 -0.244239 -0.424499 -0.212446 -0.687233 0.311977 0.737029 -0.401406 -0.169183 -0.129163 -0.542805 -0.569251 0.055816 -0.590068 0.380894 0.227818 
like 0.057643 0.346231 -0.284897 0.206196 0.006571 0.288065 -0.234337 0.052003 0.183283 0.040869 -0.966309 -0.080280 0.715153 0.319123 -0.266689 -0.611651 0.096299 0.256411 0.091010 -0.081055 0.339604 -0.509026 -0.617885 0.425552 0.045296 0.284065 0.618239 -0.330025 0.148961 -0.301976 0.270698 -0.036987 0.105047 0.294617 -0.170500 -0.263421 -0.427519 -0.219746 -0.695044 0.320432 0.735726 -0.409015 -0.156058 -0.120829 -0.549860 -0.574338 0.058424 -0.602663 0.384871 0.222592 
00 0.044861 0.259908 -0.207690 0.166416 -0.005371 0.207222 -0.165330 0.039368 0.127780 0.027302 -0.737135 -0.055247 0.538698 0.250121 -0.218073 -0.466986 0.090631 0.205478 0.076442 -0.048648 0.256197 -0.394893 -0.462126 0.328897 0.021647 0.200795 0.457082 -0.267707 0.115728 -0.219111 0.199921 -0.035058 0.077935 0.231248 -0.117349 -0.172282 -0.318297 -0.157371 -0.529344 0.234916 0.564197 -0.300268 -0.142557 -0.105332 -0.411756 -0.439967 0.032072 -0.448833 0.291065 0.170052 
more 0.053676 0.301477 -0.256488 0.174707 0.005508 0.258790 -0.209210 0.040978 0.160303 0.035955 -0.842470 -0.068530 0.628521 0.279070 -0.228429 -0.537802 0.081381 0.234160 0.075146 -0.069599 0.296875 -0.443797 -0.547498 0.370121 0.046766 0.258474 0.545924 -0.288878 0.126059 -0.263995 0.235314 -0.036542 0.099712 0.253115 -0.147745 -0.236256 -0.382693 -0.189826 -0.619097 0.280672 0.647628 -0.358214 -0.134984 -0.098826 -0.483965 -0.511628 0.061694 -0.537891 0.338996 0.201359 
or 0.064805 0.375860 -0.309080 0.226085 0.002506 0.312636 -0.251458 0.057513 0.205103 0.052513 -1.046705 -0.089866 0.775488 0.348768 -0.289298 -0.671734 0.101593 0.284054 0.098699 -0.083820 0.363707 -0.556552 -0.672433 0.458803 0.055987 0.312354 0.668772 -0.360883 0.162612 -0.321467 0.288927 -0.041598 0.118762 0.310329 -0.183195 -0.287093 -0.463835 -0.234529 -0.758198 0.340392 0.808087 -0.437936 -0.171320 -0.126706 -0.595161 -0.627003 0.067847 -0.660562 0.416484 0.247335 
do 0.063823 0.355327 -0.312223 0.197279 0.007468 0.305261 -0.243284 0.056684 0.204058 0.056245 -1.000744 -0.085641 0.741657 0.327690 -0.264816 -0.641684 0.087313 0.271641 0.089590 -0.080066 0.349950 -0.518541 -0.656510 0.430363 0.065761 0.309693 0.648771 -0.336540 0.153085 -0.317563 0.282102 -0.042248 0.116461 0.289466 -0.181382 -0.291242 -0.458043 -0.223116 -0.725991 0.335645 0.770780 -0.431982 -0.147950 -0.117598 -0.573710 -0.595737 0.078941 -0.638977 0.405215 0.238402 
its 0.056171 0.340868 -0.299482 0.193408 0.014282 0.296504 -0.243706 0.057991 0.197183 0.050324 -0.960602 -0.082735 0.713362 0.318006 -0.249869 -0.616322 0.081840 0.258994 0.083890 -0.079561 0.336814 -0.494213 -0.624008 0.412885 0.071361 0.299801 0.629442 -0.323736 0.149564 -0.309021 0.271370 -0.038357 0.112061 0.279743 -0.170076 -0.283194 -0.440245 -0.220710 -0.693435 0.330413 0.737806 -0.415990 -0.139477 -0.106423 -0.551192 -0.574044 0.079537 -0.617702 0.388675 0.231435 
what 0.063741 0.323008 -0.280027 0.187149 0.008422 0.279621 -0.228112 0.049377 0.183555 0.047028 -0.910652 -0.080321 0.678420 0.299990 -0.243595 -0.584431 0.083695 0.243948 0.082996 -0.079231 0.316607 -0.475324 -0.594058 0.391212 0.060633 0.282113 0.593728 -0.310220 0.135130 -0.287682 0.253686 -0.039247 0.108786 0.266256 -0.165332 -0.269994 -0.413243 -0.210478 -0.666091 0.304167 0.700657 -0.392611 -0.133299 -0.108202 -0.521110 -0.541978 0.069009 -0.582209 0.367908 0.219219 
if 0.056907 0.325602 -0.286035 0.187011 0.010974 0.286134 -0.228149 0.053840 0.192282 0.047608 -0.926923 -0.079777 0.686350 0.300685 -0.247880 -0.596035 0.075390 0.251512 0.083421 -0.074130 0.327261 -0.476165 -0.600779 0.393855 0.062030 0.287460 0.601675 -0.311436 0.139349 -0.295068 0.260063 -0.032653 0.112841 0.267505 -0.168234 -0.270654 -0.417809 -0.208878 -0.670697 0.312355 0.714167 -0.398005 -0.136652 -0.107185 -0.528723 -0.552995 0.073373 -0.594567 0.372952 0.224017 
one 0.060256 0.325237 -0.274572 0.195671 0.008747 0.269802 -0.221356 0.045690 0.179167 0.043764 -0.921639 -0.073666 0.677865 0.306962 -0.253855 -0.593121 0.085983 0.248913 0.087700 -0.076875 0.321155 -0.482686 -0.591886 0.402956 0.048084 0.277124 0.592347 -0.318536 0.144528 -0.285761 0.257337 -0.037787 0.105677 0.277119 -0.159831 -0.248363 -0.413316 -0.206613 -0.668086 0.305483 0.703558 -0.392983 -0.150916 -0.112171 -0.526621 -0.552901 0.057573 -0.579498 0.366523 0.218292 
was 0.039770 0.278111 -0.214725 0.188762 0.004023 0.213316 -0.178178 0.035947 0.133879 0.026693 -0.789284 -0.054690 0.577093 0.270320 -0.239005 -0.495791 0.099584 0.210175 0.084877 -0.055629 0.270413 -0.427134 -0.497529 0.356898 0.015825 0.210065 0.482679 -0.291212 0.122390 -0.228779 0.211537 -0.039282 0.077382 0.247482 -0.118296 -0.170978 -0.333376 -0.169619 -0.563808 0.241198 0.600406 -0.312833 -0.160511 -0.120417 -0.437366 -0.465715 0.026697 -0.465306 0.300216 0.176518 
europe 0.059548 0.350011 -0.290083 0.210407 0.001443 0.287478 -0.238806 0.057509 0.190255 0.046560 -0.973610 -0.069422 0.716860 0.329449 -0.273821 -0.625817 0.097091 0.270262 0.099036 -0.073995 0.351381 -0.515271 -0.626181 0.427972 0.052305 0.296701 0.623810 -0.339271 0.144514 -0.305502 0.263879 -0.040103 0.109280 0.286811 -0.168519 -0.262274 -0.435155 -0.222937 -0.705295 0.324798 0.746984 -0.415297 -0.154040 -0.120801 -0.558946 -0.580220 0.061740 -0.608992 0.387350 0.232798 
0000 0.059607 0.331055 -0.267028 0.207932 0.005064 0.272622 -0.219334 0.052300 0.175498 0.040493 -0.930831 -0.071955 0.687679 0.311365 -0.267033 -0.589789 0.101073 0.253747 0.092860 -0.073417 0.328628 -0.497988 -0.591463 0.416658 0.034914 0.266732 0.584980 -0.333747 0.145419 -0.280639 0.249754 -0.039574 0.099798 0.283267 -0.154199 -0.232109 -0.405192 -0.207654 -0.668402 0.303333 0.714471 -0.389705 -0.162744 -0.122250 -0.523208 -0.557743 0.049432 -0.568672 0.362554 0.213502 
so 0.059585 0.351768 -0.295417 0.212647 0.008503 0.290266 -0.238116 0.055297 0.193305 0.044285 -0.988420 -0.083127 0.730362 0.331343 -0.275835 -0.629104 0.095227 0.265437 0.091045 -0.079222 0.348525 -0.524194 -0.637318 0.436385 0.055617 0.292321 0.633036 -0.343429 0.152868 -0.309501 0.274758 -0.039890 0.106426 0.299335 -0.168404 -0.268909 -0.440509 -0.220883 -0.716377 0.329027 0.760553 -0.417073 -0.160435 -0.124172 -0.565627 -0.592083 0.064058 -0.620469 0.398919 0.236131 
they 0.053244 0.316380 -0.265591 0.188764 0.007048 0.271331 -0.218161 0.045006 0.168919 0.038232 -0.896722 -0.070750 0.663954 0.301116 -0.250685 -0.573069 0.086967 0.244706 0.082410 -0.072353 0.314722 -0.471797 -0.575409 0.393764 0.047178 0.268917 0.578626 -0.310869 0.138030 -0.280527 0.247797 -0.039413 0.100399 0.269022 -0.155007 -0.250024 -0.407939 -0.202009 -0.649442 0.292018 0.692048 -0.382080 -0.146439 -0.113968 -0.510418 -0.541854 0.055855 -0.563338 0.355843 0.210203 
member 0.058457 0.311144 -0.270011 0.178364 0.007880 0.270954 -0.215429 0.052528 0.176915 0.045511 -0.873141 -0.071876 0.651053 0.283700 -0.234742 -0.564608 0.073941 0.236514 0.077799 -0.075543 0.305394 -0.455341 -0.574440 0.377685 0.059312 0.271969 0.570511 -0.294321 0.134903 -0.278199 0.246973 -0.034439 0.103383 0.255150 -0.156339 -0.254440 -0.402248 -0.198966 -0.636832 0.294563 0.669463 -0.375578 -0.128054 -0.102167 -0.499488 -0.523482 0.066889 -0.560098 0.350861 0.205252 
report 0.056610 0.364772 -0.300659 0.222194 0.006091 0.302665 -0.244857 0.055962 0.187307 0.046582 -1.020171 -0.082164 0.761574 0.345266 -0.290211 -0.649755 0.110795 0.279673 0.102726 -0.079614 0.356209 -0.543794 -0.654323 0.456088 0.051256 0.296823 0.650172 -0.360724 0.154213 -0.314705 0.277109 -0.045815 0.114869 0.309075 -0.176011 -0.264349 -0.453031 -0.226249 -0.739422 0.333332 0.783855 -0.430954 -0.172062 -0.129043 -0.576246 -0.614140 0.063458 -0.634917 0.407961 0.241598 
their 0.052565 0.306999 -0.251093 0.196764 0.002968 0.251000 -0.202418 0.047853 0.156657 0.034711 -0.868142 -0.065476 0.638405 0.295305 -0.256350 -0.547839 0.094058 0.236212 0.087093 -0.062474 0.299754 -0.466833 -0.549096 0.386593 0.032724 0.237763 0.538672 -0.314334 0.139731 -0.264673 0.235782 -0.040872 0.091144 0.265453 -0.143882 -0.212452 -0.376664 -0.191986 -0.624567 0.284684 0.665168 -0.359698 -0.153615 -0.116665 -0.484621 -0.517805 0.041887 -0.528414 0.343900 0.198453 
my 0.063088 0.326629 -0.271563 0.190998 0.006121 0.278021 -0.220516 0.053384 0.179305 0.045022 -0.908428 -0.075979 0.673567 0.298125 -0.248228 -0.582446 0.084921 0.246418 0.081151 -0.071601 0.319881 -0.477858 -0.587596 0.398229 0.056289 0.275568 0.582336 -0.307372 0.141935 -0.285641 0.253129 -0.031500 0.101931 0.269718 -0.155106 -0.254900 -0.407707 -0.205811 -0.657935 0.306476 0.697917 -0.390129 -0.139150 -0.108176 -0.518560 -0.538569 0.066072 -0.570894 0.359449 0.218779 
very 0.062435 0.351881 -0.292480 0.208976 0.009420 0.297936 -0.242970 0.055847 0.188563 0.039855 -0.982711 -0.078277 0.727642 0.333515 -0.274369 -0.627720 0.095927 0.265503 0.093555 -0.080092 0.346748 -0.520429 -0.637220 0.428257 0.054200 0.292773 0.631663 -0.346056 0.147473 -0.305578 0.271775 -0.042100 0.112042 0.294334 -0.173549 -0.267669 -0.437248 -0.222732 -0.716116 0.322378 0.758904 -0.416693 -0.155640 -0.125291 -0.563169 -0.584174 0.064521 -0.618658 0.395416 0.233470 
states 0.057108 0.311615 -0.271963 0.175040 0.009888 0.277053 -0.221392 0.057218 0.181372 0.048994 -0.877448 -0.075350 0.656562 0.286892 -0.230577 -0.567907 0.071161 0.237562 0.077011 -0.073914 0.307071 -0.456291 -0.577320 0.382818 0.063688 0.279440 0.577922 -0.290410 0.134354 -0.281079 0.247735 -0.028926 0.102721 0.257377 -0.161912 -0.266213 -0.399016 -0.197600 -0.637142 0.302781 0.678804 -0.383968 -0.125587 -0.095592 -0.508955 -0.526368 0.073769 -0.571552 0.357835 0.208820 
no 0.043003 0.271283 -0.231093 0.158538 0.004654 0.224855 -0.181312 0.039971 0.146410 0.031350 -0.757770 -0.058757 0.562149 0.254890 -0.211105 -0.483563 0.070693 0.208410 0.074327 -0.059885 0.266575 -0.398381 -0.491533 0.332205 0.042254 0.222703 0.488063 -0.262713 0.118609 -0.236487 0.214592 -0.033501 0.083946 0.222405 -0.135718 -0.207105 -0.339459 -0.169292 -0.550949 0.248537 0.582813 -0.320539 -0.123423 -0.095907 -0.427290 -0.458429 0.045172 -0.476357 0.299752 0.181795 
council 0.043159 0.254005 -0.210802 0.164912 -0.004263 0.215006 -0.170896 0.037315 0.132499 0.029575 -0.734837 -0.055483 0.536672 0.253801 -0.216752 -0.464924 0.079407 0.199841 0.081999 -0.055184 0.257100 -0.392857 -0.470549 0.329899 0.025386 0.208138 0.466522 -0.266985 0.116166 -0.218629 0.199977 -0.036169 0.083866 0.221623 -0.117825 -0.179694 -0.321348 -0.163903 -0.527419 0.235306 0.562584 -0.308525 -0.133013 -0.100385 -0.411020 -0.441910 0.033096 -0.452159 0.289079 0.175556 
<unk> 0.050800 0.294893 -0.253845 0.169170 0.009576 0.252563 -0.205782 0.047637 0.168557 0.044566 -0.828978 -0.071158 0.617569 0.273960 -0.220309 -0.533399 0.072454 0.222238 0.073941 -0.068030 0.288485 -0.431547 -0.542093 0.357602 0.055323 0.256301 0.543482 -0.282762 0.129999 -0.258841 0.231368 -0.031558 0.098000 0.243531 -0.147459 -0.243831 -0.377953 -0.192460 -0.606244 0.276584 0.639296 -0.361023 -0.124344 -0.093293 -0.476387 -0.494927 0.065869 -0.529333 0.334306 0.195857 
need 0.064722 0.362233 -0.305784 0.215399 0.010100 0.305721 -0.250344 0.061050 0.193757 0.048010 -1.015316 -0.083281 0.751953 0.338668 -0.275935 -0.648696 0.095240 0.272544 0.097049 -0.080887 0.358547 -0.530760 -0.659665 0.439960 0.057579 0.304590 0.652595 -0.347323 0.157602 -0.318107 0.284730 -0.044534 0.114440 0.298699 -0.180806 -0.285070 -0.456701 -0.231515 -0.733755 0.333920 0.781340 -0.437857 -0.160209 -0.119450 -0.580421 -0.603116 0.070330 -0.638136 0.406313 0.242594 
policy 0.063292 0.324045 -0.272644 0.192392 0.006613 0.270305 -0.222543 0.048055 0.179216 0.038829 -0.909805 -0.074659 0.672816 0.298931 -0.249467 -0.583568 0.085568 0.247725 0.089144 -0.071632 0.323794 -0.478520 -0.591739 0.396050 0.052009 0.275530 0.590376 -0.315453 0.140796 -0.283234 0.251824 -0.037361 0.100660 0.270815 -0.163822 -0.254125 -0.409910 -0.204419 -0.659663 0.299276 0.700847 -0.388402 -0.145918 -0.113489 -0.516592 -0.542727 0.060930 -0.568885 0.368503 0.213297 
only 0.059395 0.362385 -0.306496 0.215160 0.004099 0.306464 -0.245900 0.058302 0.200407 0.043502 -1.022768 -0.085236 0.757389 0.337711 -0.280681 -0.653068 0.093366 0.273496 0.098424 -0.079782 0.360329 -0.538864 -0.662837 0.442812 0.059402 0.306633 0.659525 -0.352665 0.157265 -0.321791 0.283805 -0.043385 0.117516 0.297236 -0.178697 -0.283631 -0.459568 -0.232568 -0.739500 0.337904 0.783513 -0.433998 -0.162462 -0.119981 -0.580256 -0.612128 0.068965 -0.643916 0.410480 0.239564 
who 0.063264 0.344184 -0.297864 0.199631 0.007022 0.295769 -0.240513 0.052259 0.193982 0.047675 -0.963945 -0.081925 0.717942 0.317641 -0.257818 -0.622765 0.088168 0.262579 0.085552 -0.074609 0.341034 -0.509292 -0.627010 0.422489 0.064643 0.294641 0.623924 -0.332806 0.148008 -0.308539 0.268414 -0.038875 0.113402 0.285436 -0.174878 -0.280293 -0.439136 -0.223637 -0.704275 0.323723 0.746361 -0.417266 -0.146344 -0.108897 -0.555900 -0.573190 0.073831 -0.617694 0.393281 0.229472 
? 0.073573 0.376621 -0.323132 0.218509 0.013930 0.322776 -0.263125 0.061153 0.213278 0.054105 -1.064560 -0.092041 0.791518 0.352297 -0.287113 -0.685772 0.094300 0.286961 0.100012 -0.087619 0.379708 -0.562307 -0.693505 0.461358 0.067053 0.327849 0.695154 -0.363670 0.166449 -0.336896 0.297575 -0.042422 0.127432 0.310984 -0.189238 -0.306312 -0.482727 -0.239594 -0.777020 0.362701 0.822088 -0.453975 -0.161323 -0.126440 -0.614493 -0.638269 0.076464 -0.685901 0.434942 0.254469 
new 0.042629 0.268410 -0.217999 0.158777 0.008043 0.223500 -0.185614 0.039562 0.144279 0.031725 -0.750158 -0.059638 0.555905 0.252405 -0.210966 -0.478272 0.071197 0.206309 0.073606 -0.054855 0.259034 -0.395076 -0.481732 0.330583 0.041024 0.220796 0.477961 -0.260602 0.117931 -0.230402 0.213094 -0.026345 0.085057 0.222066 -0.125413 -0.204766 -0.332177 -0.170419 -0.543299 0.242703 0.573113 -0.322245 -0.125956 -0.094218 -0.422004 -0.448859 0.049696 -0.474627 0.299934 0.172147 
therefore 0.064059 0.365074 -0.303174 0.227789 0.004526 0.304396 -0.249155 0.056945 0.200387 0.046866 -1.028463 -0.080104 0.755868 0.343645 -0.288626 -0.660690 0.103483 0.280029 0.099517 -0.079830 0.363242 -0.544243 -0.660339 0.455143 0.052273 0.302024 0.657037 -0.366054 0.161353 -0.316179 0.282251 -0.043347 0.115777 0.311950 -0.177897 -0.274872 -0.456004 -0.232322 -0.742425 0.336669 0.786824 -0.437655 -0.173128 -0.131677 -0.581622 -0.616921 0.062240 -0.642283 0.407421 0.239914 
us 0.056211 0.336709 -0.284431 0.200785 0.004696 0.282432 -0.229908 0.057072 0.184084 0.041377 -0.946979 -0.077678 0.702409 0.310992 -0.265137 -0.606660 0.092369 0.259554 0.092327 -0.075178 0.332990 -0.500160 -0.613270 0.418898 0.049706 0.279024 0.603574 -0.328319 0.146189 -0.292816 0.261502 -0.044411 0.109116 0.280568 -0.163009 -0.257463 -0.422327 -0.212314 -0.687102 0.313514 0.728224 -0.401443 -0.156842 -0.119015 -0.541896 -0.567175 0.062121 -0.593483 0.375097 0.221626 
about 0.052414 0.318719 -0.265857 0.188513 0.009924 0.264692 -0.216185 0.049909 0.175452 0.038520 -0.893168 -0.073640 0.657739 0.294833 -0.245586 -0.563965 0.084883 0.235628 0.083796 -0.071209 0.309366 -0.468263 -0.571812 0.387652 0.046789 0.264401 0.570898 -0.307102 0.133072 -0.275805 0.244646 -0.038206 0.101553 0.263137 -0.154042 -0.247198 -0.394150 -0.203790 -0.647804 0.292146 0.680973 -0.375020 -0.138824 -0.104935 -0.507609 -0.531468 0.063721 -0.563324 0.359026 0.209783 
) 0.057328 0.326823 -0.275465 0.189137 0.007993 0.274659 -0.222030 0.052958 0.179807 0.049924 -0.913111 -0.074739 0.676162 0.303920 -0.251344 -0.583461 0.082773 0.247825 0.087535 -0.071195 0.323445 -0.478890 -0.590969 0.396885 0.054083 0.270056 0.590097 -0.312306 0.143200 -0.284806 0.251261 -0.036673 0.099054 0.273234 -0.163531 -0.256508 -0.409243 -0.204618 -0.661869 0.300380 0.699984 -0.391270 -0.146156 -0.109916 -0.520408 -0.544063 0.064451 -0.578727 0.365559 0.216838 
other 0.058398 0.338074 -0.284853 0.208593 0.006339 0.280348 -0.234532 0.050640 0.184131 0.040915 -0.957600 -0.074663 0.707505 0.315366 -0.266880 -0.606677 0.095775 0.260231 0.093483 -0.077134 0.334744 -0.504624 -0.613369 0.417094 0.047509 0.275640 0.608033 -0.338124 0.147993 -0.293719 0.263975 -0.043360 0.109378 0.291058 -0.163793 -0.253859 -0.426010 -0.215312 -0.691687 0.312102 0.728466 -0.402077 -0.153843 -0.119371 -0.541721 -0.572203 0.061076 -0.601091 0.379124 0.223252 
important 0.063721 0.342414 -0.289751 0.199097 0.003779 0.292427 -0.236199 0.056244 0.191864 0.052109 -0.968452 -0.078196 0.716333 0.320231 -0.266288 -0.619539 0.090129 0.266715 0.092014 -0.074479 0.340349 -0.510093 -0.623336 0.421146 0.054002 0.290707 0.621648 -0.334107 0.145428 -0.303744 0.265712 -0.035975 0.109932 0.286220 -0.169357 -0.267213 -0.432889 -0.219429 -0.702148 0.326539 0.741964 -0.410561 -0.146757 -0.119167 -0.546946 -0.575440 0.067304 -0.612314 0.386107 0.231056 
( 0.052043 0.307381 -0.253651 0.182630 0.003122 0.256444 -0.204631 0.047847 0.160960 0.040859 -0.856186 -0.065750 0.635813 0.285913 -0.245670 -0.545726 0.084059 0.231389 0.085956 -0.066683 0.302900 -0.455325 -0.549344 0.374917 0.041726 0.246729 0.544765 -0.299504 0.134299 -0.258100 0.233529 -0.039977 0.094355 0.257777 -0.144686 -0.221987 -0.375570 -0.188177 -0.616370 0.280042 0.656697 -0.359038 -0.149470 -0.110344 -0.486377 -0.511126 0.056977 -0.536705 0.342430 0.198444 
time 0.058360 0.336284 -0.281208 0.198078 0.006883 0.282743 -0.225669 0.052039 0.184319 0.049221 -0.954224 -0.081303 0.702275 0.315785 -0.262523 -0.602779 0.094862 0.260698 0.090127 -0.077079 0.330868 -0.501954 -0.612191 0.416493 0.052814 0.283582 0.605710 -0.326730 0.144307 -0.292887 0.262500 -0.039566 0.108721 0.282598 -0.166795 -0.259523 -0.421503 -0.212287 -0.688917 0.316281 0.728372 -0.407499 -0.151241 -0.117386 -0.537447 -0.569390 0.064783 -0.599073 0.380110 0.221102 
because 0.046379 0.267321 -0.224283 0.158670 0.006982 0.221171 -0.179914 0.038310 0.143113 0.034456 -0.750156 -0.060148 0.557691 0.250990 -0.204228 -0.482447 0.072344 0.200460 0.072536 -0.061100 0.265791 -0.398955 -0.487193 0.329079 0.043214 0.226770 0.482016 -0.257937 0.115879 -0.233154 0.211124 -0.034323 0.086687 0.218749 -0.129711 -0.205997 -0.336735 -0.167275 -0.542684 0.248075 0.580279 -0.319225 -0.121974 -0.087504 -0.433803 -0.448223 0.048590 -0.473772 0.301611 0.177197 
: 0.058780 0.335621 -0.289005 0.195144 0.010927 0.288740 -0.232804 0.057314 0.193291 0.048947 -0.951285 -0.080053 0.702508 0.310140 -0.256051 -0.609626 0.084851 0.255565 0.085892 -0.076232 0.335350 -0.493309 -0.620534 0.406331 0.063606 0.289145 0.619741 -0.322483 0.147265 -0.298176 0.260973 -0.032864 0.110403 0.280955 -0.168509 -0.276198 -0.430705 -0.219530 -0.690329 0.315545 0.733897 -0.410921 -0.140043 -0.107606 -0.544593 -0.571487 0.071747 -0.611421 0.380342 0.222161 
when 0.064536 0.345046 -0.288878 0.202967 0.008829 0.291626 -0.235712 0.052730 0.190020 0.046025 -0.958904 -0.076857 0.708811 0.317431 -0.264164 -0.614898 0.094142 0.261349 0.085065 -0.076159 0.335145 -0.506407 -0.622085 0.421944 0.057117 0.285141 0.618449 -0.330272 0.144836 -0.299677 0.267869 -0.037801 0.107824 0.286361 -0.167909 -0.262254 -0.429943 -0.214946 -0.701326 0.314581 0.739799 -0.406600 -0.151293 -0.116689 -0.544110 -0.572231 0.067187 -0.610233 0.383620 0.223616 
make 0.060598 0.321791 -0.271525 0.192568 0.005250 0.268724 -0.215606 0.048961 0.176418 0.043860 -0.912032 -0.072736 0.675216 0.299027 -0.247645 -0.580767 0.088392 0.248104 0.085872 -0.073716 0.319714 -0.480276 -0.586614 0.395587 0.047276 0.273457 0.583170 -0.315585 0.139528 -0.283549 0.253442 -0.038287 0.104133 0.268244 -0.160026 -0.250805 -0.410962 -0.204569 -0.657439 0.301469 0.699918 -0.385827 -0.149966 -0.111113 -0.512813 -0.543860 0.062692 -0.574577 0.360951 0.214603 
up 0.062737 0.331535 -0.285425 0.185176 0.009384 0.286209 -0.232990 0.056165 0.187124 0.048726 -0.916515 -0.079869 0.680220 0.301869 -0.242207 -0.591369 0.073715 0.245251 0.079139 -0.075711 0.326836 -0.479004 -0.605451 0.396678 0.064271 0.286693 0.600114 -0.305398 0.137166 -0.292477 0.261082 -0.036800 0.113415 0.266962 -0.167580 -0.278655 -0.421783 -0.214135 -0.669472 0.313184 0.708595 -0.402393 -0.130100 -0.104057 -0.527714 -0.546046 0.075981 -0.595005 0.370353 0.216272 
take 0.046800 0.283971 -0.237290 0.168921 0.009448 0.235501 -0.192986 0.042341 0.153132 0.039331 -0.793288 -0.066811 0.585519 0.264812 -0.220638 -0.509361 0.074373 0.213071 0.075316 -0.063087 0.278893 -0.414702 -0.510171 0.349759 0.048709 0.236311 0.510540 -0.273864 0.123643 -0.247707 0.220545 -0.032018 0.091896 0.234515 -0.139377 -0.223346 -0.355423 -0.184371 -0.575512 0.264910 0.608695 -0.336056 -0.126709 -0.097084 -0.452737 -0.475441 0.051644 -0.503727 0.319173 0.187083 
people 0.056155 0.299940 -0.258502 0.170884 0.010649 0.260684 -0.210733 0.049234 0.168521 0.042309 -0.845022 -0.071249 0.627806 0.282501 -0.222447 -0.544117 0.074666 0.228234 0.073791 -0.071952 0.299556 -0.443488 -0.553411 0.365856 0.054963 0.266068 0.556083 -0.282858 0.128254 -0.273900 0.237966 -0.034556 0.102307 0.246065 -0.152061 -0.251897 -0.385142 -0.192477 -0.614641 0.286682 0.653847 -0.370359 -0.125610 -0.098112 -0.481877 -0.506646 0.070173 -0.550895 0.343144 0.204119 
0 0.047809 0.245642 -0.207144 0.149365 0.001937 0.207773 -0.164042 0.034789 0.134686 0.031706 -0.692273 -0.055725 0.510285 0.231462 -0.191994 -0.443557 0.068409 0.190016 0.069383 -0.050523 0.238100 -0.364211 -0.448499 0.299655 0.035143 0.201938 0.445884 -0.238097 0.108492 -0.212393 0.190618 -0.023864 0.078489 0.202952 -0.117946 -0.185518 -0.302796 -0.154993 -0.503238 0.227885 0.532021 -0.294966 -0.111019 -0.089825 -0.395561 -0.415326 0.046299 -0.433907 0.277721 0.163124 
am 0.059468 0.343094 -0.286960 0.199681 0.008129 0.289176 -0.237269 0.053324 0.187170 0.042680 -0.959748 -0.078105 0.708360 0.319843 -0.265162 -0.612392 0.088034 0.258744 0.092663 -0.078424 0.337120 -0.505187 -0.618341 0.420154 0.056436 0.289559 0.621256 -0.329805 0.146581 -0.301498 0.268671 -0.037140 0.107893 0.285678 -0.170228 -0.268203 -0.430992 -0.217379 -0.698356 0.321112 0.738337 -0.409701 -0.147296 -0.115926 -0.546675 -0.573751 0.064930 -0.606405 0.385572 0.228854 
now 0.050668 0.303733 -0.248288 0.188542 0.001609 0.252042 -0.204713 0.046481 0.152714 0.032322 -0.857684 -0.064526 0.634146 0.286755 -0.248785 -0.546299 0.095165 0.235454 0.094547 -0.067942 0.300969 -0.457484 -0.546696 0.384620 0.036875 0.247734 0.545070 -0.305507 0.132874 -0.262316 0.234924 -0.041231 0.090511 0.260383 -0.141050 -0.213521 -0.374644 -0.185000 -0.618687 0.276490 0.660210 -0.361914 -0.153488 -0.115056 -0.482822 -0.513574 0.046054 -0.528416 0.338504 0.199709 
into 0.061362 0.342833 -0.295246 0.194754 0.007669 0.294890 -0.238266 0.058987 0.192335 0.051075 -0.964814 -0.078192 0.711439 0.318648 -0.256078 -0.620888 0.088546 0.261519 0.088444 -0.080294 0.340778 -0.505829 -0.624172 0.415121 0.062064 0.299114 0.623306 -0.327281 0.149087 -0.303216 0.268222 -0.038795 0.114975 0.283350 -0.174707 -0.277204 -0.440019 -0.221057 -0.696916 0.317781 0.742338 -0.410331 -0.147399 -0.113111 -0.552247 -0.578736 0.073271 -0.618243 0.386549 0.225821 
community 0.043060 0.263450 -0.210920 0.160734 0.006452 0.219636 -0.173880 0.039721 0.135793 0.026376 -0.735275 -0.059509 0.541811 0.246069 -0.209414 -0.463588 0.076701 0.203036 0.071127 -0.059286 0.253410 -0.388054 -0.467120 0.326029 0.031909 0.210208 0.462724 -0.262371 0.115485 -0.224407 0.197227 -0.031961 0.078692 0.221804 -0.127069 -0.189714 -0.324197 -0.164361 -0.525874 0.235392 0.559033 -0.304743 -0.124487 -0.091923 -0.417133 -0.435176 0.044442 -0.455600 0.293457 0.171332 
out 0.062915 0.331982 -0.288652 0.190097 0.010275 0.289424 -0.233563 0.055917 0.190569 0.049262 -0.944797 -0.081004 0.705029 0.310333 -0.250177 -0.604436 0.080500 0.255700 0.087099 -0.075203 0.330497 -0.492027 -0.614811 0.406998 0.060911 0.293194 0.615622 -0.319416 0.144463 -0.298225 0.266460 -0.036940 0.109945 0.278109 -0.170185 -0.275130 -0.432128 -0.221266 -0.687646 0.318600 0.729637 -0.408032 -0.143923 -0.108694 -0.541631 -0.564098 0.075389 -0.606970 0.378875 0.223756 
however 0.058771 0.356626 -0.294056 0.207536 0.005758 0.297481 -0.240468 0.054949 0.194634 0.047853 -0.989933 -0.080112 0.734602 0.327343 -0.273947 -0.635196 0.097199 0.267906 0.096956 -0.079282 0.347509 -0.522082 -0.636762 0.437568 0.054697 0.295568 0.633488 -0.344986 0.149811 -0.309290 0.276734 -0.043654 0.113712 0.292986 -0.175124 -0.273887 -0.442020 -0.221432 -0.718130 0.328517 0.760228 -0.425500 -0.159753 -0.121944 -0.563645 -0.593795 0.070676 -0.624229 0.393478 0.236331 
some 0.062382 0.330805 -0.285722 0.189192 0.007615 0.285672 -0.230182 0.050432 0.190264 0.052339 -0.928362 -0.081319 0.695576 0.305666 -0.248261 -0.600463 0.079861 0.252441 0.081387 -0.077622 0.329116 -0.482452 -0.608781 0.409411 0.063417 0.291793 0.609395 -0.314278 0.139417 -0.295256 0.265333 -0.037556 0.111102 0.270540 -0.168647 -0.276394 -0.425817 -0.212804 -0.685159 0.315426 0.720528 -0.405743 -0.138766 -0.104057 -0.535426 -0.555357 0.069496 -0.601027 0.379410 0.224230 
any 0.060716 0.325507 -0.277564 0.187837 0.002432 0.275205 -0.220511 0.049894 0.179029 0.045788 -0.912233 -0.077288 0.676440 0.298354 -0.248646 -0.583186 0.082842 0.249014 0.083227 -0.073047 0.323268 -0.477340 -0.588823 0.399377 0.053135 0.272577 0.587793 -0.311296 0.136931 -0.292484 0.253941 -0.040441 0.105513 0.269851 -0.162669 -0.254621 -0.408447 -0.211645 -0.655158 0.305575 0.702689 -0.393995 -0.140876 -0.110676 -0.517599 -0.543932 0.064608 -0.576565 0.363612 0.214160 
programme 0.048574 0.292799 -0.249023 0.171194 0.006893 0.247158 -0.199543 0.046276 0.164569 0.037443 -0.828696 -0.071356 0.613439 0.276264 -0.227501 -0.532098 0.077427 0.221759 0.076176 -0.066312 0.291444 -0.432477 -0.536383 0.363382 0.052379 0.252171 0.534879 -0.284365 0.126467 -0.259924 0.232219 -0.032987 0.097628 0.241261 -0.143595 -0.232777 -0.370125 -0.188993 -0.599861 0.274178 0.635883 -0.355105 -0.129045 -0.094354 -0.472872 -0.494570 0.060936 -0.525099 0.331336 0.196554 
committee 0.062952 0.344738 -0.291586 0.197131 0.009508 0.292814 -0.240276 0.051815 0.188572 0.047949 -0.971889 -0.079642 0.715086 0.320312 -0.263192 -0.616928 0.085004 0.259840 0.092808 -0.078089 0.342457 -0.511115 -0.625120 0.421634 0.057997 0.293588 0.625725 -0.332697 0.145457 -0.301194 0.269910 -0.040000 0.110969 0.287426 -0.175719 -0.270388 -0.438317 -0.220552 -0.707017 0.321952 0.743535 -0.417322 -0.149818 -0.114082 -0.557201 -0.577065 0.066961 -0.615208 0.388752 0.230163 
development 0.048849 0.294101 -0.246404 0.174485 0.008022 0.251092 -0.201414 0.043364 0.160167 0.043080 -0.835188 -0.068035 0.611454 0.272947 -0.229544 -0.534945 0.077260 0.224849 0.084262 -0.067583 0.289865 -0.437660 -0.533715 0.365409 0.048769 0.247213 0.537525 -0.290688 0.128313 -0.261919 0.232354 -0.032905 0.095388 0.246807 -0.149382 -0.232824 -0.369487 -0.190213 -0.602578 0.277824 0.641786 -0.355170 -0.130143 -0.101942 -0.474651 -0.496484 0.057658 -0.520991 0.333316 0.198080 
between 0.049289 0.270962 -0.230138 0.164960 0.000552 0.228095 -0.185731 0.042247 0.143800 0.032850 -0.775497 -0.059317 0.571086 0.258099 -0.216307 -0.494192 0.078496 0.209547 0.075188 -0.060375 0.267724 -0.414119 -0.491538 0.343656 0.038320 0.225243 0.492756 -0.269949 0.119402 -0.236106 0.211360 -0.034158 0.089009 0.228203 -0.136797 -0.207973 -0.346241 -0.173308 -0.563662 0.250269 0.594864 -0.325771 -0.129331 -0.095485 -0.442764 -0.461864 0.049248 -0.483199 0.306178 0.177305 
such 0.036676 0.227898 -0.190600 0.138523 0.003434 0.193258 -0.158053 0.035323 0.122371 0.029680 -0.645831 -0.048357 0.476211 0.218022 -0.183483 -0.413368 0.063482 0.173811 0.062185 -0.052945 0.223259 -0.346469 -0.411520 0.281734 0.031405 0.187417 0.409936 -0.221468 0.097756 -0.197801 0.179274 -0.029123 0.075783 0.190928 -0.113095 -0.170374 -0.287502 -0.142242 -0.466244 0.208839 0.498026 -0.268641 -0.104036 -0.079548 -0.365413 -0.386725 0.037757 -0.398901 0.256780 0.150667 
commissioner 0.050225 0.296029 -0.246764 0.177278 0.002148 0.249413 -0.199735 0.044756 0.159166 0.037914 -0.833171 -0.067690 0.615449 0.274420 -0.228475 -0.531106 0.081643 0.224922 0.078706 -0.067203 0.288938 -0.440180 -0.537947 0.367282 0.044194 0.248534 0.530368 -0.289087 0.126930 -0.259964 0.224532 -0.037110 0.091399 0.248933 -0.144739 -0.222007 -0.367764 -0.188080 -0.601451 0.273496 0.638185 -0.348703 -0.135787 -0.104258 -0.475256 -0.491356 0.055128 -0.523811 0.331175 0.198507 
just 0.049585 0.293508 -0.248834 0.175489 0.007341 0.249544 -0.202251 0.046927 0.162977 0.038790 -0.827383 -0.068243 0.609977 0.274494 -0.226473 -0.528804 0.076693 0.223038 0.075903 -0.067106 0.287568 -0.434291 -0.533327 0.362431 0.049642 0.247384 0.530653 -0.284992 0.129440 -0.256748 0.230075 -0.034768 0.093473 0.244457 -0.146577 -0.226673 -0.371045 -0.188142 -0.598579 0.274683 0.634577 -0.353126 -0.129577 -0.102722 -0.469339 -0.494741 0.057182 -0.521266 0.331257 0.194140 
made 0.064903 0.364987 -0.314805 0.209333 0.009569 0.312821 -0.253966 0.055992 0.209649 0.053206 -1.035178 -0.092258 0.766170 0.339634 -0.276685 -0.659153 0.092436 0.279439 0.095091 -0.085437 0.364546 -0.540297 -0.670003 0.451309 0.063315 0.317060 0.671568 -0.353570 0.158927 -0.330280 0.286235 -0.041990 0.121591 0.306259 -0.186109 -0.299054 -0.471408 -0.237117 -0.752005 0.346686 0.798094 -0.448166 -0.157562 -0.119729 -0.593000 -0.617499 0.075209 -0.659260 0.414493 0.244665 
way 0.067882 0.347233 -0.297848 0.198560 0.009055 0.299025 -0.243769 0.053370 0.193233 0.049347 -0.972718 -0.085364 0.720636 0.320179 -0.260117 -0.622235 0.082602 0.267604 0.089488 -0.080478 0.341144 -0.508981 -0.632120 0.425309 0.065636 0.301291 0.631570 -0.328147 0.147464 -0.306936 0.272366 -0.039974 0.115237 0.286036 -0.176638 -0.281696 -0.443169 -0.220766 -0.710917 0.330185 0.750145 -0.417826 -0.142868 -0.111055 -0.556199 -0.578743 0.074634 -0.620706 0.390924 0.231359 
social 0.048505 0.276698 -0.225881 0.171851 0.003026 0.229886 -0.188137 0.040740 0.143486 0.032768 -0.784046 -0.061361 0.579519 0.259815 -0.221054 -0.499261 0.081660 0.214049 0.080716 -0.060468 0.274771 -0.414461 -0.500907 0.341863 0.036282 0.229342 0.496610 -0.271929 0.124023 -0.241043 0.219445 -0.033471 0.086297 0.234254 -0.131476 -0.209098 -0.345918 -0.175103 -0.564300 0.253207 0.595738 -0.329317 -0.135157 -0.098675 -0.439390 -0.463958 0.047003 -0.487906 0.313509 0.182636 
fact 0.057049 0.310750 -0.267168 0.174580 0.010126 0.266988 -0.217969 0.052365 0.176703 0.046620 -0.872262 -0.074099 0.648158 0.286879 -0.229512 -0.556989 0.071918 0.238378 0.078505 -0.069737 0.307475 -0.457469 -0.567002 0.374646 0.062744 0.269896 0.573290 -0.295188 0.133471 -0.273656 0.244233 -0.036398 0.104263 0.255498 -0.158779 -0.255409 -0.395882 -0.200160 -0.636737 0.293141 0.672336 -0.379064 -0.127891 -0.098926 -0.497845 -0.525703 0.070784 -0.558130 0.349925 0.207693 
within 0.061685 0.336804 -0.288547 0.192714 0.009215 0.289528 -0.232973 0.052931 0.186694 0.048558 -0.952958 -0.074056 0.704928 0.314120 -0.261837 -0.603875 0.084661 0.257243 0.085943 -0.077964 0.334606 -0.499523 -0.617897 0.413803 0.061109 0.289735 0.614868 -0.325965 0.150046 -0.301564 0.266192 -0.041301 0.108565 0.281874 -0.172987 -0.270921 -0.432467 -0.215159 -0.689380 0.317339 0.734587 -0.408569 -0.148495 -0.110984 -0.544242 -0.567365 0.071684 -0.606036 0.380350 0.226683 
state 0.058605 0.313560 -0.269750 0.178263 0.005050 0.265490 -0.214976 0.053506 0.175520 0.045987 -0.875859 -0.073008 0.653015 0.285895 -0.230862 -0.564130 0.076540 0.236657 0.080925 -0.074224 0.310402 -0.460813 -0.571930 0.376811 0.060103 0.269070 0.572194 -0.295363 0.138122 -0.278781 0.245737 -0.034268 0.098753 0.260964 -0.162078 -0.262258 -0.400508 -0.198348 -0.636964 0.295143 0.677111 -0.377232 -0.132654 -0.101170 -0.501311 -0.526510 0.065496 -0.563996 0.354079 0.211638 
say 0.045309 0.256403 -0.211785 0.153325 0.005141 0.208665 -0.174754 0.041751 0.137734 0.029876 -0.717783 -0.056627 0.531434 0.240741 -0.202162 -0.454651 0.073223 0.193199 0.070954 -0.057497 0.249826 -0.382195 -0.465366 0.313117 0.037879 0.209562 0.450639 -0.252296 0.112469 -0.220557 0.196092 -0.030102 0.083172 0.217460 -0.123065 -0.193146 -0.317983 -0.162378 -0.520482 0.236260 0.550289 -0.302190 -0.118514 -0.090022 -0.407778 -0.425307 0.043953 -0.450114 0.284858 0.171256 
support 0.055522 0.304546 -0.259271 0.177016 0.005958 0.259421 -0.208435 0.049094 0.170107 0.046802 -0.856842 -0.073292 0.634376 0.278812 -0.231845 -0.547610 0.077959 0.235763 0.078848 -0.070067 0.299001 -0.445842 -0.554365 0.372340 0.052329 0.260762 0.554032 -0.292916 0.126701 -0.268968 0.240487 -0.036526 0.097479 0.255699 -0.157024 -0.244778 -0.389079 -0.194022 -0.618408 0.285342 0.660013 -0.367969 -0.130203 -0.099926 -0.490408 -0.511998 0.065169 -0.541936 0.344653 0.202184 
were 0.053314 0.298573 -0.250698 0.170943 0.006493 0.254938 -0.202098 0.043956 0.163510 0.037791 -0.826800 -0.072911 0.611549 0.273008 -0.228916 -0.529291 0.077324 0.224713 0.077340 -0.069894 0.291853 -0.434976 -0.536593 0.364967 0.049771 0.250182 0.538133 -0.280937 0.127131 -0.257544 0.230606 -0.031247 0.094618 0.244323 -0.151465 -0.232552 -0.369638 -0.191323 -0.598464 0.273051 0.641268 -0.353133 -0.130545 -0.097278 -0.474961 -0.497702 0.058385 -0.525751 0.329974 0.192568 
political 0.053243 0.314857 -0.273684 0.185328 0.002242 0.269139 -0.218381 0.051604 0.179919 0.047231 -0.894905 -0.075904 0.661930 0.292597 -0.240447 -0.571679 0.080648 0.244266 0.080755 -0.076938 0.313131 -0.473067 -0.579940 0.388508 0.061011 0.272430 0.579355 -0.305613 0.137745 -0.282676 0.249437 -0.035231 0.101253 0.264246 -0.160797 -0.257085 -0.405005 -0.201235 -0.650872 0.300302 0.689745 -0.383086 -0.141073 -0.100136 -0.512921 -0.537398 0.068970 -0.573647 0.360937 0.216055 
being 0.045073 0.259335 -0.224326 0.148008 0.007526 0.223907 -0.180149 0.041897 0.151435 0.038714 -0.728614 -0.057028 0.539579 0.238960 -0.193257 -0.466956 0.065296 0.197696 0.064697 -0.062997 0.254813 -0.380956 -0.474683 0.313782 0.048050 0.219417 0.474429 -0.247898 0.110004 -0.230319 0.203250 -0.026226 0.083672 0.211526 -0.132037 -0.211782 -0.332313 -0.165222 -0.527898 0.243647 0.559008 -0.314724 -0.114421 -0.085284 -0.412876 -0.434810 0.056031 -0.470818 0.290559 0.173458 
first 0.054086 0.306504 -0.263003 0.169304 0.011878 0.266987 -0.215885 0.047926 0.176977 0.048338 -0.864917 -0.075179 0.640428 0.283426 -0.230730 -0.558142 0.073196 0.232872 0.080467 -0.069744 0.302912 -0.453721 -0.561693 0.372000 0.058475 0.268025 0.564706 -0.290831 0.126996 -0.279659 0.239991 -0.035149 0.102816 0.252443 -0.157087 -0.254888 -0.395869 -0.198280 -0.629532 0.295337 0.666569 -0.372331 -0.128308 -0.099621 -0.495277 -0.514215 0.066261 -0.557723 0.344182 0.205352 
work 0.054131 0.281088 -0.239892 0.163470 0.004851 0.235979 -0.194403 0.042822 0.160141 0.036683 -0.797987 -0.068085 0.587536 0.261214 -0.210728 -0.506199 0.074677 0.215999 0.072456 -0.065694 0.281041 -0.412735 -0.515098 0.344575 0.046217 0.241663 0.515231 -0.268213 0.123946 -0.248732 0.222537 -0.032239 0.094025 0.233388 -0.140721 -0.227293 -0.359808 -0.182714 -0.577620 0.267255 0.607626 -0.337353 -0.119838 -0.089900 -0.457738 -0.472486 0.055467 -0.504210 0.319146 0.187760 
debate 0.055127 0.328494 -0.268408 0.198568 0.003557 0.269210 -0.217265 0.049077 0.174299 0.042492 -0.918266 -0.074429 0.676951 0.305695 -0.256192 -0.582289 0.092575 0.250367 0.088308 -0.073428 0.323500 -0.483716 -0.588402 0.406126 0.046187 0.268431 0.582312 -0.320993 0.142069 -0.282221 0.252715 -0.037644 0.100166 0.274609 -0.158595 -0.243350 -0.408693 -0.202084 -0.664107 0.302588 0.701338 -0.390549 -0.151637 -0.116442 -0.521667 -0.546768 0.058604 -0.573371 0.362125 0.215626 
those 0.041083 0.208450 -0.180267 0.121372 0.003571 0.178978 -0.141661 0.030454 0.116264 0.033089 -0.586105 -0.047236 0.432252 0.191061 -0.160827 -0.375745 0.050095 0.154925 0.057528 -0.049086 0.205623 -0.307731 -0.381997 0.251295 0.032324 0.178204 0.379576 -0.202348 0.089462 -0.181736 0.162304 -0.023446 0.069693 0.174829 -0.102249 -0.166649 -0.263326 -0.136106 -0.424007 0.200036 0.451676 -0.251094 -0.092206 -0.071848 -0.336349 -0.348938 0.042457 -0.368505 0.232167 0.138121 
areas 0.062653 0.334836 -0.291607 0.191425 0.007162 0.292260 -0.237826 0.055109 0.191217 0.050054 -0.947337 -0.081974 0.705291 0.314639 -0.253914 -0.607562 0.082192 0.258025 0.083098 -0.078036 0.336043 -0.497347 -0.618441 0.412882 0.060038 0.290725 0.614823 -0.320958 0.145092 -0.303993 0.263141 -0.035204 0.109831 0.277522 -0.169615 -0.276720 -0.433539 -0.213956 -0.689500 0.318095 0.726946 -0.406548 -0.141177 -0.109542 -0.544520 -0.567148 0.069394 -0.609711 0.382654 0.221985 
your 0.061126 0.320276 -0.277167 0.184126 0.010375 0.276138 -0.221795 0.054307 0.183505 0.047098 -0.899797 -0.078002 0.666637 0.292919 -0.233458 -0.578645 0.074476 0.242219 0.075827 -0.074965 0.318952 -0.465949 -0.591325 0.384842 0.063990 0.280344 0.590764 -0.298673 0.135974 -0.286228 0.250709 -0.034803 0.110094 0.262083 -0.166818 -0.268284 -0.411481 -0.207259 -0.651616 0.303849 0.690244 -0.389581 -0.126163 -0.098741 -0.520321 -0.536520 0.073523 -0.580334 0.361843 0.213443 
point 0.058031 0.314077 -0.265267 0.193439 0.003132 0.262235 -0.214078 0.049222 0.172782 0.038413 -0.889548 -0.072701 0.654630 0.295084 -0.248694 -0.565271 0.086185 0.241935 0.085023 -0.071327 0.312217 -0.467070 -0.572090 0.388103 0.048294 0.265115 0.568283 -0.306193 0.136931 -0.275141 0.245173 -0.033546 0.100691 0.264361 -0.155871 -0.243259 -0.395658 -0.199360 -0.637900 0.291237 0.681031 -0.379279 -0.143701 -0.114194 -0.503535 -0.528355 0.058094 -0.559310 0.353422 0.210223 
economic 0.048576 0.281317 -0.237731 0.160978 0.004742 0.238440 -0.194923 0.042249 0.158610 0.041332 -0.790898 -0.065556 0.581615 0.258417 -0.214684 -0.505013 0.072005 0.213855 0.072029 -0.065549 0.276697 -0.413786 -0.512492 0.341878 0.048523 0.239974 0.512600 -0.267731 0.121635 -0.250065 0.220241 -0.032095 0.089659 0.231202 -0.142134 -0.227347 -0.356803 -0.179317 -0.572272 0.264382 0.608100 -0.338131 -0.118902 -0.092311 -0.449960 -0.471223 0.055748 -0.498977 0.317453 0.182403 
regions 0.057493 0.322686 -0.269615 0.189392 0.006537 0.264555 -0.219417 0.052460 0.176546 0.045146 -0.910229 -0.073939 0.669599 0.300208 -0.254482 -0.579779 0.088640 0.245827 0.087234 -0.072758 0.315802 -0.476906 -0.585650 0.396779 0.046301 0.271635 0.583372 -0.306916 0.139633 -0.284250 0.247730 -0.038374 0.104930 0.268439 -0.156565 -0.248753 -0.405390 -0.199007 -0.654533 0.303465 0.693940 -0.387458 -0.146521 -0.114389 -0.517399 -0.545299 0.059551 -0.574622 0.359638 0.212707 
countries 0.049507 0.286676 -0.241288 0.165011 0.011369 0.241843 -0.197706 0.047030 0.161894 0.041571 -0.802287 -0.067584 0.593811 0.261808 -0.216790 -0.513293 0.073915 0.220899 0.076171 -0.066165 0.280801 -0.420355 -0.517129 0.350044 0.050385 0.242146 0.520140 -0.274112 0.124837 -0.253886 0.222820 -0.032036 0.092103 0.235235 -0.140729 -0.226322 -0.360256 -0.178174 -0.581368 0.267559 0.615260 -0.342657 -0.124608 -0.094556 -0.457855 -0.480533 0.055729 -0.511313 0.323194 0.188143 
than 0.039570 0.195239 -0.169206 0.105815 0.008030 0.172722 -0.143993 0.027670 0.110608 0.030617 -0.545461 -0.049147 0.411347 0.177126 -0.136726 -0.356247 0.041762 0.146766 0.045667 -0.047824 0.191539 -0.285327 -0.361097 0.231706 0.043778 0.171436 0.359390 -0.182310 0.082066 -0.174689 0.151133 -0.019581 0.066108 0.160060 -0.106008 -0.170425 -0.254300 -0.127592 -0.401940 0.189092 0.419427 -0.238513 -0.075565 -0.054713 -0.318048 -0.327522 0.048134 -0.359298 0.222310 0.132472 
aid 0.060497 0.310335 -0.274120 0.169451 0.013177 0.271808 -0.218510 0.053447 0.182135 0.052451 -0.866865 -0.079122 0.646978 0.285011 -0.224706 -0.557724 0.066546 0.237012 0.076007 -0.076602 0.311289 -0.449942 -0.576102 0.370753 0.065881 0.279542 0.574694 -0.290087 0.133895 -0.278151 0.245708 -0.032605 0.104951 0.250933 -0.164016 -0.270462 -0.402079 -0.198759 -0.637314 0.299860 0.674132 -0.377337 -0.116973 -0.092805 -0.506045 -0.519547 0.073973 -0.564346 0.352313 0.210810 
issue 0.048535 0.246862 -0.220453 0.141319 0.009942 0.219333 -0.178606 0.039384 0.147349 0.039101 -0.708212 -0.067051 0.527640 0.230849 -0.187653 -0.456265 0.059109 0.190895 0.063728 -0.059764 0.253153 -0.363949 -0.466019 0.301439 0.053906 0.223981 0.463225 -0.238736 0.106582 -0.227163 0.199093 -0.030282 0.082663 0.204646 -0.129817 -0.213009 -0.328844 -0.159530 -0.514143 0.239825 0.545693 -0.308560 -0.097524 -0.073267 -0.402438 -0.422049 0.058411 -0.459743 0.284517 0.173623 
question 0.050895 0.296573 -0.248267 0.172804 0.005427 0.245757 -0.203560 0.049066 0.162635 0.038480 -0.837840 -0.068492 0.617055 0.276665 -0.231981 -0.535317 0.078489 0.228724 0.079252 -0.068727 0.294615 -0.435881 -0.540140 0.365108 0.049971 0.248491 0.534993 -0.293063 0.127759 -0.261512 0.233197 -0.037422 0.095526 0.248382 -0.147538 -0.231564 -0.372802 -0.189261 -0.607106 0.279104 0.643211 -0.356444 -0.134400 -0.103478 -0.477464 -0.501652 0.056112 -0.526531 0.335097 0.196149 
them 0.053680 0.297197 -0.258303 0.169013 0.008080 0.258226 -0.208258 0.050666 0.167294 0.047673 -0.832380 -0.070312 0.618537 0.272505 -0.218884 -0.531872 0.071362 0.226307 0.074476 -0.068312 0.290027 -0.432075 -0.547024 0.357609 0.056181 0.255458 0.543510 -0.281331 0.128804 -0.264674 0.234884 -0.031049 0.099468 0.242819 -0.148206 -0.246990 -0.379209 -0.193024 -0.604198 0.278019 0.639798 -0.361307 -0.118752 -0.095270 -0.479842 -0.497772 0.066085 -0.536513 0.336038 0.199333 
group 0.056636 0.312083 -0.268658 0.178104 0.010265 0.266848 -0.217931 0.050743 0.179623 0.047282 -0.882700 -0.074481 0.655340 0.289927 -0.235569 -0.563251 0.076669 0.239073 0.078597 -0.075081 0.312238 -0.459761 -0.573620 0.379920 0.058894 0.273039 0.572689 -0.298390 0.133940 -0.278281 0.248411 -0.032314 0.101646 0.259126 -0.159724 -0.259245 -0.398339 -0.203890 -0.642387 0.295772 0.681330 -0.382897 -0.130339 -0.100132 -0.505478 -0.525104 0.065518 -0.563783 0.355307 0.208400 
competition 0.052894 0.309666 -0.261295 0.183587 0.008094 0.261359 -0.215052 0.049086 0.170224 0.039327 -0.867895 -0.067163 0.640175 0.285805 -0.236157 -0.555832 0.082538 0.238569 0.080364 -0.072517 0.305069 -0.453898 -0.561317 0.378521 0.048637 0.263543 0.561674 -0.295396 0.129361 -0.269760 0.241016 -0.035775 0.095780 0.258246 -0.152242 -0.242055 -0.389158 -0.195818 -0.625282 0.284007 0.668392 -0.368727 -0.134842 -0.103040 -0.491468 -0.517375 0.061228 -0.548757 0.340403 0.202131 
where 0.050966 0.279335 -0.245434 0.156701 0.013300 0.245885 -0.197824 0.046157 0.163468 0.044773 -0.788142 -0.066118 0.587162 0.256213 -0.207061 -0.505078 0.064718 0.214111 0.067334 -0.063092 0.274049 -0.407948 -0.513837 0.337972 0.061063 0.248836 0.520971 -0.263528 0.117969 -0.252437 0.220475 -0.029883 0.093807 0.226775 -0.143859 -0.240595 -0.365604 -0.179134 -0.575474 0.268555 0.606516 -0.342345 -0.108964 -0.085726 -0.451987 -0.467135 0.070178 -0.511783 0.320361 0.186651 
believe 0.056934 0.322120 -0.277848 0.188049 0.009528 0.276273 -0.223582 0.052625 0.178521 0.042059 -0.907340 -0.076061 0.672368 0.300651 -0.245461 -0.580233 0.080892 0.245228 0.081125 -0.071512 0.318755 -0.477266 -0.587015 0.397662 0.057593 0.272802 0.585342 -0.311870 0.140103 -0.283027 0.258687 -0.038838 0.104980 0.268656 -0.161311 -0.257408 -0.412572 -0.204136 -0.661193 0.308338 0.699797 -0.389967 -0.141560 -0.105009 -0.522476 -0.543919 0.067689 -0.579702 0.368467 0.215073 
does 0.059589 0.302865 -0.256933 0.172695 0.010115 0.262770 -0.210434 0.050380 0.169870 0.049114 -0.852547 -0.074933 0.632567 0.280931 -0.226694 -0.548272 0.074462 0.233114 0.077084 -0.068386 0.302799 -0.444910 -0.557189 0.371040 0.055557 0.263918 0.558349 -0.287410 0.127654 -0.273066 0.241434 -0.033672 0.101606 0.248884 -0.152532 -0.253757 -0.391580 -0.198078 -0.621071 0.287407 0.659454 -0.368824 -0.128558 -0.098814 -0.489600 -0.508486 0.066203 -0.549412 0.343232 0.204110 
how 0.053992 0.281410 -0.245582 0.156309 0.007135 0.245103 -0.201909 0.047912 0.161116 0.044133 -0.792251 -0.068939 0.590953 0.259274 -0.207299 -0.508971 0.062654 0.218398 0.068763 -0.065989 0.276359 -0.414209 -0.522151 0.337368 0.059913 0.253115 0.523138 -0.261960 0.118660 -0.252523 0.224119 -0.029467 0.094145 0.230032 -0.149078 -0.243432 -0.367337 -0.187050 -0.581342 0.270452 0.610612 -0.346016 -0.113117 -0.083318 -0.456446 -0.474924 0.065432 -0.513855 0.323756 0.190859 
many 0.052328 0.298942 -0.255045 0.171167 0.004925 0.252858 -0.208735 0.046578 0.165561 0.039380 -0.831625 -0.070316 0.617537 0.279122 -0.224923 -0.532756 0.072935 0.226938 0.080261 -0.068425 0.293021 -0.438397 -0.543574 0.360367 0.054351 0.256487 0.539678 -0.282080 0.121581 -0.262959 0.235490 -0.032989 0.095234 0.239256 -0.152678 -0.239613 -0.377929 -0.190843 -0.604706 0.276769 0.644355 -0.358386 -0.123691 -0.094308 -0.479533 -0.498279 0.064005 -0.535818 0.335182 0.197295 
financial 0.054605 0.304825 -0.261399 0.167838 0.004963 0.264625 -0.215130 0.045703 0.175259 0.044202 -0.853423 -0.074417 0.634741 0.275450 -0.221108 -0.545666 0.069490 0.229026 0.076054 -0.072660 0.301277 -0.443557 -0.558349 0.370606 0.061638 0.265506 0.561979 -0.288925 0.131245 -0.270019 0.236725 -0.032703 0.102755 0.247976 -0.152083 -0.254325 -0.392623 -0.197343 -0.622922 0.287993 0.655854 -0.368801 -0.122490 -0.096100 -0.487717 -0.507589 0.068469 -0.554954 0.347095 0.205243 
" 0.050605 0.255943 -0.221687 0.140572 0.006893 0.220931 -0.175249 0.043027 0.146837 0.040868 -0.709780 -0.062602 0.524404 0.234061 -0.181944 -0.455156 0.055510 0.195448 0.060526 -0.059394 0.253587 -0.368161 -0.460399 0.302023 0.054959 0.221474 0.468771 -0.238877 0.108366 -0.228904 0.197826 -0.028450 0.081911 0.207962 -0.132919 -0.210797 -0.324797 -0.162930 -0.514977 0.240072 0.544067 -0.312737 -0.100695 -0.080957 -0.408340 -0.423744 0.059449 -0.460144 0.286243 0.166800 
eu 0.049552 0.262345 -0.225804 0.149571 0.003015 0.223499 -0.178299 0.044477 0.148484 0.037790 -0.735647 -0.060678 0.544422 0.239726 -0.199696 -0.476687 0.063292 0.199512 0.069256 -0.061842 0.257113 -0.387651 -0.475519 0.320741 0.044824 0.223423 0.480384 -0.252220 0.111482 -0.235557 0.204880 -0.031806 0.090554 0.216654 -0.138139 -0.212880 -0.334087 -0.171930 -0.539356 0.245943 0.569136 -0.319511 -0.112541 -0.087985 -0.422146 -0.440553 0.056705 -0.472550 0.296921 0.175693 
order 0.055190 0.292482 -0.253787 0.166046 0.008808 0.253086 -0.205508 0.049000 0.169625 0.047114 -0.828530 -0.072719 0.612535 0.270104 -0.218886 -0.531817 0.066870 0.227834 0.073378 -0.069355 0.291619 -0.433850 -0.542523 0.358663 0.058374 0.257432 0.544381 -0.274581 0.127363 -0.263166 0.231835 -0.030648 0.098917 0.241285 -0.154550 -0.244703 -0.379855 -0.191827 -0.600630 0.284619 0.638222 -0.356735 -0.118072 -0.089574 -0.475342 -0.497798 0.066016 -0.535544 0.332503 0.196267 
here 0.048741 0.272995 -0.234989 0.157176 0.008403 0.238003 -0.196307 0.041054 0.154391 0.040673 -0.773045 -0.063304 0.576766 0.249603 -0.203499 -0.494318 0.068685 0.210635 0.070911 -0.063053 0.272309 -0.401300 -0.505370 0.333767 0.049852 0.237996 0.501232 -0.258353 0.118159 -0.248347 0.218810 -0.033911 0.090643 0.224742 -0.136986 -0.225489 -0.350830 -0.177804 -0.560380 0.263927 0.596017 -0.334197 -0.113425 -0.085894 -0.441487 -0.462301 0.059270 -0.496092 0.311350 0.183906 
today 0.051473 0.294433 -0.249448 0.170388 0.005071 0.245505 -0.198355 0.047305 0.160443 0.036995 -0.823182 -0.066689 0.607068 0.271181 -0.228606 -0.525131 0.078321 0.218300 0.078143 -0.064976 0.289607 -0.431014 -0.534179 0.359877 0.048209 0.249914 0.528962 -0.281901 0.125087 -0.254118 0.228989 -0.039157 0.096409 0.244836 -0.144024 -0.227844 -0.368034 -0.186408 -0.593453 0.273638 0.634905 -0.350335 -0.129480 -0.100600 -0.470550 -0.491250 0.055947 -0.522906 0.328965 0.195345 
most 0.048443 0.268393 -0.232315 0.153812 0.005060 0.229036 -0.186395 0.043698 0.155694 0.041586 -0.759609 -0.062794 0.562620 0.249228 -0.206575 -0.482425 0.064487 0.207249 0.068931 -0.064157 0.266028 -0.399295 -0.494577 0.327803 0.051615 0.235239 0.492973 -0.259894 0.116053 -0.240525 0.211739 -0.027410 0.090470 0.223472 -0.132005 -0.217747 -0.346736 -0.170423 -0.549243 0.251447 0.583745 -0.325339 -0.112930 -0.087122 -0.432861 -0.456559 0.057818 -0.487807 0.303014 0.181096 
think 0.037959 0.223337 -0.180949 0.134273 0.003648 0.182751 -0.146979 0.033258 0.117234 0.028248 -0.619687 -0.047487 0.458542 0.208183 -0.178469 -0.393443 0.068091 0.166406 0.059929 -0.046785 0.219863 -0.327547 -0.398130 0.275879 0.024744 0.179621 0.392677 -0.217361 0.098070 -0.189183 0.171846 -0.028236 0.067099 0.188353 -0.107396 -0.160532 -0.278161 -0.141440 -0.448807 0.206418 0.480092 -0.260633 -0.112755 -0.077338 -0.352086 -0.376090 0.039705 -0.387704 0.246555 0.144139 
possible 0.044527 0.256523 -0.218922 0.145482 0.004806 0.219526 -0.177875 0.040871 0.142759 0.039190 -0.716192 -0.065082 0.532043 0.236776 -0.193409 -0.460714 0.061498 0.195496 0.064575 -0.060581 0.250957 -0.373148 -0.468436 0.307755 0.045365 0.219213 0.469941 -0.244168 0.106075 -0.228547 0.202947 -0.029555 0.080360 0.210037 -0.131616 -0.206974 -0.320448 -0.165375 -0.525236 0.246574 0.555418 -0.308578 -0.107701 -0.083490 -0.413174 -0.430636 0.054359 -0.459124 0.289267 0.172053 
already 0.035601 0.225886 -0.178953 0.142086 0.001124 0.182691 -0.148037 0.031344 0.114252 0.019385 -0.626870 -0.045312 0.463002 0.212357 -0.181234 -0.397185 0.073362 0.167867 0.064019 -0.051992 0.217523 -0.337506 -0.402684 0.281773 0.022428 0.175224 0.394166 -0.227973 0.099709 -0.188339 0.169210 -0.026237 0.065863 0.192067 -0.104673 -0.150755 -0.274411 -0.139241 -0.453098 0.202981 0.481480 -0.258062 -0.108075 -0.083569 -0.350384 -0.377186 0.030899 -0.387319 0.243535 0.143752 
market 0.049448 0.254268 -0.227310 0.142430 0.006972 0.222599 -0.182162 0.040131 0.146905 0.040387 -0.723341 -0.059760 0.535365 0.237385 -0.184531 -0.461007 0.061217 0.193677 0.063053 -0.060149 0.250400 -0.378051 -0.472380 0.310608 0.053321 0.227354 0.470671 -0.242465 0.111389 -0.230084 0.203228 -0.030743 0.082883 0.206693 -0.132947 -0.216053 -0.333847 -0.165084 -0.528643 0.241876 0.556835 -0.313637 -0.104229 -0.078921 -0.415354 -0.431016 0.056601 -0.468006 0.293572 0.176324 
; 0.048216 0.251932 -0.218184 0.142979 0.004622 0.214932 -0.178390 0.039837 0.143982 0.034036 -0.711912 -0.058775 0.527365 0.234942 -0.194543 -0.455405 0.058119 0.192892 0.065089 -0.059074 0.251207 -0.371358 -0.464672 0.306363 0.047098 0.219279 0.463781 -0.240850 0.106442 -0.226686 0.202999 -0.030555 0.083372 0.209270 -0.130234 -0.205398 -0.324801 -0.157233 -0.516583 0.242134 0.546263 -0.300145 -0.107414 -0.079468 -0.404287 -0.426195 0.055864 -0.451866 0.290558 0.169826 
madam 0.059938 0.346905 -0.294142 0.203314 0.009032 0.296299 -0.238623 0.054605 0.194811 0.051270 -0.974773 -0.078254 0.723832 0.322393 -0.267960 -0.624790 0.088431 0.264044 0.089790 -0.079813 0.341489 -0.512467 -0.632071 0.422727 0.062523 0.295494 0.630200 -0.333462 0.150286 -0.307384 0.270132 -0.041032 0.116750 0.290086 -0.171833 -0.278129 -0.438955 -0.221680 -0.709251 0.328355 0.746669 -0.419921 -0.147517 -0.114979 -0.554681 -0.582646 0.069186 -0.619782 0.388630 0.231778 
public 0.059245 0.309242 -0.265316 0.183279 0.006205 0.267770 -0.219115 0.051747 0.172885 0.038609 -0.881675 -0.072614 0.648538 0.289092 -0.240469 -0.563125 0.073292 0.237409 0.078707 -0.072137 0.312670 -0.459671 -0.570104 0.381936 0.054027 0.266700 0.570172 -0.298057 0.133741 -0.274388 0.245587 -0.037254 0.105177 0.258867 -0.161628 -0.249961 -0.398542 -0.202130 -0.638563 0.296233 0.676552 -0.381518 -0.134120 -0.100369 -0.505097 -0.527638 0.066165 -0.559213 0.352814 0.207603 
area 0.053323 0.279893 -0.245905 0.159666 0.006234 0.243014 -0.196573 0.043683 0.161438 0.043191 -0.787848 -0.069263 0.583853 0.258049 -0.208085 -0.509274 0.067714 0.213557 0.068568 -0.062123 0.277800 -0.409348 -0.516524 0.340783 0.057123 0.244149 0.516775 -0.265366 0.120387 -0.252920 0.223990 -0.029597 0.093106 0.226053 -0.144659 -0.238969 -0.358240 -0.180827 -0.576879 0.270051 0.608795 -0.346479 -0.113593 -0.089012 -0.453796 -0.470481 0.060215 -0.513846 0.317433 0.188970 
under 0.045195 0.245868 -0.209584 0.140037 0.003289 0.210946 -0.172719 0.040839 0.139778 0.033815 -0.696349 -0.058593 0.516183 0.230959 -0.188409 -0.445228 0.060144 0.186993 0.061995 -0.054742 0.245760 -0.363849 -0.450890 0.299977 0.044042 0.211453 0.451868 -0.232900 0.105983 -0.217285 0.196295 -0.030210 0.081417 0.206655 -0.125430 -0.202146 -0.314421 -0.157164 -0.503571 0.232946 0.535890 -0.297576 -0.103276 -0.081649 -0.398278 -0.419725 0.050403 -0.446648 0.277952 0.161547 
could 0.044654 0.268674 -0.225789 0.156290 0.004414 0.223899 -0.181212 0.040493 0.146737 0.037569 -0.753077 -0.063948 0.557361 0.248230 -0.205236 -0.486664 0.065516 0.206506 0.074278 -0.061732 0.262092 -0.393999 -0.489545 0.327484 0.044112 0.227212 0.485100 -0.258654 0.116379 -0.236741 0.208420 -0.032348 0.081665 0.224622 -0.132407 -0.212177 -0.340933 -0.170001 -0.543744 0.247970 0.578464 -0.318329 -0.120208 -0.092843 -0.430290 -0.449167 0.051292 -0.475857 0.302193 0.178107 
national 0.046988 0.236184 -0.202238 0.140774 0.005887 0.204221 -0.163334 0.035391 0.135535 0.033158 -0.668652 -0.056908 0.492733 0.220532 -0.175900 -0.424999 0.060567 0.179232 0.058528 -0.057701 0.236950 -0.346873 -0.434529 0.289556 0.042780 0.203680 0.434518 -0.228285 0.100457 -0.210636 0.185696 -0.025304 0.076642 0.195982 -0.118888 -0.196179 -0.303676 -0.153909 -0.485434 0.225593 0.514720 -0.288267 -0.100856 -0.080056 -0.380558 -0.398725 0.048733 -0.423693 0.267380 0.159745 
want 0.060278 0.325251 -0.278725 0.179407 0.009919 0.279597 -0.222325 0.052087 0.181467 0.046241 -0.911936 -0.076031 0.671426 0.296491 -0.241471 -0.582764 0.076969 0.248532 0.082100 -0.075935 0.320137 -0.473214 -0.592795 0.391249 0.062200 0.282853 0.592093 -0.308479 0.137156 -0.287152 0.254020 -0.037727 0.105623 0.271310 -0.164985 -0.268969 -0.412666 -0.206651 -0.661528 0.305126 0.695984 -0.396870 -0.134846 -0.104972 -0.522979 -0.543823 0.069244 -0.582858 0.369071 0.216609 
proposal 0.053810 0.297187 -0.252994 0.168330 0.007391 0.254436 -0.206790 0.046023 0.172100 0.042030 -0.835919 -0.072532 0.620523 0.275084 -0.221370 -0.534370 0.071774 0.227953 0.078347 -0.068897 0.293002 -0.432410 -0.544013 0.361973 0.053536 0.256089 0.542245 -0.279018 0.125479 -0.265487 0.230604 -0.032330 0.097478 0.240676 -0.153363 -0.246789 -0.379452 -0.192826 -0.606641 0.278408 0.641604 -0.359384 -0.125583 -0.095151 -0.479427 -0.497199 0.062404 -0.536702 0.335237 0.200448 
see 0.052558 0.289421 -0.252117 0.167439 0.011967 0.250350 -0.204809 0.044908 0.163882 0.040819 -0.817901 -0.073916 0.605981 0.269828 -0.218266 -0.523708 0.070235 0.223429 0.072565 -0.064955 0.285451 -0.425798 -0.533105 0.355007 0.053637 0.255482 0.536560 -0.275774 0.126197 -0.258420 0.226628 -0.031739 0.096881 0.238927 -0.149815 -0.238877 -0.371240 -0.186406 -0.594393 0.276357 0.631618 -0.353961 -0.121040 -0.094260 -0.469177 -0.485561 0.062757 -0.523427 0.329332 0.194172 
course 0.054996 0.311354 -0.271620 0.173992 0.008755 0.270094 -0.220047 0.050765 0.177536 0.046808 -0.877336 -0.074258 0.649736 0.288114 -0.233635 -0.568057 0.074263 0.236923 0.077565 -0.073569 0.310347 -0.456802 -0.572190 0.378538 0.061614 0.269332 0.572663 -0.296216 0.132926 -0.277334 0.246039 -0.035150 0.104534 0.254881 -0.160816 -0.260348 -0.397126 -0.198422 -0.635982 0.301027 0.674776 -0.381367 -0.127896 -0.097837 -0.503470 -0.525855 0.067702 -0.564640 0.356644 0.209079 
then 0.055752 0.316796 -0.266652 0.183602 0.005791 0.266150 -0.217802 0.052069 0.175769 0.045108 -0.887789 -0.076259 0.657506 0.293634 -0.237235 -0.571265 0.083734 0.243092 0.080623 -0.069296 0.311884 -0.464728 -0.572075 0.385071 0.057597 0.271500 0.574627 -0.301482 0.133684 -0.279696 0.248311 -0.038216 0.103063 0.261984 -0.156241 -0.251618 -0.399641 -0.202943 -0.643633 0.295413 0.683588 -0.379476 -0.139244 -0.106069 -0.503870 -0.531634 0.062826 -0.566373 0.355099 0.212147 
two 0.051548 0.293468 -0.257498 0.172363 0.006295 0.257389 -0.210314 0.048425 0.169957 0.045327 -0.847928 -0.074810 0.623070 0.280100 -0.227640 -0.543595 0.076962 0.231489 0.080509 -0.066876 0.299773 -0.442050 -0.550428 0.366205 0.055065 0.260621 0.548763 -0.285901 0.127362 -0.265942 0.236774 -0.031960 0.098739 0.249520 -0.152510 -0.244526 -0.382460 -0.192016 -0.616226 0.282778 0.652393 -0.365320 -0.125905 -0.097253 -0.482269 -0.502009 0.063649 -0.537130 0.339904 0.198497 
same 0.056045 0.307811 -0.263338 0.178716 0.006343 0.265509 -0.215135 0.045263 0.173660 0.042740 -0.867648 -0.072826 0.642143 0.286031 -0.229626 -0.557066 0.077595 0.235400 0.079811 -0.073569 0.306967 -0.454386 -0.563307 0.377248 0.052608 0.261788 0.561558 -0.297120 0.135304 -0.274469 0.240912 -0.037252 0.100311 0.253881 -0.154320 -0.246602 -0.392923 -0.194819 -0.628771 0.290416 0.668230 -0.374901 -0.131143 -0.104546 -0.494220 -0.518999 0.067406 -0.556452 0.347452 0.207826 
even 0.042359 0.245273 -0.204330 0.147709 0.004556 0.208680 -0.170057 0.040792 0.133358 0.032061 -0.699790 -0.059834 0.519531 0.232505 -0.193987 -0.445792 0.062620 0.188544 0.065229 -0.055018 0.245238 -0.371827 -0.446856 0.307725 0.041941 0.207209 0.450078 -0.239306 0.109446 -0.216997 0.189377 -0.031367 0.080918 0.208687 -0.121077 -0.191160 -0.310853 -0.156900 -0.504619 0.231902 0.539407 -0.298166 -0.111368 -0.082098 -0.394631 -0.414637 0.050524 -0.440080 0.279166 0.163387 
initiative 0.047351 0.276374 -0.235730 0.161702 0.006335 0.231079 -0.186672 0.044589 0.153696 0.041555 -0.774110 -0.065586 0.574903 0.255230 -0.211211 -0.492185 0.072137 0.211516 0.075715 -0.061959 0.276311 -0.407037 -0.501479 0.338622 0.044408 0.233843 0.500760 -0.264521 0.119416 -0.243447 0.217309 -0.033336 0.089257 0.230514 -0.139639 -0.215943 -0.349070 -0.173811 -0.565783 0.261017 0.597919 -0.333207 -0.124224 -0.093315 -0.440281 -0.463274 0.054145 -0.491049 0.309568 0.179432 
too 0.061304 0.322921 -0.276870 0.182531 0.009176 0.273497 -0.226977 0.049772 0.181918 0.046801 -0.903716 -0.076848 0.667360 0.296457 -0.240289 -0.576577 0.080979 0.246457 0.082295 -0.073538 0.316260 -0.468238 -0.588287 0.391489 0.059362 0.275762 0.586166 -0.303954 0.138528 -0.286454 0.252141 -0.033402 0.105690 0.265851 -0.166050 -0.267780 -0.411199 -0.206411 -0.654101 0.305530 0.695327 -0.394721 -0.133407 -0.099574 -0.516002 -0.538325 0.067957 -0.579449 0.361250 0.214124 
had 0.043507 0.232166 -0.195135 0.137653 0.003439 0.201119 -0.159696 0.036657 0.125808 0.034311 -0.653790 -0.054941 0.482644 0.213540 -0.174939 -0.418197 0.057461 0.178842 0.059323 -0.052400 0.233010 -0.346326 -0.426149 0.279108 0.040885 0.198733 0.424239 -0.220817 0.099312 -0.208825 0.180988 -0.027595 0.077092 0.189816 -0.114370 -0.188361 -0.295491 -0.149183 -0.476012 0.220723 0.506058 -0.280548 -0.101082 -0.074742 -0.373732 -0.391067 0.048398 -0.416010 0.264677 0.155615 
me 0.055098 0.299217 -0.254213 0.174257 0.005777 0.254989 -0.206998 0.049405 0.168189 0.043319 -0.837356 -0.069103 0.622015 0.277838 -0.224649 -0.535485 0.073512 0.226718 0.077806 -0.066396 0.296175 -0.437915 -0.544604 0.367155 0.052456 0.254464 0.543368 -0.285485 0.130724 -0.262729 0.234561 -0.034512 0.099254 0.247738 -0.149544 -0.237952 -0.378611 -0.193346 -0.611126 0.280595 0.642496 -0.363151 -0.126959 -0.100186 -0.481433 -0.497543 0.060821 -0.533906 0.331564 0.204093 
mrs 0.049199 0.294885 -0.242051 0.177917 0.005769 0.245252 -0.199641 0.044927 0.161952 0.041069 -0.830439 -0.068736 0.612575 0.274574 -0.231246 -0.526137 0.083211 0.220434 0.081535 -0.066687 0.288396 -0.437761 -0.535224 0.364149 0.044523 0.243741 0.530311 -0.286575 0.124214 -0.257435 0.226702 -0.035728 0.094380 0.248904 -0.143848 -0.223525 -0.366595 -0.186800 -0.596079 0.267335 0.632863 -0.351830 -0.137080 -0.104461 -0.468568 -0.495843 0.051132 -0.518354 0.332641 0.192614 
much 0.054630 0.284182 -0.240253 0.156612 0.006720 0.246391 -0.195232 0.046850 0.159766 0.043109 -0.791457 -0.068879 0.585392 0.258546 -0.206910 -0.508636 0.066092 0.214204 0.071030 -0.066080 0.277371 -0.411527 -0.516496 0.340257 0.056888 0.244489 0.520249 -0.262942 0.121218 -0.251993 0.222973 -0.030785 0.095945 0.228481 -0.146805 -0.238028 -0.363124 -0.183800 -0.576299 0.270720 0.612066 -0.341846 -0.113094 -0.085220 -0.455827 -0.474963 0.062286 -0.512405 0.320180 0.189746 
may 0.042666 0.255665 -0.205955 0.159614 0.002900 0.207930 -0.171785 0.040183 0.134034 0.026320 -0.720148 -0.057815 0.527626 0.241167 -0.208195 -0.457360 0.076049 0.195842 0.071671 -0.056618 0.249190 -0.379079 -0.458848 0.318272 0.027831 0.202328 0.454452 -0.255733 0.110506 -0.216350 0.197562 -0.031539 0.082414 0.222425 -0.122997 -0.179320 -0.315688 -0.159500 -0.517783 0.231686 0.548853 -0.298206 -0.125148 -0.093296 -0.407986 -0.432213 0.038978 -0.443230 0.282616 0.165136 
future 0.053253 0.280835 -0.243299 0.160885 0.006845 0.243369 -0.196163 0.046483 0.161446 0.043304 -0.788124 -0.070569 0.587659 0.258041 -0.210635 -0.506728 0.068592 0.215464 0.073553 -0.066201 0.279728 -0.412116 -0.519745 0.340897 0.056396 0.248284 0.515928 -0.265814 0.120747 -0.253314 0.221955 -0.031912 0.096536 0.229149 -0.142596 -0.235976 -0.363714 -0.183115 -0.574598 0.269742 0.611981 -0.342134 -0.116325 -0.090037 -0.454681 -0.475030 0.067282 -0.512093 0.319466 0.192048 
cannot 0.053551 0.297809 -0.250606 0.171383 0.006523 0.250801 -0.203449 0.048813 0.162827 0.041110 -0.831787 -0.068691 0.615318 0.273716 -0.224152 -0.532104 0.076702 0.226629 0.076898 -0.068288 0.292263 -0.433501 -0.535039 0.362363 0.051733 0.251831 0.533035 -0.286484 0.125500 -0.260412 0.231147 -0.032190 0.098047 0.246564 -0.148238 -0.232170 -0.376463 -0.187798 -0.601202 0.279709 0.637697 -0.353276 -0.127096 -0.098230 -0.476657 -0.493566 0.058991 -0.526942 0.331184 0.195445 
said 0.034997 0.195179 -0.167213 0.112235 0.003911 0.169323 -0.134363 0.031049 0.114961 0.028980 -0.554110 -0.044714 0.407013 0.182997 -0.153532 -0.354474 0.053592 0.150915 0.050666 -0.046801 0.192795 -0.288571 -0.361837 0.237427 0.035459 0.165510 0.357521 -0.190158 0.084217 -0.173452 0.156648 -0.020722 0.063600 0.159377 -0.099298 -0.159322 -0.252267 -0.129262 -0.402982 0.184817 0.429311 -0.238412 -0.082766 -0.067443 -0.315422 -0.327678 0.042800 -0.353911 0.223209 0.130708 
why 0.047097 0.256334 -0.221543 0.144517 0.007592 0.222434 -0.182103 0.041451 0.147781 0.040029 -0.723738 -0.062272 0.537507 0.236014 -0.189348 -0.464149 0.061659 0.195714 0.063000 -0.061018 0.255104 -0.377713 -0.469873 0.312149 0.049574 0.224232 0.470888 -0.243313 0.107597 -0.228314 0.204941 -0.026868 0.085510 0.212809 -0.131257 -0.216146 -0.331720 -0.167035 -0.524577 0.245075 0.553782 -0.313358 -0.106352 -0.081300 -0.416527 -0.433996 0.057888 -0.464122 0.295327 0.171001 
amendments 0.058241 0.318920 -0.274860 0.181172 0.009434 0.274849 -0.220235 0.053653 0.182761 0.048447 -0.895353 -0.076721 0.662538 0.295789 -0.237964 -0.572629 0.079588 0.240188 0.080130 -0.073020 0.316705 -0.466556 -0.581997 0.387035 0.061739 0.275685 0.579946 -0.301727 0.136875 -0.282420 0.251351 -0.034498 0.103442 0.264119 -0.163906 -0.264939 -0.407794 -0.204778 -0.653384 0.297709 0.689646 -0.386415 -0.129464 -0.103525 -0.514549 -0.534237 0.068565 -0.572665 0.360090 0.212820 
years 0.037483 0.197677 -0.167337 0.116364 0.004928 0.168015 -0.137420 0.029131 0.109649 0.026001 -0.562861 -0.043482 0.412365 0.185354 -0.151121 -0.357676 0.053469 0.153340 0.055744 -0.045143 0.195303 -0.295947 -0.359842 0.243047 0.030735 0.166526 0.358559 -0.196617 0.088181 -0.172247 0.156787 -0.023305 0.061401 0.167533 -0.100128 -0.152284 -0.252061 -0.128206 -0.405178 0.183717 0.430780 -0.241322 -0.087415 -0.069768 -0.318800 -0.334539 0.037421 -0.353284 0.224009 0.134342 
system 0.056923 0.299532 -0.258669 0.168817 0.007654 0.256553 -0.210884 0.049853 0.167648 0.046078 -0.839814 -0.076433 0.623247 0.277156 -0.228369 -0.538213 0.076810 0.225706 0.075913 -0.067988 0.295177 -0.438657 -0.546705 0.363390 0.059873 0.259857 0.546765 -0.283369 0.128789 -0.267284 0.234772 -0.031589 0.097980 0.243919 -0.150661 -0.246795 -0.381732 -0.192696 -0.610162 0.281779 0.650796 -0.361629 -0.124614 -0.093767 -0.477391 -0.502800 0.068905 -0.537353 0.341345 0.200005 
directive 0.051277 0.285583 -0.243502 0.159731 0.011070 0.245796 -0.199458 0.045776 0.161377 0.043864 -0.795782 -0.067402 0.589586 0.259864 -0.208301 -0.510713 0.066150 0.215311 0.069027 -0.065908 0.279416 -0.412951 -0.518821 0.346083 0.057143 0.247584 0.517182 -0.267581 0.118612 -0.255154 0.224835 -0.030688 0.094481 0.233326 -0.146857 -0.237923 -0.361488 -0.181159 -0.580871 0.268383 0.613486 -0.346594 -0.116180 -0.088922 -0.457167 -0.478279 0.061988 -0.514361 0.318373 0.187813 
programmes 0.057231 0.311884 -0.269511 0.178667 0.008584 0.267720 -0.216132 0.050608 0.178981 0.043508 -0.878162 -0.073472 0.648817 0.289198 -0.236492 -0.563753 0.078892 0.239632 0.084592 -0.069897 0.309438 -0.457138 -0.570485 0.381041 0.057605 0.268802 0.570298 -0.298738 0.135371 -0.280227 0.248693 -0.035211 0.097558 0.259950 -0.160083 -0.251166 -0.394591 -0.203182 -0.638652 0.294494 0.676996 -0.381308 -0.133309 -0.102776 -0.507899 -0.524326 0.065800 -0.564118 0.353262 0.207975 
against 0.057270 0.295245 -0.249804 0.175202 0.003487 0.250039 -0.203896 0.046127 0.164153 0.040761 -0.829687 -0.065832 0.616131 0.269035 -0.225210 -0.534942 0.080699 0.224093 0.078290 -0.069827 0.291664 -0.437381 -0.537319 0.364327 0.052409 0.248639 0.535578 -0.284619 0.127099 -0.258712 0.229464 -0.035561 0.097777 0.244620 -0.147182 -0.236015 -0.373782 -0.186151 -0.601615 0.277337 0.639802 -0.355776 -0.130306 -0.098300 -0.473580 -0.496353 0.059711 -0.523798 0.334106 0.192475 
last 0.051542 0.287227 -0.249979 0.163319 0.008299 0.248964 -0.197855 0.047529 0.164302 0.044169 -0.810902 -0.067925 0.600989 0.261892 -0.213326 -0.523275 0.070400 0.220363 0.069357 -0.066286 0.284799 -0.421357 -0.529502 0.352918 0.057260 0.251727 0.532166 -0.270897 0.125492 -0.255623 0.228922 -0.028914 0.095056 0.241085 -0.147875 -0.238797 -0.367264 -0.186078 -0.589561 0.270184 0.623717 -0.351345 -0.118274 -0.089344 -0.466612 -0.485221 0.062807 -0.523972 0.328768 0.192145 
well 0.050673 0.281382 -0.249405 0.152235 0.012953 0.248137 -0.202372 0.047596 0.170012 0.044376 -0.784324 -0.071915 0.585607 0.258068 -0.199929 -0.507413 0.054734 0.216556 0.065078 -0.069024 0.276896 -0.404508 -0.520703 0.339712 0.061294 0.255064 0.519465 -0.256196 0.116117 -0.260024 0.225135 -0.028347 0.091708 0.226504 -0.148556 -0.249497 -0.362776 -0.181441 -0.575496 0.274222 0.607159 -0.346710 -0.102682 -0.079109 -0.458016 -0.472551 0.066812 -0.519227 0.322173 0.191024 
process 0.058008 0.301781 -0.260238 0.176412 0.005393 0.258083 -0.208559 0.049639 0.172069 0.046588 -0.853961 -0.071149 0.633256 0.284061 -0.233752 -0.549671 0.077887 0.231690 0.080653 -0.067716 0.298880 -0.447872 -0.551526 0.374529 0.052526 0.259017 0.556446 -0.286777 0.129316 -0.267463 0.239016 -0.035532 0.102260 0.254662 -0.155289 -0.243952 -0.386560 -0.193299 -0.620682 0.286263 0.657164 -0.367431 -0.128124 -0.102390 -0.489728 -0.510985 0.060950 -0.543679 0.342277 0.200586 
his 0.050372 0.289673 -0.240345 0.177363 0.008732 0.242206 -0.196203 0.046878 0.153439 0.036707 -0.818326 -0.065035 0.604091 0.269424 -0.228185 -0.518975 0.081068 0.221704 0.082536 -0.066187 0.284630 -0.430987 -0.529334 0.357671 0.045208 0.242219 0.526744 -0.280007 0.127410 -0.253803 0.226733 -0.035680 0.094417 0.249748 -0.142857 -0.220442 -0.364381 -0.182782 -0.587727 0.267884 0.626653 -0.348107 -0.134437 -0.100706 -0.463380 -0.491780 0.055924 -0.514237 0.327231 0.194290 
able 0.056666 0.303466 -0.259588 0.176054 0.006656 0.261459 -0.210421 0.050453 0.173202 0.043760 -0.857231 -0.076936 0.634672 0.282633 -0.228708 -0.550698 0.072538 0.229169 0.078608 -0.072505 0.298167 -0.449470 -0.557299 0.372320 0.058546 0.262601 0.554653 -0.288347 0.129157 -0.270493 0.239011 -0.034566 0.099538 0.251210 -0.155387 -0.248610 -0.389569 -0.196825 -0.622498 0.285454 0.656744 -0.368725 -0.128672 -0.098296 -0.489665 -0.515087 0.063215 -0.546968 0.344123 0.202754 
ensure 0.051608 0.297471 -0.249052 0.174508 0.006704 0.252123 -0.206450 0.048024 0.164615 0.039125 -0.830477 -0.069066 0.614222 0.275342 -0.222950 -0.530687 0.073690 0.223137 0.081190 -0.068348 0.291948 -0.438644 -0.535913 0.362875 0.053597 0.251035 0.539627 -0.281019 0.124793 -0.262953 0.232473 -0.032320 0.094666 0.245083 -0.148186 -0.239234 -0.374453 -0.189595 -0.605948 0.280183 0.636688 -0.352172 -0.129482 -0.098984 -0.475621 -0.495241 0.059766 -0.527583 0.330442 0.193557 
still 0.052253 0.290134 -0.251754 0.167421 0.008854 0.250915 -0.201202 0.047866 0.166056 0.043292 -0.818827 -0.067089 0.605575 0.268616 -0.220524 -0.524558 0.071984 0.221244 0.075363 -0.069197 0.289012 -0.422812 -0.532103 0.355331 0.054557 0.246615 0.527085 -0.276318 0.124456 -0.256589 0.230452 -0.036649 0.095268 0.241293 -0.149269 -0.236444 -0.374617 -0.187234 -0.594449 0.272765 0.631445 -0.355146 -0.122448 -0.094642 -0.470160 -0.489417 0.064200 -0.521960 0.326743 0.194782 
level 0.050555 0.289309 -0.245132 0.168094 0.006900 0.248124 -0.198901 0.047008 0.159903 0.041019 -0.822961 -0.067897 0.607766 0.273862 -0.224420 -0.528711 0.078832 0.220624 0.076168 -0.065418 0.287760 -0.430894 -0.535993 0.360165 0.048699 0.246482 0.531474 -0.282959 0.125736 -0.257392 0.229620 -0.034836 0.094942 0.242956 -0.145082 -0.231513 -0.366775 -0.184829 -0.595592 0.272662 0.630192 -0.351498 -0.129343 -0.099478 -0.468664 -0.488969 0.057304 -0.519678 0.331160 0.194549 
clear 0.051828 0.278759 -0.236130 0.157364 0.009251 0.233346 -0.192071 0.045933 0.154254 0.038531 -0.775611 -0.064908 0.571389 0.255069 -0.207556 -0.495920 0.068115 0.209935 0.073076 -0.065859 0.274280 -0.405578 -0.505622 0.341044 0.047521 0.236720 0.500040 -0.263921 0.122369 -0.243625 0.213442 -0.031079 0.090014 0.229042 -0.138963 -0.223692 -0.351279 -0.174342 -0.564550 0.260136 0.596839 -0.331346 -0.115724 -0.092164 -0.442905 -0.462239 0.058810 -0.497176 0.310875 0.184642 
given 0.057194 0.326087 -0.274742 0.195716 0.007891 0.272933 -0.221405 0.052317 0.180969 0.040921 -0.920374 -0.074582 0.677723 0.306910 -0.253658 -0.588208 0.084479 0.251552 0.089906 -0.076113 0.321719 -0.487338 -0.594143 0.405196 0.049129 0.272253 0.587935 -0.319420 0.138851 -0.288055 0.256615 -0.040916 0.104548 0.275045 -0.159082 -0.249214 -0.411988 -0.207071 -0.667873 0.302140 0.707083 -0.393133 -0.152096 -0.113327 -0.525210 -0.552678 0.061768 -0.576894 0.367836 0.216290 
regional 0.054879 0.292392 -0.256971 0.163212 0.011540 0.252533 -0.206293 0.050448 0.165764 0.046928 -0.820269 -0.074246 0.615739 0.268781 -0.213810 -0.531611 0.072939 0.226077 0.072747 -0.070521 0.291289 -0.426247 -0.537238 0.353857 0.056725 0.257060 0.539225 -0.271910 0.126243 -0.264015 0.231602 -0.030438 0.094788 0.235853 -0.151295 -0.249929 -0.377372 -0.190711 -0.598960 0.282167 0.631076 -0.357138 -0.113872 -0.093825 -0.470642 -0.486368 0.066407 -0.533062 0.331606 0.194512 
common 0.053090 0.289594 -0.241554 0.173652 0.006481 0.242325 -0.194934 0.040050 0.159312 0.036185 -0.813351 -0.068011 0.601912 0.269839 -0.226743 -0.517711 0.077708 0.220656 0.079551 -0.063977 0.284608 -0.428879 -0.523159 0.354239 0.039493 0.245866 0.522464 -0.283255 0.125009 -0.250947 0.223870 -0.032607 0.093578 0.240276 -0.141446 -0.223818 -0.365956 -0.184244 -0.591185 0.267195 0.620477 -0.343231 -0.130922 -0.099835 -0.462804 -0.482258 0.056917 -0.510863 0.325439 0.189745 
right 0.061121 0.326995 -0.275607 0.187553 0.009188 0.280612 -0.224666 0.054006 0.185281 0.049345 -0.913990 -0.076746 0.676782 0.301039 -0.248015 -0.589449 0.081895 0.251467 0.083566 -0.075747 0.323371 -0.480442 -0.592924 0.393664 0.053956 0.278103 0.592412 -0.310234 0.139116 -0.289454 0.256283 -0.038512 0.107209 0.268071 -0.166997 -0.264631 -0.413746 -0.207635 -0.663991 0.307672 0.703715 -0.394944 -0.139569 -0.106550 -0.527178 -0.542196 0.071095 -0.582255 0.367501 0.216436 
citizens 0.050972 0.273862 -0.237713 0.154454 0.008377 0.234851 -0.193182 0.044083 0.155589 0.044696 -0.773482 -0.066964 0.571171 0.252103 -0.204844 -0.494806 0.066430 0.210854 0.067704 -0.066098 0.270942 -0.403595 -0.505391 0.331014 0.050907 0.240809 0.505643 -0.260828 0.113962 -0.245172 0.218118 -0.027908 0.089608 0.225069 -0.140184 -0.224318 -0.350046 -0.176633 -0.561666 0.259785 0.593220 -0.336042 -0.116057 -0.086606 -0.443768 -0.460791 0.061181 -0.500117 0.308487 0.182028 
situation 0.056093 0.269040 -0.241005 0.148772 0.014272 0.238511 -0.189778 0.049268 0.158721 0.045572 -0.767988 -0.068077 0.572997 0.250718 -0.198511 -0.493939 0.059666 0.208699 0.068511 -0.064347 0.269469 -0.395506 -0.506057 0.329247 0.062716 0.246909 0.508836 -0.250752 0.117175 -0.248899 0.220056 -0.027926 0.093618 0.223160 -0.144486 -0.237006 -0.355132 -0.181774 -0.560620 0.266824 0.595307 -0.338705 -0.104573 -0.081336 -0.445263 -0.456193 0.068778 -0.500767 0.315309 0.183834 
particularly 0.043684 0.231623 -0.206966 0.129681 0.010754 0.206707 -0.168456 0.039741 0.136412 0.038892 -0.649693 -0.057755 0.482234 0.207004 -0.167969 -0.418730 0.051184 0.174868 0.055189 -0.055878 0.228390 -0.333357 -0.428111 0.280936 0.051150 0.207274 0.429125 -0.214463 0.096607 -0.210844 0.185284 -0.023835 0.077077 0.189127 -0.119833 -0.202040 -0.300258 -0.149128 -0.472216 0.221763 0.500356 -0.286305 -0.088284 -0.068705 -0.378019 -0.387518 0.056796 -0.428898 0.265437 0.157324 
principle 0.051468 0.289242 -0.248966 0.172293 0.004865 0.248504 -0.202265 0.046590 0.162700 0.037919 -0.822789 -0.067205 0.606214 0.272481 -0.225619 -0.524135 0.076569 0.223619 0.081250 -0.067535 0.286785 -0.432675 -0.531054 0.360444 0.045820 0.244964 0.526446 -0.282508 0.126837 -0.256448 0.227952 -0.034568 0.093601 0.247668 -0.148306 -0.223743 -0.365436 -0.185898 -0.595216 0.274952 0.632959 -0.352253 -0.132282 -0.101919 -0.468131 -0.492732 0.056259 -0.518345 0.328210 0.195867 
action 0.041351 0.265382 -0.211498 0.167724 0.000144 0.213897 -0.171590 0.043317 0.137041 0.026209 -0.740040 -0.054453 0.542566 0.247576 -0.212562 -0.467872 0.082430 0.201994 0.078028 -0.055994 0.256360 -0.398068 -0.468983 0.329160 0.025563 0.211588 0.465125 -0.262607 0.115763 -0.221829 0.201663 -0.033482 0.080626 0.224187 -0.123778 -0.181307 -0.320502 -0.165081 -0.535115 0.239422 0.567531 -0.309593 -0.133249 -0.098722 -0.417239 -0.444447 0.038940 -0.455047 0.292009 0.169130 
members 0.039215 0.229269 -0.194193 0.135310 0.001173 0.195024 -0.160090 0.036677 0.125986 0.033227 -0.645050 -0.053794 0.479663 0.215581 -0.175765 -0.411393 0.059942 0.174789 0.062887 -0.055320 0.227286 -0.339398 -0.421879 0.281979 0.040630 0.191574 0.418972 -0.224451 0.098677 -0.199746 0.179886 -0.027532 0.073463 0.192425 -0.110944 -0.182495 -0.290817 -0.149318 -0.469129 0.215143 0.496682 -0.279116 -0.099796 -0.077136 -0.369712 -0.384059 0.045720 -0.404157 0.253997 0.149475 
case 0.043568 0.268091 -0.226929 0.163149 0.007145 0.225435 -0.183812 0.039818 0.150339 0.039011 -0.759103 -0.058088 0.559872 0.249891 -0.208115 -0.484569 0.072831 0.208900 0.073276 -0.060446 0.263613 -0.402174 -0.484552 0.334185 0.044781 0.223531 0.483934 -0.260414 0.117707 -0.235352 0.213958 -0.029185 0.085966 0.224974 -0.135359 -0.208337 -0.339401 -0.167675 -0.550613 0.250003 0.582853 -0.323428 -0.124163 -0.095255 -0.433037 -0.450805 0.054411 -0.478394 0.298631 0.179624 
government 0.050501 0.284964 -0.245676 0.164107 0.006065 0.238306 -0.196868 0.046992 0.159089 0.041980 -0.804052 -0.068035 0.592881 0.262998 -0.216872 -0.512456 0.070180 0.218817 0.075372 -0.068314 0.284659 -0.420863 -0.520171 0.349964 0.049670 0.242706 0.521472 -0.272434 0.126554 -0.252384 0.224856 -0.034072 0.094214 0.234675 -0.144874 -0.229356 -0.361604 -0.181104 -0.579615 0.271619 0.616098 -0.343937 -0.124063 -0.094283 -0.457230 -0.481641 0.059825 -0.511978 0.318550 0.191796 
